{"learner":{"attributes":{"scikit_learn":"{\"_estimator_type\": \"regressor\"}"},"feature_names":["pathway_encoded","catalyst_encoded","reactor_encoded","temperature_c","pressure_bar","h2_co2_ratio","1000_T_K","temp_pressure","ln_pressure","is_thermal","is_methanation","is_methanol"],"feature_types":["float","float","float","float","float","float","float","float","float","float","float","float"],"gradient_booster":{"model":{"gbtree_model_param":{"num_parallel_tree":"1","num_trees":"150"},"iteration_indptr":[0,1,2,3,4,5,6,7,8,9,10,11,12,13,14,15,16,17,18,19,20,21,22,23,24,25,26,27,28,29,30,31,32,33,34,35,36,37,38,39,40,41,42,43,44,45,46,47,48,49,50,51,52,53,54,55,56,57,58,59,60,61,62,63,64,65,66,67,68,69,70,71,72,73,74,75,76,77,78,79,80,81,82,83,84,85,86,87,88,89,90,91,92,93,94,95,96,97,98,99,100,101,102,103,104,105,106,107,108,109,110,111,112,113,114,115,116,117,118,119,120,121,122,123,124,125,126,127,128,129,130,131,132,133,134,135,136,137,138,139,140,141,142,143,144,145,146,147,148,149,150],"tree_info":[0,0,0,0,0,0,0,0,0,0,0,0,0,0,0,0,0,0,0,0,0,0,0,0,0,0,0,0,0,0,0,0,0,0,0,0,0,0,0,0,0,0,0,0,0,0,0,0,0,0,0,0,0,0,0,0,0,0,0,0,0,0,0,0,0,0,0,0,0,0,0,0,0,0,0,0,0,0,0,0,0,0,0,0,0,0,0,0,0,0,0,0,0,0,0,0,0,0,0,0,0,0,0,0,0,0,0,0,0,0,0,0,0,0,0,0,0,0,0,0,0,0,0,0,0,0,0,0,0,0,0,0,0,0,0,0,0,0,0,0,0,0,0,0,0,0,0,0,0,0],"trees":[{"base_weights":[4.422111E-2,-2.8864792E-2,4.0841103E-1,-2.5692904E-2,5.2811265E-2,-8.0609275E-3,4.6352064E-3],"categories":[],"categories_nodes":[],"categories_segments":[],"categories_sizes":[],"default_left":[0,0,0,0,0,0,0],"id":0,"left_children":[1,-1,3,5,-1,-1,-1],"loss_changes":[3.0975227E0,0E0,1.2190067E0,3.7229232E-2,0E0,0E0,0E0],"parents":[2147483647,0,0,2,2,3,3],"right_children":[2,-1,4,6,-1,-1,-1],"split_conditions":[1E0,-2.8864792E-2,1.9305894E-1,5.8170598E-2,5.2811265E-2,-8.0609275E-3,4.6352064E-3],"split_indices":[11,0,7,7,0,0,0],"split_type":[0,0,0,0,0,0,0],"sum_hessian":[1.9E1,9E0,1E1,4E0,6E0,2E0,2E0],"tree_param":{"num_deleted":"0","num_feature":"12","num_nodes":"7","size_leaf_vector":"1"}},{"base_weights":[2.9539203E-2,-2.6786525E-2,3.3071992E-1,-4.5767006E-2,4.849418E-2,-8.783038E-3,4.387995E-3],"categories":[],"categories_nodes":[],"categories_segments":[],"categories_sizes":[],"default_left":[0,0,0,0,0,0,0],"id":1,"left_children":[1,-1,3,5,-1,-1,-1],"loss_changes":[2.415306E0,0E0,1.2722162E0,4.4671424E-2,0E0,0E0,0E0],"parents":[2147483647,0,0,2,2,3,3],"right_children":[2,-1,4,6,-1,-1,-1],"split_conditions":[1E0,-2.6786525E-2,1.2302632E-1,-4.8140734E-2,4.849418E-2,-8.783038E-3,4.387995E-3],"split_indices":[11,0,3,3,0,0,0],"split_type":[0,0,0,0,0,0,0],"sum_hessian":[2E1,9E0,1.1E1,5E0,6E0,3E0,2E0],"tree_param":{"num_deleted":"0","num_feature":"12","num_nodes":"7","size_leaf_vector":"1"}},{"base_weights":[2.0475678E-2,-2.3674184E-2,1.8927148E-1,-1.22806564E-1,3.9967108E-1,-1.212882E-2,8.4847567E-4,4.048705E-2,-1.3809942E-2],"categories":[],"categories_nodes":[],"categories_segments":[],"categories_sizes":[],"default_left":[0,0,0,0,0,0,0,0,0],"id":2,"left_children":[1,-1,3,5,7,-1,-1,-1,-1],"loss_changes":[1.0707531E0,0E0,9.0267634E-1,2.466461E-2,5.7457924E-1,0E0,0E0,0E0,0E0],"parents":[2147483647,0,0,2,2,3,3,4,4],"right_children":[2,-1,4,6,8,-1,-1,-1,-1],"split_conditions":[3.593303E-1,-2.3674184E-2,1.2302632E-1,-4.8140734E-2,8.944272E-1,-1.212882E-2,8.4847567E-4,4.048705E-2,-1.3809942E-2],"split_indices":[5,0,3,3,0,0,0,0,0],"split_type":[0,0,0,0,0,0,0,0,0],"sum_hessian":[1.8E1,6E0,1.2E1,5E0,7E0,4E0,1E0,6E0,1E0],"tree_param":{"num_deleted":"0","num_feature":"12","num_nodes":"9","size_leaf_vector":"1"}},{"base_weights":[-5.9696395E-2,-2.4000186E-2,2.2972849E-1,-1.5400313E-2,3.4925535E-2,-7.115791E-3,3.4888058E-3],"categories":[],"categories_nodes":[],"categories_segments":[],"categories_sizes":[],"default_left":[0,0,0,0,0,0,0],"id":3,"left_children":[1,-1,3,5,-1,-1,-1],"loss_changes":[1.6685811E0,0E0,5.6445205E-1,2.991925E-2,0E0,0E0,0E0],"parents":[2147483647,0,0,2,2,3,3],"right_children":[2,-1,4,6,-1,-1,-1],"split_conditions":[1E0,-2.4000186E-2,1.2302632E-1,-4.8140734E-2,3.4925535E-2,-7.115791E-3,3.4888058E-3],"split_indices":[11,0,3,3,0,0,0],"split_type":[0,0,0,0,0,0,0],"sum_hessian":[2.2E1,1.2E1,1E1,5E0,5E0,2E0,3E0],"tree_param":{"num_deleted":"0","num_feature":"12","num_nodes":"7","size_leaf_vector":"1"}},{"base_weights":[3.3039463E-4,-2.2030596E-2,3.0107802E-1,9.542112E-2,5.0969787E-2,-6.7362827E-3,1.6932993E-1,3.922647E-3,1.7377606E-2],"categories":[],"categories_nodes":[],"categories_segments":[],"categories_sizes":[],"default_left":[0,0,0,0,0,0,0,0,0],"id":4,"left_children":[1,-1,3,5,-1,-1,7,-1,-1],"loss_changes":[1.9071515E0,0E0,6.994132E-1,1.20464936E-1,0E0,0E0,2.3915231E-2,0E0,0E0],"parents":[2147483647,0,0,2,2,3,3,6,6],"right_children":[2,-1,4,6,-1,-1,8,-1,-1],"split_conditions":[1E0,-2.2030596E-2,3.797769E-1,-4.8140734E-2,5.0969787E-2,-6.7362827E-3,1.2302632E-1,3.922647E-3,1.7377606E-2],"split_indices":[11,0,3,3,0,0,3,0,0],"split_type":[0,0,0,0,0,0,0,0,0],"sum_hessian":[2.1E1,1.1E1,1E1,7E0,3E0,2E0,5E0,2E0,3E0],"tree_param":{"num_deleted":"0","num_feature":"12","num_nodes":"9","size_leaf_vector":"1"}},{"base_weights":[4.029027E-2,-2.0010414E-2,2.4485557E-1,4.51329E-1,-2.6093448E-2,4.79116E-2,1.9440832E-2,3.8051486E-2,-6.6972016E-3,3.7134392E-3,5.180788E-4],"categories":[],"categories_nodes":[],"categories_segments":[],"categories_sizes":[],"default_left":[0,0,0,0,0,0,0,0,0,0,0],"id":5,"left_children":[1,-1,3,5,7,-1,-1,9,-1,-1,-1],"loss_changes":[1.4276744E0,0E0,7.9498965E-1,1.0038817E-1,2.9058404E-2,0E0,0E0,7.56104E-4,0E0,0E0,0E0],"parents":[2147483647,0,0,2,2,3,3,4,4,7,7],"right_children":[2,-1,4,6,8,-1,-1,10,-1,-1,-1],"split_conditions":[1E0,-2.0010414E-2,-2.0170629E-1,-3.414147E-1,-4.938743E-2,4.79116E-2,1.9440832E-2,1.45865E-1,-6.6972016E-3,3.7134392E-3,5.180788E-4],"split_indices":[11,0,6,6,6,0,0,1,0,0,0],"split_type":[0,0,0,0,0,0,0,0,0,0,0],"sum_hessian":[2.2E1,9E0,1.3E1,7E0,6E0,3E0,4E0,3E0,3E0,2E0,1E0],"tree_param":{"num_deleted":"0","num_feature":"12","num_nodes":"11","size_leaf_vector":"1"}},{"base_weights":[-8.2554586E-2,-1.8811675E-2,9.355137E-2,-2.4358207E-2,2.2120424E-2,-6.2953685E-3,2.8852199E-3],"categories":[],"categories_nodes":[],"categories_segments":[],"categories_sizes":[],"default_left":[0,0,0,0,0,0,0],"id":6,"left_children":[1,-1,3,5,-1,-1,-1],"loss_changes":[5.594431E-1,0E0,2.2245535E-1,2.5819348E-2,0E0,0E0,0E0],"parents":[2147483647,0,0,2,2,3,3],"right_children":[2,-1,4,6,-1,-1,-1],"split_conditions":[1E0,-1.8811675E-2,1.2302632E-1,-4.8140734E-2,2.2120424E-2,-6.2953685E-3,2.8852199E-3],"split_indices":[11,0,3,3,0,0,0],"split_type":[0,0,0,0,0,0,0],"sum_hessian":[1.9E1,1E1,9E0,6E0,3E0,3E0,3E0],"tree_param":{"num_deleted":"0","num_feature":"12","num_nodes":"7","size_leaf_vector":"1"}},{"base_weights":[6.0170144E-3,-1.7515294E-2,2.528693E-1,-1.900836E-2,3.721038E-1,-4.3168175E-3,8.5031986E-4,1.6780913E-2,4.1491188E-2],"categories":[],"categories_nodes":[],"categories_segments":[],"categories_sizes":[],"default_left":[0,0,0,0,0,0,0,0,0],"id":7,"left_children":[1,-1,3,5,7,-1,-1,-1,-1],"loss_changes":[1.1659925E0,0E0,3.3124506E-1,4.7170664E-3,5.7732463E-2,0E0,0E0,0E0,0E0],"parents":[2147483647,0,0,2,2,3,3,4,4],"right_children":[2,-1,4,6,8,-1,-1,-1,-1],"split_conditions":[1E0,-1.7515294E-2,1.2302632E-1,-4.8140734E-2,3.797769E-1,-4.3168175E-3,8.5031986E-4,1.6780913E-2,4.1491188E-2],"split_indices":[11,0,3,3,3,0,0,0,0],"split_type":[0,0,0,0,0,0,0,0,0],"sum_hessian":[1.9E1,1E1,9E0,3E0,6E0,1E0,2E0,4E0,2E0],"tree_param":{"num_deleted":"0","num_feature":"12","num_nodes":"9","size_leaf_vector":"1"}},{"base_weights":[5.704184E-2,-1.4613745E-2,1.6329108E-1,3.2316007E-2,3.66388E-1,-5.4846708E-2,1.1301552E-1,4.1220207E-2,-9.162817E-3,-5.6586373E-3,3.4793376E-4,1.588296E-2,-9.162817E-3],"categories":[],"categories_nodes":[],"categories_segments":[],"categories_sizes":[],"default_left":[0,0,0,0,0,0,0,0,0,0,0,0,0],"id":8,"left_children":[1,-1,3,5,7,9,11,-1,-1,-1,-1,-1,-1],"loss_changes":[4.882778E-1,0E0,3.3396807E-1,6.9504425E-2,4.1697675E-1,5.0096363E-3,1.20041855E-1,0E0,0E0,0E0,0E0,0E0,0E0],"parents":[2147483647,0,0,2,2,3,3,4,4,5,5,6,6],"right_children":[2,-1,4,6,8,10,12,-1,-1,-1,-1,-1,-1],"split_conditions":[3.593303E-1,-1.4613745E-2,3.9539146E-1,1.2302632E-1,8.944272E-1,-4.8140734E-2,8.944272E-1,4.1220207E-2,-9.162817E-3,-5.6586373E-3,3.4793376E-4,1.588296E-2,-9.162817E-3],"split_indices":[5,0,7,3,0,3,0,0,0,0,0,0,0],"split_type":[0,0,0,0,0,0,0,0,0,0,0,0,0],"sum_hessian":[1.7E1,5E0,1.2E1,8E0,4E0,4E0,4E0,3E0,1E0,3E0,1E0,3E0,1E0],"tree_param":{"num_deleted":"0","num_feature":"12","num_nodes":"13","size_leaf_vector":"1"}},{"base_weights":[4.1582394E-2,-1.501718E-2,2.4625413E-1,6.813109E-3,3.8210428E-1,-3.9178003E-3,3.3002637E-2,1.4747603E-2,3.8746994E-2,3.297604E-3,3.3401608E-4],"categories":[],"categories_nodes":[],"categories_segments":[],"categories_sizes":[],"default_left":[0,0,0,0,0,0,0,0,0,0,0],"id":9,"left_children":[1,-1,3,5,7,-1,9,-1,-1,-1,-1],"loss_changes":[9.848385E-1,0E0,3.552057E-1,8.921216E-3,5.223775E-2,0E0,7.754457E-4,0E0,0E0,0E0,0E0],"parents":[2147483647,0,0,2,2,3,3,4,4,6,6],"right_children":[2,-1,4,6,8,-1,10,-1,-1,-1,-1],"split_conditions":[1E0,-1.501718E-2,1.2302632E-1,-4.8140734E-2,3.797769E-1,-3.9178003E-3,1.45865E-1,1.4747603E-2,3.8746994E-2,3.297604E-3,3.3401608E-4],"split_indices":[11,0,3,3,3,0,1,0,0,0,0],"split_type":[0,0,0,0,0,0,0,0,0,0,0],"sum_hessian":[1.9E1,9E0,1E1,4E0,6E0,1E0,3E0,3E0,3E0,2E0,1E0],"tree_param":{"num_deleted":"0","num_feature":"12","num_nodes":"11","size_leaf_vector":"1"}},{"base_weights":[4.389923E-3,-1.3480906E-2,1.0137251E-1,-4.239962E-2,2.1790636E-1,-7.4284524E-3,2.5016265E-3,3.3870542E-1,-1.092749E-2,1.0996585E-2,3.6422174E-2],"categories":[],"categories_nodes":[],"categories_segments":[],"categories_sizes":[],"default_left":[0,0,0,0,0,0,0,0,0,0,0],"id":10,"left_children":[1,-1,3,5,7,-1,-1,9,-1,-1,-1],"loss_changes":[4.195243E-1,0E0,2.7730823E-1,3.264038E-2,4.3167445E-1,0E0,0E0,1.0163772E-1,0E0,0E0,0E0],"parents":[2147483647,0,0,2,2,3,3,4,4,7,7],"right_children":[2,-1,4,6,8,-1,-1,10,-1,-1,-1],"split_conditions":[3.593303E-1,-1.3480906E-2,1.2302632E-1,-4.8140734E-2,8.944272E-1,-7.4284524E-3,2.5016265E-3,3.797769E-1,-1.092749E-2,1.0996585E-2,3.6422174E-2],"split_indices":[5,0,3,3,0,0,0,3,0,0,0],"split_type":[0,0,0,0,0,0,0,0,0,0,0],"sum_hessian":[2.3E1,8E0,1.5E1,7E0,8E0,4E0,3E0,6E0,2E0,3E0,3E0],"tree_param":{"num_deleted":"0","num_feature":"12","num_nodes":"11","size_leaf_vector":"1"}},{"base_weights":[2.4560101E-2,-1.325988E-2,1.72334E-1,-1.6334403E-2,3.158771E-1,-4.638345E-3,2.9394105E-2,1.30427955E-2,3.4236845E-2,2.9883112E-3,2.2058963E-4],"categories":[],"categories_nodes":[],"categories_segments":[],"categories_sizes":[],"default_left":[0,0,0,0,0,0,0,0,0,0,0],"id":11,"left_children":[1,-1,3,5,7,-1,9,-1,-1,-1,-1],"loss_changes":[7.035076E-1,0E0,3.8430837E-1,1.5034767E-2,6.727612E-2,0E0,7.4509275E-4,0E0,0E0,0E0,0E0],"parents":[2147483647,0,0,2,2,3,3,4,4,6,6],"right_children":[2,-1,4,6,8,-1,10,-1,-1,-1,-1],"split_conditions":[1E0,-1.325988E-2,1.2302632E-1,-4.8140734E-2,3.797769E-1,-4.638345E-3,1.45865E-1,1.30427955E-2,3.4236845E-2,2.9883112E-3,2.2058963E-4],"split_indices":[11,0,3,3,3,0,1,0,0,0,0],"split_type":[0,0,0,0,0,0,0,0,0,0,0],"sum_hessian":[2.3E1,1E1,1.3E1,6E0,7E0,3E0,3E0,4E0,3E0,2E0,1E0],"tree_param":{"num_deleted":"0","num_feature":"12","num_nodes":"11","size_leaf_vector":"1"}},{"base_weights":[-6.526068E-3,-1.2394305E-1,9.186526E-2,-1.1673465E-2,-4.3600444E-3,1.7875057E-1,-1.0127439E-2,2.2275841E-3,1.9965012E-2],"categories":[],"categories_nodes":[],"categories_segments":[],"categories_sizes":[],"default_left":[0,0,0,0,0,0,0,0,0],"id":12,"left_children":[1,3,5,-1,-1,7,-1,-1,-1],"loss_changes":[2.5399512E-1,7.3075593E-3,2.5039834E-1,0E0,0E0,8.922452E-2,0E0,0E0,0E0],"parents":[2147483647,0,0,1,1,2,2,5,5],"right_children":[2,4,6,-1,-1,8,-1,-1,-1],"split_conditions":[5.8170598E-2,-1.3146149E-1,8.944272E-1,-1.1673465E-2,-4.3600444E-3,1.2302632E-1,-1.0127439E-2,2.2275841E-3,1.9965012E-2],"split_indices":[7,4,0,0,0,3,0,0,0],"split_type":[0,0,0,0,0,0,0,0,0],"sum_hessian":[2E1,9E0,1.1E1,6E0,3E0,8E0,3E0,3E0,5E0],"tree_param":{"num_deleted":"0","num_feature":"12","num_nodes":"9","size_leaf_vector":"1"}},{"base_weights":[-2.5252221E-2,-1.1621475E-2,9.705965E-2,-4.2188712E-3,1.4572925E-2,-3.4669256E-3,2.0939296E-3],"categories":[],"categories_nodes":[],"categories_segments":[],"categories_sizes":[],"default_left":[0,0,0,0,0,0,0],"id":13,"left_children":[1,-1,3,5,-1,-1,-1],"loss_changes":[3.2236728E-1,0E0,9.557748E-2,8.267721E-3,0E0,0E0,0E0],"parents":[2147483647,0,0,2,2,3,3],"right_children":[2,-1,4,6,-1,-1,-1],"split_conditions":[1E0,-1.1621475E-2,1.2302632E-1,-4.8140734E-2,1.4572925E-2,-3.4669256E-3,2.0939296E-3],"split_indices":[11,0,3,3,0,0,0],"split_type":[0,0,0,0,0,0,0],"sum_hessian":[2E1,1E1,1E1,5E0,5E0,2E0,3E0],"tree_param":{"num_deleted":"0","num_feature":"12","num_nodes":"7","size_leaf_vector":"1"}},{"base_weights":[3.2967415E-2,-1.0464059E-2,1.5640695E-1,5.277726E-2,3.011036E-2,-3.8904252E-3,1.03184834E-1,2.598454E-3,9.997629E-3],"categories":[],"categories_nodes":[],"categories_segments":[],"categories_sizes":[],"default_left":[0,0,0,0,0,0,0,0,0],"id":14,"left_children":[1,-1,3,5,-1,-1,7,-1,-1],"loss_changes":[4.651984E-1,0E0,2.7647963E-1,5.6135014E-2,0E0,0E0,6.723173E-3,0E0,0E0],"parents":[2147483647,0,0,2,2,3,3,6,6],"right_children":[2,-1,4,6,-1,-1,8,-1,-1],"split_conditions":[1E0,-1.0464059E-2,3.797769E-1,-4.8140734E-2,3.011036E-2,-3.8904252E-3,1.2302632E-1,2.598454E-3,9.997629E-3],"split_indices":[11,0,3,3,0,0,3,0,0],"split_type":[0,0,0,0,0,0,0,0,0],"sum_hessian":[2.1E1,9E0,1.2E1,9E0,3E0,3E0,6E0,2E0,4E0],"tree_param":{"num_deleted":"0","num_feature":"12","num_nodes":"9","size_leaf_vector":"1"}},{"base_weights":[2.6788851E-2,-9.885301E-3,1.5195173E-1,5.601857E-2,2.8303737E-2,-4.1126213E-3,9.357782E-3,-3.074533E-3,2.2654817E-2,2.4598693E-3,-6.503343E-5],"categories":[],"categories_nodes":[],"categories_segments":[],"categories_sizes":[],"default_left":[0,0,0,0,0,0,0,0,0,0,0],"id":15,"left_children":[1,-1,3,5,-1,7,-1,-1,9,-1,-1],"loss_changes":[4.5161033E-1,0E0,2.3190793E-1,3.7133258E-2,0E0,6.3824593E-3,0E0,0E0,7.8474544E-4,0E0,0E0],"parents":[2147483647,0,0,2,2,3,3,5,5,8,8],"right_children":[2,-1,4,6,-1,8,-1,-1,10,-1,-1],"split_conditions":[1E0,-9.885301E-3,3.797769E-1,1.2302632E-1,2.8303737E-2,-4.8140734E-2,9.357782E-3,-3.074533E-3,1.45865E-1,2.4598693E-3,-6.503343E-5],"split_indices":[11,0,3,3,0,3,0,0,1,0,0],"split_type":[0,0,0,0,0,0,0,0,0,0,0],"sum_hessian":[2.2E1,1E1,1.2E1,9E0,3E0,5E0,4E0,2E0,3E0,2E0,1E0],"tree_param":{"num_deleted":"0","num_feature":"12","num_nodes":"11","size_leaf_vector":"1"}},{"base_weights":[1.0456315E-2,-9.307567E-3,1.2581912E-1,2.6287487E-2,5.2404873E-2,8.758882E-3,-3.896902E-3,1.7152905E-3,-2.9105581E-3],"categories":[],"categories_nodes":[],"categories_segments":[],"categories_sizes":[],"default_left":[0,0,0,0,0,0,0,0,0],"id":16,"left_children":[1,-1,3,-1,5,-1,7,-1,-1],"loss_changes":[3.3645678E-1,0E0,1.6141851E-1,0E0,3.2564364E-2,0E0,5.7187187E-3,0E0,0E0],"parents":[2147483647,0,0,2,2,4,4,6,6],"right_children":[2,-1,4,-1,6,-1,8,-1,-1],"split_conditions":[1E0,-9.307567E-3,-3.414147E-1,2.6287487E-2,-2.0170629E-1,8.758882E-3,-4.938743E-2,1.7152905E-3,-2.9105581E-3],"split_indices":[11,0,6,0,6,0,6,0,0],"split_type":[0,0,0,0,0,0,0,0,0],"sum_hessian":[2.1E1,1E1,1.1E1,2E0,9E0,4E0,5E0,3E0,2E0],"tree_param":{"num_deleted":"0","num_feature":"12","num_nodes":"9","size_leaf_vector":"1"}},{"base_weights":[-1.0083339E-2,-8.524858E-3,1.0669787E-1,2.5089644E-2,1.5764626E-2,5.7950877E-3,-3.2727476E-2,5.02944E-5,-3.2978947E-3],"categories":[],"categories_nodes":[],"categories_segments":[],"categories_sizes":[],"default_left":[0,0,0,0,0,0,0,0,0],"id":17,"left_children":[1,-1,3,-1,5,-1,7,-1,-1],"loss_changes":[2.4797149E-1,0E0,1.8321744E-1,0E0,2.4356652E-2,0E0,1.4429213E-3,0E0,0E0],"parents":[2147483647,0,0,2,2,4,4,6,6],"right_children":[2,-1,4,-1,6,-1,8,-1,-1],"split_conditions":[1E0,-8.524858E-3,-3.414147E-1,2.5089644E-2,-2.0170629E-1,5.7950877E-3,-4.938743E-2,5.02944E-5,-3.2978947E-3],"split_indices":[11,0,6,0,6,0,6,0,0],"split_type":[0,0,0,0,0,0,0,0,0],"sum_hessian":[2E1,1.1E1,9E0,2E0,7E0,3E0,4E0,1E0,3E0],"tree_param":{"num_deleted":"0","num_feature":"12","num_nodes":"9","size_leaf_vector":"1"}},{"base_weights":[-1.4567386E-2,-7.554717E-3,4.4841707E-2,7.767403E-2,-5.4882006E-3,1.721239E-2,1.5428787E-2,-2.579441E-3,3.4754523E-3],"categories":[],"categories_nodes":[],"categories_segments":[],"categories_sizes":[],"default_left":[0,0,0,0,0,0,0,0,0],"id":18,"left_children":[1,-1,3,5,-1,7,-1,-1,-1],"loss_changes":[8.9641E-2,0E0,4.629964E-2,5.9359327E-2,0E0,1.0481508E-2,0E0,0E0,0E0],"parents":[2147483647,0,0,2,2,3,3,5,5],"right_children":[2,-1,4,6,-1,8,-1,-1,-1],"split_conditions":[5.938433E-1,-7.554717E-3,8.944272E-1,3.797769E-1,-5.4882006E-3,-4.8140734E-2,1.5428787E-2,-2.579441E-3,3.4754523E-3],"split_indices":[4,0,0,3,0,3,0,0,0],"split_type":[0,0,0,0,0,0,0,0,0],"sum_hessian":[1.7E1,7E0,1E1,8E0,2E0,6E0,2E0,2E0,4E0],"tree_param":{"num_deleted":"0","num_feature":"12","num_nodes":"9","size_leaf_vector":"1"}},{"base_weights":[1.16135E-3,-7.5450234E-2,6.490756E-2,-6.939882E-3,-2.945254E-3,1.483027E-1,-6.5204934E-3,5.5708777E-2,2.2724504E-2,2.4103245E-2,5.2388585E-3,3.1644641E-3,-2.7207492E-4],"categories":[],"categories_nodes":[],"categories_segments":[],"categories_sizes":[],"default_left":[0,0,0,0,0,0,0,0,0,0,0,0,0],"id":19,"left_children":[1,3,5,-1,-1,7,-1,9,-1,11,-1,-1,-1],"loss_changes":[1.07454956E-1,1.1713356E-3,1.586099E-1,0E0,0E0,8.4735245E-2,0E0,2.7561747E-4,0E0,1.4095566E-3,0E0,0E0,0E0],"parents":[2147483647,0,0,1,1,2,2,5,5,7,7,9,9],"right_children":[2,4,6,-1,-1,8,-1,10,-1,12,-1,-1,-1],"split_conditions":[5.8170598E-2,-7.671775E-2,8.944272E-1,-6.939882E-3,-2.945254E-3,3.797769E-1,-6.5204934E-3,1.2302632E-1,2.2724504E-2,1.45865E-1,5.2388585E-3,3.1644641E-3,-2.7207492E-4],"split_indices":[7,7,0,0,0,3,0,3,0,1,0,0,0],"split_type":[0,0,0,0,0,0,0,0,0,0,0,0,0],"sum_hessian":[2E1,9E0,1.1E1,6E0,3E0,7E0,4E0,5E0,2E0,2E0,3E0,1E0,1E0],"tree_param":{"num_deleted":"0","num_feature":"12","num_nodes":"13","size_leaf_vector":"1"}},{"base_weights":[1.5435491E-2,-7.0380787E-3,1.0297137E-1,3.4537703E-2,2.1233687E-2,-1.0634646E-2,7.269716E-3,-2.7685394E-3,1.5996113E-2,1.8803803E-3,-2.6119233E-4],"categories":[],"categories_nodes":[],"categories_segments":[],"categories_sizes":[],"default_left":[0,0,0,0,0,0,0,0,0,0,0],"id":20,"left_children":[1,-1,3,5,-1,7,-1,-1,9,-1,-1],"loss_changes":[2.3536436E-1,0E0,1.4647138E-1,2.8958391E-2,0E0,5.0223395E-3,0E0,0E0,6.552369E-4,0E0,0E0],"parents":[2147483647,0,0,2,2,3,3,5,5,8,8],"right_children":[2,-1,4,6,-1,8,-1,-1,10,-1,-1],"split_conditions":[1E0,-7.0380787E-3,3.797769E-1,1.2302632E-1,2.1233687E-2,-4.8140734E-2,7.269716E-3,-2.7685394E-3,1.45865E-1,1.8803803E-3,-2.6119233E-4],"split_indices":[11,0,3,3,0,3,0,0,1,0,0],"split_type":[0,0,0,0,0,0,0,0,0,0,0],"sum_hessian":[2.4E1,1.1E1,1.3E1,1E1,3E0,6E0,4E0,3E0,3E0,2E0,1E0],"tree_param":{"num_deleted":"0","num_feature":"12","num_nodes":"11","size_leaf_vector":"1"}},{"base_weights":[3.4494918E-2,-3.7771784E-2,1.10538796E-1,-4.7597447E-3,1.5121222E-2,1.9640394E-1,-5.3887917E-3,1.7800934E-3,-2.507448E-4,7.5368844E-3,1.9959666E-2],"categories":[],"categories_nodes":[],"categories_segments":[],"categories_sizes":[],"default_left":[0,0,0,0,0,0,0,0,0,0,0],"id":21,"left_children":[1,3,5,-1,7,9,-1,-1,-1,-1,-1],"loss_changes":[1.1408405E-1,1.3539787E-2,1.6598271E-1,0E0,5.903859E-4,1.4474034E-2,0E0,0E0,0E0,0E0,0E0],"parents":[2147483647,0,0,1,1,2,2,4,4,5,5],"right_children":[2,4,6,-1,8,10,-1,-1,-1,-1,-1],"split_conditions":[1.2302632E-1,-4.8140734E-2,8.9327806E-1,-4.7597447E-3,1.45865E-1,3.797769E-1,-5.3887917E-3,1.7800934E-3,-2.507448E-4,7.5368844E-3,1.9959666E-2],"split_indices":[3,3,3,0,1,3,0,0,0,0,0],"split_type":[0,0,0,0,0,0,0,0,0,0,0],"sum_hessian":[1.9E1,1E1,9E0,7E0,3E0,6E0,3E0,2E0,1E0,3E0,3E0],"tree_param":{"num_deleted":"0","num_feature":"12","num_nodes":"11","size_leaf_vector":"1"}},{"base_weights":[1.6457602E-2,-5.9766746E-3,1.0612749E-1,1.846197E-1,-2.4987081E-2,1.8762086E-2,7.084671E-3,-3.6373376E-4,-2.3168412E-3],"categories":[],"categories_nodes":[],"categories_segments":[],"categories_sizes":[],"default_left":[0,0,0,0,0,0,0,0,0],"id":22,"left_children":[1,-1,3,5,7,-1,-1,-1,-1],"loss_changes":[1.7960043E-1,0E0,1.1781928E-1,1.2789264E-2,2.744191E-4,0E0,0E0,0E0,0E0],"parents":[2147483647,0,0,2,2,3,3,4,4],"right_children":[2,-1,4,6,8,-1,-1,-1,-1],"split_conditions":[1E0,-5.9766746E-3,-2.0170629E-1,-3.414147E-1,-4.938743E-2,1.8762086E-2,7.084671E-3,-3.6373376E-4,-2.3168412E-3],"split_indices":[11,0,6,6,6,0,0,0,0],"split_type":[0,0,0,0,0,0,0,0,0],"sum_hessian":[2E1,1E1,1E1,6E0,4E0,3E0,3E0,1E0,3E0],"tree_param":{"num_deleted":"0","num_feature":"12","num_nodes":"9","size_leaf_vector":"1"}},{"base_weights":[9.340905E-3,-5.6915544E-3,1.0361077E-1,3.2237567E-2,1.7636359E-2,-2.1778313E-3,5.8686733E-3],"categories":[],"categories_nodes":[],"categories_segments":[],"categories_sizes":[],"default_left":[0,0,0,0,0,0,0],"id":23,"left_children":[1,-1,3,5,-1,-1,-1],"loss_changes":[1.8188019E-1,0E0,8.4627695E-2,2.1557543E-2,0E0,0E0,0E0],"parents":[2147483647,0,0,2,2,3,3],"right_children":[2,-1,4,6,-1,-1,-1],"split_conditions":[1E0,-5.6915544E-3,3.797769E-1,-4.8140734E-2,1.7636359E-2,-2.1778313E-3,5.8686733E-3],"split_indices":[11,0,3,3,0,0,0],"split_type":[0,0,0,0,0,0,0],"sum_hessian":[2.2E1,1.2E1,1E1,7E0,3E0,3E0,4E0],"tree_param":{"num_deleted":"0","num_feature":"12","num_nodes":"7","size_leaf_vector":"1"}},{"base_weights":[1.1107842E-2,-5.172428E-3,8.5861236E-2,-3.4955095E-3,1.6090778E-1,-1.6435654E-3,1.0165162E-2,6.125091E-3,1.7578455E-2,1.3915586E-3,-4.6091198E-4],"categories":[],"categories_nodes":[],"categories_segments":[],"categories_sizes":[],"default_left":[0,0,0,0,0,0,0,0,0,0,0],"id":24,"left_children":[1,-1,3,5,7,-1,9,-1,-1,-1,-1],"loss_changes":[1.2448607E-1,0E0,7.432751E-2,1.6062486E-3,1.2944818E-2,0E0,5.607696E-4,0E0,0E0,0E0,0E0],"parents":[2147483647,0,0,2,2,3,3,4,4,6,6],"right_children":[2,-1,4,6,8,-1,10,-1,-1,-1,-1],"split_conditions":[1E0,-5.172428E-3,1.9305894E-1,5.8170598E-2,2.1554033E-1,-1.6435654E-3,1.45865E-1,6.125091E-3,1.7578455E-2,1.3915586E-3,-4.6091198E-4],"split_indices":[11,0,7,7,7,0,1,0,0,0,0],"split_type":[0,0,0,0,0,0,0,0,0,0,0],"sum_hessian":[2E1,1E1,1E1,5E0,5E0,2E0,3E0,3E0,2E0,2E0,1E0],"tree_param":{"num_deleted":"0","num_feature":"12","num_nodes":"11","size_leaf_vector":"1"}},{"base_weights":[1.3268336E-2,-4.776648E-3,7.90577E-2,-2.0746512E-2,1.5331021E-1,-1.948547E-3,-7.213791E-4,1.5812498E-2,5.6509315E-3],"categories":[],"categories_nodes":[],"categories_segments":[],"categories_sizes":[],"default_left":[0,0,0,0,0,0,0,0,0],"id":25,"left_children":[1,-1,3,5,7,-1,-1,-1,-1],"loss_changes":[1.10343985E-1,0E0,9.210921E-2,3.4447527E-5,1.1701927E-2,0E0,0E0,0E0,0E0],"parents":[2147483647,0,0,2,2,3,3,4,4],"right_children":[2,-1,4,6,8,-1,-1,-1,-1],"split_conditions":[1E0,-4.776648E-3,1.2302632E-1,-4.8140734E-2,1.45865E-1,-1.948547E-3,-7.213791E-4,1.5812498E-2,5.6509315E-3],"split_indices":[11,0,3,3,1,0,0,0,0],"split_type":[0,0,0,0,0,0,0,0,0],"sum_hessian":[2.1E1,1E1,1.1E1,5E0,6E0,3E0,2E0,3E0,3E0],"tree_param":{"num_deleted":"0","num_feature":"12","num_nodes":"9","size_leaf_vector":"1"}},{"base_weights":[5.296862E-3,-4.381261E-3,7.684232E-2,2.2958642E-2,1.5593442E-2,-1.8444195E-3,4.4142418E-3],"categories":[],"categories_nodes":[],"categories_segments":[],"categories_sizes":[],"default_left":[0,0,0,0,0,0,0],"id":26,"left_children":[1,-1,3,5,-1,-1,-1],"loss_changes":[9.44497E-2,0E0,5.914849E-2,1.3132455E-2,0E0,0E0,0E0],"parents":[2147483647,0,0,2,2,3,3],"right_children":[2,-1,4,6,-1,-1,-1],"split_conditions":[1E0,-4.381261E-3,3.797769E-1,1.2302632E-1,1.5593442E-2,-1.8444195E-3,4.4142418E-3],"split_indices":[11,0,3,3,0,0,0],"split_type":[0,0,0,0,0,0,0],"sum_hessian":[2E1,1.1E1,9E0,7E0,2E0,3E0,4E0],"tree_param":{"num_deleted":"0","num_feature":"12","num_nodes":"7","size_leaf_vector":"1"}},{"base_weights":[1.6737595E-2,-4.047459E-3,7.7062726E-2,2.5848402E-2,1.38423415E-2,-7.874866E-4,4.7472105E-3,-1.3536183E-3,1.1508942E-2,1.4541832E-3,-3.398442E-4],"categories":[],"categories_nodes":[],"categories_segments":[],"categories_sizes":[],"default_left":[0,0,0,0,0,0,0,0,0,0,0],"id":27,"left_children":[1,-1,3,5,-1,7,-1,-1,9,-1,-1],"loss_changes":[9.325717E-2,0E0,5.4505818E-2,8.075468E-3,0E0,1.3849845E-3,0E0,0E0,4.975106E-4,0E0,0E0],"parents":[2147483647,0,0,2,2,3,3,5,5,8,8],"right_children":[2,-1,4,6,-1,8,-1,-1,10,-1,-1],"split_conditions":[1E0,-4.047459E-3,3.797769E-1,1.2302632E-1,1.38423415E-2,-4.8140734E-2,4.7472105E-3,-1.3536183E-3,1.45865E-1,1.4541832E-3,-3.398442E-4],"split_indices":[11,0,3,3,0,3,0,0,1,0,0],"split_type":[0,0,0,0,0,0,0,0,0,0,0],"sum_hessian":[2.1E1,1E1,1.1E1,8E0,3E0,5E0,3E0,2E0,3E0,2E0,1E0],"tree_param":{"num_deleted":"0","num_feature":"12","num_nodes":"11","size_leaf_vector":"1"}},{"base_weights":[1.4060073E-2,-3.9925557E-3,5.7263386E-2,1.824762E-2,1.4498672E-2,-1.6397532E-3,3.5338935E-2,1.0866813E-2,3.8279074E-3,1.3766272E-3,-3.262508E-4],"categories":[],"categories_nodes":[],"categories_segments":[],"categories_sizes":[],"default_left":[0,0,0,0,0,0,0,0,0,0,0],"id":28,"left_children":[1,-1,3,5,-1,-1,7,9,-1,-1,-1],"loss_changes":[6.0893178E-2,0E0,5.9571132E-2,8.008485E-3,0E0,0E0,1.9291881E-3,4.4924123E-4,0E0,0E0,0E0],"parents":[2147483647,0,0,2,2,3,3,6,6,7,7],"right_children":[2,-1,4,6,-1,-1,8,10,-1,-1,-1],"split_conditions":[1E0,-3.9925557E-3,3.797769E-1,-4.8140734E-2,1.4498672E-2,-1.6397532E-3,1.2302632E-1,1.45865E-1,3.8279074E-3,1.3766272E-3,-3.262508E-4],"split_indices":[11,0,3,3,0,0,3,1,0,0,0],"split_type":[0,0,0,0,0,0,0,0,0,0,0],"sum_hessian":[2E1,8E0,1.2E1,1E1,2E0,3E0,7E0,3E0,4E0,2E0,1E0],"tree_param":{"num_deleted":"0","num_feature":"12","num_nodes":"11","size_leaf_vector":"1"}},{"base_weights":[1.3564245E-2,-3.4893125E-3,4.6968352E-2,6.240409E-2,-2.846076E-3,2.041592E-2,1.2141879E-2,-1.5413681E-3,3.2140298E-3],"categories":[],"categories_nodes":[],"categories_segments":[],"categories_sizes":[],"default_left":[0,0,0,0,0,0,0,0,0],"id":29,"left_children":[1,-1,3,5,-1,7,-1,-1,-1],"loss_changes":[4.5980174E-2,0E0,2.1332059E-2,4.5683347E-2,0E0,8.615211E-3,0E0,0E0,0E0],"parents":[2147483647,0,0,2,2,3,3,5,5],"right_children":[2,-1,4,6,-1,8,-1,-1,-1],"split_conditions":[5.938433E-1,-3.4893125E-3,8.944272E-1,3.797769E-1,-2.846076E-3,-4.8140734E-2,1.2141879E-2,-1.5413681E-3,3.2140298E-3],"split_indices":[4,0,0,3,0,3,0,0,0],"split_type":[0,0,0,0,0,0,0,0,0],"sum_hessian":[2.2E1,8E0,1.4E1,1.2E1,2E0,9E0,3E0,3E0,6E0],"tree_param":{"num_deleted":"0","num_feature":"12","num_nodes":"9","size_leaf_vector":"1"}},{"base_weights":[-1.3342992E-2,-3.2625585E-3,2.0918094E-2,-1.4488854E-3,4.0232174E-2,1.1317921E-3,3.826928E-3],"categories":[],"categories_nodes":[],"categories_segments":[],"categories_sizes":[],"default_left":[0,0,0,0,0,0,0],"id":30,"left_children":[1,-1,3,-1,5,-1,-1],"loss_changes":[2.0594962E-2,0E0,8.266771E-3,0E0,7.117549E-4,0E0,0E0],"parents":[2147483647,0,0,2,2,4,4],"right_children":[2,-1,4,-1,6,-1,-1],"split_conditions":[1E0,-3.2625585E-3,-4.8140734E-2,-1.4488854E-3,1.2302632E-1,1.1317921E-3,3.826928E-3],"split_indices":[11,0,3,0,3,0,0],"split_type":[0,0,0,0,0,0,0],"sum_hessian":[2E1,1.1E1,9E0,3E0,6E0,2E0,4E0],"tree_param":{"num_deleted":"0","num_feature":"12","num_nodes":"7","size_leaf_vector":"1"}},{"base_weights":[3.565162E-3,-3.1365245E-3,5.378945E-2,-1.3449885E-3,1.15426354E-1,1.4051418E-2,3.3125984E-3],"categories":[],"categories_nodes":[],"categories_segments":[],"categories_sizes":[],"default_left":[0,0,0,0,0,0,0],"id":31,"left_children":[1,-1,3,-1,5,-1,-1],"loss_changes":[5.1517017E-2,0E0,4.980903E-2,0E0,1.9469969E-2,0E0,0E0],"parents":[2147483647,0,0,2,2,4,4],"right_children":[2,-1,4,-1,6,-1,-1],"split_conditions":[1E0,-3.1365245E-3,1.2302632E-1,-1.3449885E-3,1.45865E-1,1.4051418E-2,3.3125984E-3],"split_indices":[11,0,3,0,1,0,0],"split_type":[0,0,0,0,0,0,0],"sum_hessian":[2.2E1,1.2E1,1E1,5E0,5E0,2E0,3E0],"tree_param":{"num_deleted":"0","num_feature":"12","num_nodes":"7","size_leaf_vector":"1"}},{"base_weights":[2.8014346E-3,-2.9704284E-3,3.9172124E-2,1.5513372E-1,4.6643167E-4,1.4978952E-2,3.6370945E-3,9.818137E-3,-1.2812528E-3,3.6982596E-3,1.348348E-2,-1.1230207E-3,1.1431614E-3,1.7270612E-3,-4.3323517E-4],"categories":[],"categories_nodes":[],"categories_segments":[],"categories_sizes":[],"default_left":[0,0,0,0,0,0,0,0,0,0,0,0,0,0,0],"id":32,"left_children":[1,-1,3,5,7,-1,-1,9,-1,11,13,-1,-1,-1,-1],"loss_changes":[3.3406105E-2,0E0,5.3788133E-2,2.0497963E-3,1.6986006E-3,0E0,0E0,1.07154716E-4,0E0,9.519797E-4,7.2959677E-4,0E0,0E0,0E0,0E0],"parents":[2147483647,0,0,2,2,3,3,4,4,7,7,9,9,10,10],"right_children":[2,-1,4,6,8,-1,-1,10,-1,12,14,-1,-1,-1,-1],"split_conditions":[1E0,-2.9704284E-3,-3.414147E-1,1.45865E-1,-4.938743E-2,1.4978952E-2,3.6370945E-3,1.45865E-1,-1.2812528E-3,-2.0170629E-1,-2.0170629E-1,-1.1230207E-3,1.1431614E-3,1.7270612E-3,-4.3323517E-4],"split_indices":[11,0,6,1,6,0,0,1,0,6,6,0,0,0,0],"split_type":[0,0,0,0,0,0,0,0,0,0,0,0,0,0,0],"sum_hessian":[2.1E1,1E1,1.1E1,2E0,9E0,1E0,1E0,6E0,3E0,3E0,3E0,1E0,2E0,2E0,1E0],"tree_param":{"num_deleted":"0","num_feature":"12","num_nodes":"15","size_leaf_vector":"1"}},{"base_weights":[-5.934038E-3,-2.7126502E-3,2.0344663E-2,3.3658843E-3,-4.290608E-3,7.546149E-3,-1.204377E-3,1.082193E-3,-4.159057E-4],"categories":[],"categories_nodes":[],"categories_segments":[],"categories_sizes":[],"default_left":[0,0,0,0,0,0,0,0,0],"id":33,"left_children":[1,-1,3,-1,5,7,-1,-1,-1],"loss_changes":[1.8332796E-2,0E0,7.139385E-3,0E0,1.0054898E-3,3.752507E-4,0E0,0E0,0E0],"parents":[2147483647,0,0,2,2,4,4,5,5],"right_children":[2,-1,4,-1,6,8,-1,-1,-1],"split_conditions":[1E0,-2.7126502E-3,-2.0170629E-1,3.3658843E-3,-4.938743E-2,1.45865E-1,-1.204377E-3,1.082193E-3,-4.159057E-4],"split_indices":[11,0,6,0,6,1,0,0,0],"split_type":[0,0,0,0,0,0,0,0,0],"sum_hessian":[2.3E1,1.1E1,1.2E1,6E0,6E0,3E0,3E0,2E0,1E0],"tree_param":{"num_deleted":"0","num_feature":"12","num_nodes":"9","size_leaf_vector":"1"}},{"base_weights":[1.3577395E-2,-2.4059222E-3,4.7140792E-2,1.0670799E-2,8.906623E-3,2.3419075E-3,-1.5023246E-3],"categories":[],"categories_nodes":[],"categories_segments":[],"categories_sizes":[],"default_left":[0,0,0,0,0,0,0],"id":34,"left_children":[1,-1,3,-1,5,-1,-1],"loss_changes":[2.6324244E-2,0E0,3.178674E-2,0E0,5.060778E-3,0E0,0E0],"parents":[2147483647,0,0,2,2,4,4],"right_children":[2,-1,4,-1,6,-1,-1],"split_conditions":[1E0,-2.4059222E-3,-3.414147E-1,1.0670799E-2,-2.0170629E-1,2.3419075E-3,-1.5023246E-3],"split_indices":[11,0,6,0,6,0,0],"split_type":[0,0,0,0,0,0,0],"sum_hessian":[1.6E1,7E0,9E0,2E0,7E0,4E0,3E0],"tree_param":{"num_deleted":"0","num_feature":"12","num_nodes":"7","size_leaf_vector":"1"}},{"base_weights":[-1.0596777E-2,4.6615163E-3,-2.4891727E-2,-2.046683E-2,3.89089E-2,-1.0157406E-2,-2.3317938E-3,-1.890661E-3,-5.872965E-5,1.1046012E-3,4.083252E-3,-9.370311E-4,-2.1963834E-4],"categories":[],"categories_nodes":[],"categories_segments":[],"categories_sizes":[],"default_left":[0,0,0,0,0,0,0,0,0,0,0,0,0],"id":35,"left_children":[1,3,5,7,9,11,-1,-1,-1,-1,-1,-1,-1],"loss_changes":[4.696481E-3,1.0262723E-2,3.9369008E-4,4.2002625E-4,8.178749E-4,1.3959012E-5,0E0,0E0,0E0,0E0,0E0,0E0,0E0],"parents":[2147483647,0,0,1,1,2,2,3,3,4,4,5,5],"right_children":[2,4,6,8,10,12,-1,-1,-1,-1,-1,-1,-1],"split_conditions":[1.45865E-1,-4.8140734E-2,8.944272E-1,0E0,1.2302632E-1,1.2302632E-1,-2.3317938E-3,-1.890661E-3,-5.872965E-5,1.1046012E-3,4.083252E-3,-9.370311E-4,-2.1963834E-4],"split_indices":[1,3,0,0,3,3,0,0,0,0,0,0,0],"split_type":[0,0,0,0,0,0,0,0,0,0,0,0,0],"sum_hessian":[2E1,1E1,1E1,6E0,4E0,3E0,7E0,5E0,1E0,2E0,2E0,2E0,1E0],"tree_param":{"num_deleted":"0","num_feature":"12","num_nodes":"13","size_leaf_vector":"1"}},{"base_weights":[1.28728505E-2,3.648568E-2,-2.168568E-3,-9.4988495E-3,8.956855E-3,-1.5621417E-3,7.917747E-3,1.0456896E-3,-3.0169488E-4],"categories":[],"categories_nodes":[],"categories_segments":[],"categories_sizes":[],"default_left":[0,0,0,0,0,0,0,0,0],"id":36,"left_children":[1,3,-1,5,-1,-1,7,-1,-1],"loss_changes":[1.9869817E-2,4.618238E-2,0E0,1.7264783E-3,0E0,0E0,2.9024336E-4,0E0,0E0],"parents":[2147483647,0,0,1,1,3,3,6,6],"right_children":[2,4,-1,6,-1,-1,8,-1,-1],"split_conditions":[8.944272E-1,1.2302632E-1,-2.168568E-3,-4.8140734E-2,8.956855E-3,-1.5621417E-3,1.45865E-1,1.0456896E-3,-3.0169488E-4],"split_indices":[0,3,0,3,0,0,1,0,0],"split_type":[0,0,0,0,0,0,0,0,0],"sum_hessian":[1.9E1,1.2E1,7E0,8E0,4E0,5E0,3E0,2E0,1E0],"tree_param":{"num_deleted":"0","num_feature":"12","num_nodes":"9","size_leaf_vector":"1"}},{"base_weights":[8.6894035E-3,-1.9356521E-3,3.810992E-2,1.0431233E-1,4.452192E-3,9.406214E-3,2.5806522E-3,1.4951496E-3,-8.54034E-4],"categories":[],"categories_nodes":[],"categories_segments":[],"categories_sizes":[],"default_left":[0,0,0,0,0,0,0,0,0],"id":37,"left_children":[1,-1,3,5,7,-1,-1,-1,-1],"loss_changes":[2.2206992E-2,0E0,2.6274255E-2,3.0454248E-5,2.1378882E-3,0E0,0E0,0E0,0E0],"parents":[2147483647,0,0,2,2,3,3,4,4],"right_children":[2,-1,4,6,8,-1,-1,-1,-1],"split_conditions":[1E0,-1.9356521E-3,-3.414147E-1,1.45865E-1,-2.0170629E-1,9.406214E-3,2.5806522E-3,1.4951496E-3,-8.54034E-4],"split_indices":[11,0,6,1,6,0,0,0,0],"split_type":[0,0,0,0,0,0,0,0,0],"sum_hessian":[2.1E1,1E1,1.1E1,3E0,8E0,2E0,1E0,4E0,4E0],"tree_param":{"num_deleted":"0","num_feature":"12","num_nodes":"9","size_leaf_vector":"1"}},{"base_weights":[8.956528E-3,-9.286354E-3,5.611146E-2,-1.5400467E-3,6.2748813E-3,7.917125E-3,-1.5783333E-3,8.249847E-4,-7.179874E-4],"categories":[],"categories_nodes":[],"categories_segments":[],"categories_sizes":[],"default_left":[0,0,0,0,0,0,0,0,0],"id":38,"left_children":[1,3,5,-1,7,-1,-1,-1,-1],"loss_changes":[1.858615E-2,2.6016864E-3,2.1452287E-2,0E0,5.2353897E-4,0E0,0E0,0E0,0E0],"parents":[2147483647,0,0,1,1,2,2,4,4],"right_children":[2,4,6,-1,8,-1,-1,-1,-1],"split_conditions":[3.5042867E-1,5.8170598E-2,8.944272E-1,-1.5400467E-3,8.944272E-1,7.917125E-3,-1.5783333E-3,8.249847E-4,-7.179874E-4],"split_indices":[7,7,0,0,0,0,0,0,0],"split_type":[0,0,0,0,0,0,0,0,0],"sum_hessian":[2E1,1.5E1,5E0,9E0,6E0,3E0,2E0,5E0,1E0],"tree_param":{"num_deleted":"0","num_feature":"12","num_nodes":"9","size_leaf_vector":"1"}},{"base_weights":[9.9784015E-3,-2.1215731E-2,2.8029654E-2,-1.0895336E-3,-2.1845314E-3,7.6969415E-2,-4.1371686E-3,-7.98251E-4,7.7083646E-3,8.803561E-3,-1.5070888E-3,-7.7273604E-4,2.0449743E-2,7.408126E-4,2.1607399E-3],"categories":[],"categories_nodes":[],"categories_segments":[],"categories_sizes":[],"default_left":[0,0,0,0,0,0,0,0,0,0,0,0,0,0,0],"id":39,"left_children":[1,3,5,-1,-1,7,9,-1,-1,11,-1,-1,13,-1,-1],"loss_changes":[1.3545813E-2,4.453631E-5,2.3931988E-2,0E0,0E0,1.1074383E-2,2.0683208E-3,0E0,0E0,1.4876523E-3,0E0,0E0,4.3482636E-5,0E0,0E0],"parents":[2147483647,0,0,1,1,2,2,5,5,6,6,9,9,12,12],"right_children":[2,4,6,-1,-1,8,10,-1,-1,12,-1,-1,14,-1,-1],"split_conditions":[5.938433E-1,3.593303E-1,1.45865E-1,-1.0895336E-3,-2.1845314E-3,-4.8140734E-2,8.944272E-1,-7.98251E-4,7.7083646E-3,1.2302632E-1,-1.5070888E-3,-7.7273604E-4,3.797769E-1,7.408126E-4,2.1607399E-3],"split_indices":[4,5,1,0,0,3,0,0,0,3,0,0,3,0,0],"split_type":[0,0,0,0,0,0,0,0,0,0,0,0,0,0,0],"sum_hessian":[2.2E1,8E0,1.4E1,5E0,3E0,5E0,9E0,1E0,4E0,5E0,4E0,2E0,3E0,2E0,1E0],"tree_param":{"num_deleted":"0","num_feature":"12","num_nodes":"15","size_leaf_vector":"1"}},{"base_weights":[2.700318E-3,-1.9882258E-2,1.6069843E-2,-1.016898E-3,-2.0534594E-3,2.9928394E-2,-1.4106352E-3,-3.164377E-3,8.863184E-2,8.23015E-4,-7.357523E-3,8.071191E-3,2.0743085E-3,5.0216616E-4,-8.3972927E-4,-2.2291564E-3,7.013019E-4],"categories":[],"categories_nodes":[],"categories_segments":[],"categories_sizes":[],"default_left":[0,0,0,0,0,0,0,0,0,0,0,0,0,0,0,0,0],"id":40,"left_children":[1,3,5,-1,-1,7,-1,9,11,13,15,-1,-1,-1,-1,-1,-1],"loss_changes":[7.2636264E-3,4.7148438E-5,7.5338017E-3,0E0,0E0,2.1649718E-2,0E0,1.3981308E-4,4.58505E-4,3.7457794E-4,1.5668658E-3,0E0,0E0,0E0,0E0,0E0,0E0],"parents":[2147483647,0,0,1,1,2,2,5,5,7,7,8,8,9,9,10,10],"right_children":[2,4,6,-1,-1,8,-1,10,12,14,16,-1,-1,-1,-1,-1,-1],"split_conditions":[6.333581E-1,3.593303E-1,8.944272E-1,-1.016898E-3,-2.0534594E-3,3.797769E-1,-1.4106352E-3,1.2302632E-1,1.45865E-1,1.45865E-1,1.45865E-1,8.071191E-3,2.0743085E-3,5.0216616E-4,-8.3972927E-4,-2.2291564E-3,7.013019E-4],"split_indices":[8,5,0,0,0,3,0,3,1,1,1,0,0,0,0,0,0],"split_type":[0,0,0,0,0,0,0,0,0,0,0,0,0,0,0,0,0],"sum_hessian":[2.2E1,8E0,1.4E1,5E0,3E0,1E1,4E0,7E0,3E0,4E0,3E0,2E0,1E0,3E0,1E0,1E0,2E0],"tree_param":{"num_deleted":"0","num_feature":"12","num_nodes":"17","size_leaf_vector":"1"}},{"base_weights":[7.041323E-3,-8.640466E-3,4.7685873E-2,-1.3195224E-3,7.1978127E-3,8.4077656E-2,-1.3385436E-3,1.7662823E-3,-1.203393E-3,7.640727E-3,1.991334E-3],"categories":[],"categories_nodes":[],"categories_segments":[],"categories_sizes":[],"default_left":[0,0,0,0,0,0,0,0,0,0,0],"id":41,"left_children":[1,3,5,-1,7,9,-1,-1,-1,-1,-1],"loss_changes":[1.3796993E-2,2.108912E-3,1.5472413E-2,0E0,2.3178174E-3,3.2894313E-4,0E0,0E0,0E0,0E0,0E0],"parents":[2147483647,0,0,1,1,2,2,4,4,5,5],"right_children":[2,4,6,-1,8,10,-1,-1,-1,-1,-1],"split_conditions":[3.9539146E-1,1.9305894E-1,8.944272E-1,-1.3195224E-3,8.944272E-1,1.45865E-1,-1.3385436E-3,1.7662823E-3,-1.203393E-3,7.640727E-3,1.991334E-3],"split_indices":[7,7,0,0,0,1,0,0,0,0,0],"split_type":[0,0,0,0,0,0,0,0,0,0,0],"sum_hessian":[2E1,1.5E1,5E0,1E1,5E0,3E0,2E0,3E0,2E0,2E0,1E0],"tree_param":{"num_deleted":"0","num_feature":"12","num_nodes":"11","size_leaf_vector":"1"}},{"base_weights":[-6.1596544E-3,-1.8309556E-2,7.654752E-3,-9.435107E-4,-2.0058176E-3,-6.602457E-4,1.465182E-2,1.96633E-2,-8.171415E-4,3.013976E-2,4.2710155E-3,6.2394777E-4,3.8864396E-3,-1.7118454E-4,5.69698E-4],"categories":[],"categories_nodes":[],"categories_segments":[],"categories_sizes":[],"default_left":[0,0,0,0,0,0,0,0,0,0,0,0,0,0,0],"id":42,"left_children":[1,3,5,-1,-1,-1,7,9,-1,11,13,-1,-1,-1,-1],"loss_changes":[3.832716E-3,2.3309421E-4,1.3453118E-3,0E0,0E0,0E0,1.1977736E-3,1.0000691E-3,0E0,1.2689985E-3,8.83268E-5,0E0,0E0,0E0,0E0],"parents":[2147483647,0,0,1,1,2,2,6,6,7,7,9,9,10,10],"right_children":[2,4,6,-1,-1,-1,8,10,-1,12,14,-1,-1,-1,-1],"split_conditions":[1E0,3.593303E-1,-4.8140734E-2,-9.435107E-4,-2.0058176E-3,-6.602457E-4,3.797769E-1,1.45865E-1,-8.171415E-4,1.2302632E-1,1.2302632E-1,6.2394777E-4,3.8864396E-3,-1.7118454E-4,5.69698E-4],"split_indices":[11,5,3,0,0,0,3,1,0,3,3,0,0,0,0],"split_type":[0,0,0,0,0,0,0,0,0,0,0,0,0,0,0],"sum_hessian":[2.1E1,1.1E1,1E1,7E0,4E0,3E0,7E0,6E0,1E0,3E0,3E0,2E0,1E0,1E0,2E0],"tree_param":{"num_deleted":"0","num_feature":"12","num_nodes":"15","size_leaf_vector":"1"}},{"base_weights":[1.2541101E-2,-1.6402185E-2,4.0344287E-2,-8.987646E-4,-1.8109514E-3,1.5287228E-2,6.4297863E-3,1.7598033E-3,2.269976E-3,-3.5603045E-4,5.9067085E-4],"categories":[],"categories_nodes":[],"categories_segments":[],"categories_sizes":[],"default_left":[0,0,0,0,0,0,0,0,0,0,0],"id":43,"left_children":[1,3,5,-1,-1,7,-1,9,-1,-1,-1],"loss_changes":[1.7560761E-2,1.000897E-4,9.804167E-3,0E0,0E0,1.3663848E-3,0E0,2.074763E-4,0E0,0E0,0E0],"parents":[2147483647,0,0,1,1,2,2,5,5,7,7],"right_children":[2,4,6,-1,-1,8,-1,10,-1,-1,-1],"split_conditions":[1E0,3.593303E-1,2.1554033E-1,-8.987646E-4,-1.8109514E-3,1.9305894E-1,6.4297863E-3,5.8170598E-2,2.269976E-3,-3.5603045E-4,5.9067085E-4],"split_indices":[11,5,7,0,0,7,0,7,0,0,0],"split_type":[0,0,0,0,0,0,0,0,0,0,0],"sum_hessian":[2E1,1E1,1E1,7E0,3E0,7E0,3E0,4E0,3E0,2E0,2E0],"tree_param":{"num_deleted":"0","num_feature":"12","num_nodes":"11","size_leaf_vector":"1"}},{"base_weights":[6.3745747E-3,-1.5328463E-2,2.9610459E-2,-8.145514E-4,-1.7431591E-3,-4.0170643E-3,1.09413706E-1,-8.766579E-3,6.8209865E-3,1.144247E-2,1.6871738E-3,1.7645985E-3,-2.4568986E-3,-7.127082E-4,1.5312266E-3,-3.2388806E-4,5.591679E-4],"categories":[],"categories_nodes":[],"categories_segments":[],"categories_sizes":[],"default_left":[0,0,0,0,0,0,0,0,0,0,0,0,0,0,0,0,0],"id":44,"left_children":[1,3,5,-1,-1,7,9,11,13,-1,-1,15,-1,-1,-1,-1,-1],"loss_changes":[1.053967E-2,1.4391495E-4,2.7275378E-2,0E0,0E0,4.7160056E-4,5.8911406E-3,1.4408113E-3,7.518624E-4,0E0,0E0,1.8016793E-4,0E0,0E0,0E0,0E0,0E0],"parents":[2147483647,0,0,1,1,2,2,5,5,6,6,7,7,8,8,11,11],"right_children":[2,4,6,-1,-1,8,10,12,14,-1,-1,16,-1,-1,-1,-1,-1],"split_conditions":[1E0,3.593303E-1,3.797769E-1,-8.145514E-4,-1.7431591E-3,1.45865E-1,1.45865E-1,1.2302632E-1,-4.8140734E-2,1.144247E-2,1.6871738E-3,-4.8140734E-2,-2.4568986E-3,-7.127082E-4,1.5312266E-3,-3.2388806E-4,5.591679E-4],"split_indices":[11,5,3,0,0,1,1,3,3,0,0,3,0,0,0,0,0],"split_type":[0,0,0,0,0,0,0,0,0,0,0,0,0,0,0,0,0],"sum_hessian":[1.9E1,1E1,9E0,7E0,3E0,7E0,2E0,5E0,2E0,1E0,1E0,4E0,1E0,1E0,1E0,2E0,2E0],"tree_param":{"num_deleted":"0","num_feature":"12","num_nodes":"17","size_leaf_vector":"1"}},{"base_weights":[-7.700925E-3,-3.3389113E-3,-1.1933668E-3,-1.0413874E-2,4.1534156E-3,-9.561134E-4,-3.0939974E-4,5.2934483E-4,1.7835855E-4],"categories":[],"categories_nodes":[],"categories_segments":[],"categories_sizes":[],"default_left":[0,0,0,0,0,0,0,0,0],"id":45,"left_children":[1,3,-1,5,7,-1,-1,-1,-1],"loss_changes":[6.4268697E-4,8.383722E-4,0E0,3.4300552E-5,2.3163215E-5,0E0,0E0,0E0,0E0],"parents":[2147483647,0,0,1,1,3,3,4,4],"right_children":[2,4,-1,6,8,-1,-1,-1,-1],"split_conditions":[8.9327806E-1,-4.8140734E-2,-1.1933668E-3,5.7735026E-1,1.2302632E-1,-9.561134E-4,-3.0939974E-4,5.2934483E-4,1.7835855E-4],"split_indices":[3,3,0,2,3,0,0,0,0],"split_type":[0,0,0,0,0,0,0,0,0],"sum_hessian":[2.1E1,1.4E1,7E0,7E0,7E0,5E0,2E0,2E0,5E0],"tree_param":{"num_deleted":"0","num_feature":"12","num_nodes":"9","size_leaf_vector":"1"}},{"base_weights":[7.085982E-3,-5.885322E-3,2.7278602E-2,-1.0652172E-3,4.227627E-4,6.927323E-2,-9.4182574E-4,-5.534956E-4,4.9691007E-4,6.3141086E-3,1.6125536E-3],"categories":[],"categories_nodes":[],"categories_segments":[],"categories_sizes":[],"default_left":[0,0,0,0,0,0,0,0,0,0,0],"id":46,"left_children":[1,3,5,-1,7,9,-1,-1,-1,-1,-1],"loss_changes":[5.399036E-3,6.149182E-4,1.3935142E-2,0E0,3.8294954E-4,3.05593E-4,0E0,0E0,0E0,0E0,0E0],"parents":[2147483647,0,0,1,1,2,2,4,4,5,5],"right_children":[2,4,6,-1,8,10,-1,-1,-1,-1,-1],"split_conditions":[3.9539146E-1,5.938433E-1,8.944272E-1,-1.0652172E-3,-4.8140734E-2,1.45865E-1,-9.4182574E-4,-5.534956E-4,4.9691007E-4,6.3141086E-3,1.6125536E-3],"split_indices":[7,4,0,0,3,1,0,0,0,0,0],"split_type":[0,0,0,0,0,0,0,0,0,0,0],"sum_hessian":[1.9E1,1.2E1,7E0,5E0,7E0,3E0,4E0,3E0,4E0,2E0,1E0],"tree_param":{"num_deleted":"0","num_feature":"12","num_nodes":"11","size_leaf_vector":"1"}},{"base_weights":[8.0332365E-3,-3.9392286E-3,3.596162E-2,-1.2546487E-2,5.1057218E-3,1.07250735E-2,-2.732585E-3,-4.2755838E-4,-1.3840706E-2,8.1509206E-4,-9.983523E-4,-8.8154885E-4,1.5480518E-3,-3.2066877E-4,-1.1849096E-3,-3.6025848E-4,1.0036752E-3,-2.9026388E-4,3.0056795E-4],"categories":[],"categories_nodes":[],"categories_segments":[],"categories_sizes":[],"default_left":[0,0,0,0,0,0,0,0,0,0,0,0,0,0,0,0,0,0,0],"id":47,"left_children":[1,3,5,7,9,-1,11,-1,13,-1,15,-1,-1,-1,-1,-1,17,-1,-1],"loss_changes":[7.832208E-3,1.3875468E-3,2.6938139E-2,9.917421E-6,2.894111E-4,0E0,1.3112248E-3,0E0,7.4380077E-6,0E0,3.9604096E-5,0E0,0E0,0E0,0E0,0E0,6.4647036E-5,0E0,0E0],"parents":[2147483647,0,0,1,1,2,2,3,3,4,4,6,6,8,8,10,10,16,16],"right_children":[2,4,6,8,10,-1,12,-1,14,-1,16,-1,-1,-1,-1,-1,18,-1,-1],"split_conditions":[3.5042867E-1,5.8170598E-2,1.45865E-1,-1.021055E0,1.45865E-1,1.07250735E-2,1.3127849E0,-4.2755838E-4,-1.4174771E0,8.1509206E-4,7.2932494E-1,-8.8154885E-4,1.5480518E-3,-3.2066877E-4,-1.1849096E-3,-3.6025848E-4,1.2302632E-1,-2.9026388E-4,3.0056795E-4],"split_indices":[7,7,1,1,1,0,1,0,3,0,1,0,0,0,0,0,3,0,0],"split_type":[0,0,0,0,0,0,0,0,0,0,0,0,0,0,0,0,0,0,0],"sum_hessian":[2.2E1,1.6E1,6E0,8E0,8E0,1E0,5E0,2E0,6E0,4E0,4E0,4E0,1E0,1E0,5E0,1E0,3E0,1E0,2E0],"tree_param":{"num_deleted":"0","num_feature":"12","num_nodes":"19","size_leaf_vector":"1"}},{"base_weights":[6.7922585E-3,-1.0997595E-2,2.1051114E-2,-5.4867123E-4,-1.2393442E-3,5.9963495E-2,1.4177114E-3,5.4053525E-3,1.4861297E-3,8.437062E-3,-5.885181E-3,8.404048E-4,2.8453668E-4,-1.9739747E-4,-5.872933E-4],"categories":[],"categories_nodes":[],"categories_segments":[],"categories_sizes":[],"default_left":[0,0,0,0,0,0,0,0,0,0,0,0,0,0,0],"id":48,"left_children":[1,3,5,-1,-1,7,9,-1,-1,11,13,-1,-1,-1,-1],"loss_changes":[5.5584344E-3,7.977558E-5,9.082777E-3,0E0,0E0,3.5613775E-6,5.110076E-4,0E0,0E0,1.3099401E-5,6.766597E-6,0E0,0E0,0E0,0E0],"parents":[2147483647,0,0,1,1,2,2,5,5,6,6,9,9,10,10],"right_children":[2,4,6,-1,-1,8,10,-1,-1,12,14,-1,-1,-1,-1],"split_conditions":[1E0,1.7888544E0,-3.414147E-1,-5.4867123E-4,-1.2393442E-3,1.45865E-1,-2.0170629E-1,5.4053525E-3,1.4861297E-3,1.45865E-1,1.45865E-1,8.404048E-4,2.8453668E-4,-1.9739747E-4,-5.872933E-4],"split_indices":[11,0,6,0,0,1,6,0,0,1,1,0,0,0,0],"split_type":[0,0,0,0,0,0,0,0,0,0,0,0,0,0,0],"sum_hessian":[2E1,9E0,1.1E1,6E0,3E0,3E0,8E0,2E0,1E0,4E0,4E0,2E0,2E0,2E0,2E0],"tree_param":{"num_deleted":"0","num_feature":"12","num_nodes":"15","size_leaf_vector":"1"}},{"base_weights":[5.1913057E-3,-1.1296515E-2,1.8498547E-2,-5.2312855E-4,-1.3438282E-3,-6.194015E-4,4.5511434E-3,-9.1019925E-3,7.98707E-3,-2.2407274E-3,-1.2929261E-2,7.9558213E-4,2.6936055E-4,3.0990838E-4,-5.787957E-4,-1.2963497E-3,-2.5516152E-4],"categories":[],"categories_nodes":[],"categories_segments":[],"categories_sizes":[],"default_left":[0,0,0,0,0,0,0,0,0,0,0,0,0,0,0,0,0],"id":49,"left_children":[1,3,5,-1,-1,7,-1,9,11,13,15,-1,-1,-1,-1,-1,-1],"loss_changes":[4.816525E-3,1.5187799E-4,8.842666E-3,0E0,0E0,7.2974485E-4,0E0,1.02328544E-4,1.1739554E-5,1.19639815E-4,4.4012093E-5,0E0,0E0,0E0,0E0,0E0,0E0],"parents":[2147483647,0,0,1,1,2,2,5,5,7,7,8,8,9,9,10,10],"right_children":[2,4,6,-1,-1,8,-1,10,12,14,16,-1,-1,-1,-1,-1,-1],"split_conditions":[1E0,3.593303E-1,3.797769E-1,-5.2312855E-4,-1.3438282E-3,1.2302632E-1,4.5511434E-3,-4.8140734E-2,1.45865E-1,1.45865E-1,1.45865E-1,7.9558213E-4,2.6936055E-4,3.0990838E-4,-5.787957E-4,-1.2963497E-3,-2.5516152E-4],"split_indices":[11,5,3,0,0,3,0,3,1,1,1,0,0,0,0,0,0],"split_type":[0,0,0,0,0,0,0,0,0,0,0,0,0,0,0,0,0],"sum_hessian":[2E1,9E0,1.1E1,6E0,3E0,8E0,3E0,4E0,4E0,2E0,2E0,2E0,2E0,1E0,1E0,1E0,1E0],"tree_param":{"num_deleted":"0","num_feature":"12","num_nodes":"17","size_leaf_vector":"1"}},{"base_weights":[5.7620737E-3,1.3195312E-2,-1.0753817E-2,7.440454E-4,5.3475916E-2,-5.0900533E-4,-1.084354E-3,-4.619444E-4,6.3545965E-3,4.8743403E-3,1.2446356E-3,7.583733E-4,8.5961074E-4,-2.449548E-4,2.5499501E-4],"categories":[],"categories_nodes":[],"categories_segments":[],"categories_sizes":[],"default_left":[0,0,0,0,0,0,0,0,0,0,0,0,0,0,0],"id":50,"left_children":[1,3,5,7,9,-1,-1,-1,11,-1,-1,-1,13,-1,-1],"loss_changes":[3.0882969E-3,8.486469E-3,1.2144446E-5,5.4869486E-4,1.8252898E-4,0E0,0E0,0E0,1.2922887E-4,0E0,0E0,0E0,4.6274454E-5,0E0,0E0],"parents":[2147483647,0,0,1,1,2,2,3,3,4,4,8,8,12,12],"right_children":[2,4,6,8,10,-1,-1,-1,12,-1,-1,-1,14,-1,-1],"split_conditions":[8.944272E-1,3.797769E-1,1.7888544E0,-4.8140734E-2,1.45865E-1,-5.0900533E-4,-1.084354E-3,-4.619444E-4,1.45865E-1,4.8743403E-3,1.2446356E-3,7.583733E-4,1.2302632E-1,-2.449548E-4,2.5499501E-4],"split_indices":[0,3,0,3,1,0,0,0,1,0,0,0,3,0,0],"split_type":[0,0,0,0,0,0,0,0,0,0,0,0,0,0,0],"sum_hessian":[2.3E1,1.6E1,7E0,1.3E1,3E0,4E0,3E0,6E0,7E0,2E0,1E0,4E0,3E0,1E0,2E0],"tree_param":{"num_deleted":"0","num_feature":"12","num_nodes":"15","size_leaf_vector":"1"}},{"base_weights":[6.4565903E-3,-1.0023714E-2,2.3772204E-2,-3.2295554E-4,-1.0745223E-2,-2.712153E-3,4.307705E-2,-2.4649224E-4,-8.9628116E-4,-7.4753165E-4,2.93988E-3,5.2523157E-3,9.73089E-3,4.7035853E-4,-2.3515701E-4,2.4139562E-4,1.194849E-3],"categories":[],"categories_nodes":[],"categories_segments":[],"categories_sizes":[],"default_left":[0,0,0,0,0,0,0,0,0,0,0,0,0,0,0,0,0],"id":51,"left_children":[1,3,5,-1,7,9,11,-1,-1,-1,13,-1,15,-1,-1,-1,-1],"loss_changes":[7.0870835E-3,1.2775534E-5,6.252148E-3,0E0,4.116446E-6,2.5237608E-4,4.6311E-3,0E0,0E0,0E0,8.641422E-5,0E0,9.469906E-5,0E0,0E0,0E0,0E0],"parents":[2147483647,0,0,1,1,2,2,4,4,5,5,6,6,10,10,12,12],"right_children":[2,4,6,-1,8,10,12,-1,-1,-1,14,-1,16,-1,-1,-1,-1],"split_conditions":[1E0,-8.944272E-1,1.2302632E-1,-3.2295554E-4,-1.4174771E0,-4.8140734E-2,1.45865E-1,-2.4649224E-4,-8.9628116E-4,-7.4753165E-4,1.45865E-1,5.2523157E-3,3.797769E-1,4.7035853E-4,-2.3515701E-4,2.4139562E-4,1.194849E-3],"split_indices":[11,0,3,0,3,3,1,0,0,0,1,0,3,0,0,0,0],"split_type":[0,0,0,0,0,0,0,0,0,0,0,0,0,0,0,0,0],"sum_hessian":[2.3E1,1.2E1,1.1E1,2E0,1E1,5E0,6E0,1E0,9E0,2E0,3E0,3E0,3E0,2E0,1E0,2E0,1E0],"tree_param":{"num_deleted":"0","num_feature":"12","num_nodes":"17","size_leaf_vector":"1"}},{"base_weights":[9.859522E-3,-7.8020655E-3,2.1328349E-2,-4.0149598E-4,-9.356716E-4,-9.765944E-4,4.0586386E-2,2.2978454E-3,-4.88677E-4,4.937175E-3,9.311482E-3,-1.3889272E-4,4.4527213E-4,2.2852102E-4,1.1470556E-3],"categories":[],"categories_nodes":[],"categories_segments":[],"categories_sizes":[],"default_left":[0,0,0,0,0,0,0,0,0,0,0,0,0,0,0],"id":52,"left_children":[1,3,5,-1,-1,7,9,11,-1,-1,13,-1,-1,-1,-1],"loss_changes":[4.420117E-3,3.8843427E-5,5.6237793E-3,0E0,0E0,1.3166427E-4,4.0508453E-3,7.5580065E-5,0E0,0E0,8.8831875E-5,0E0,0E0,0E0,0E0],"parents":[2147483647,0,0,1,1,2,2,5,5,6,6,7,7,10,10],"right_children":[2,4,6,-1,-1,8,10,12,-1,-1,14,-1,-1,-1,-1],"split_conditions":[1E0,7.2932494E-1,1.2302632E-1,-4.0149598E-4,-9.356716E-4,1.45865E-1,1.45865E-1,-4.8140734E-2,-4.88677E-4,4.937175E-3,3.797769E-1,-1.3889272E-4,4.4527213E-4,2.2852102E-4,1.1470556E-3],"split_indices":[11,1,3,0,0,1,1,3,0,0,3,0,0,0,0],"split_type":[0,0,0,0,0,0,0,0,0,0,0,0,0,0,0],"sum_hessian":[2E1,8E0,1.2E1,6E0,2E0,6E0,6E0,4E0,2E0,3E0,3E0,2E0,2E0,2E0,1E0],"tree_param":{"num_deleted":"0","num_feature":"12","num_nodes":"15","size_leaf_vector":"1"}},{"base_weights":[5.1613078E-3,-1.1750492E-2,3.8124688E-2,-3.459221E-4,-1.3149914E-3,6.9309548E-3,-6.232538E-4],"categories":[],"categories_nodes":[],"categories_segments":[],"categories_sizes":[],"default_left":[0,0,0,0,0,0,0],"id":53,"left_children":[1,3,5,-1,-1,-1,-1],"loss_changes":[9.924975E-3,3.466095E-4,1.4039705E-2,0E0,0E0,0E0,0E0],"parents":[2147483647,0,0,1,1,2,2],"right_children":[2,4,6,-1,-1,-1,-1],"split_conditions":[3.5042867E-1,3.593303E-1,8.944272E-1,-3.459221E-4,-1.3149914E-3,6.9309548E-3,-6.232538E-4],"split_indices":[7,5,0,0,0,0,0],"split_type":[0,0,0,0,0,0,0],"sum_hessian":[1.6E1,1.1E1,5E0,5E0,6E0,2E0,3E0],"tree_param":{"num_deleted":"0","num_feature":"12","num_nodes":"7","size_leaf_vector":"1"}},{"base_weights":[3.6869084E-3,-2.5770694E-3,2.5499847E-2,-8.4406985E-3,1.9216673E-3,3.701283E-3,-3.013035E-4,-1.9940171E-4,-8.934364E-3,-3.294669E-3,4.289627E-3,-2.0673584E-4,-7.64962E-4,-6.135265E-5,-4.3511807E-4,4.3863393E-4,1.7255992E-3,-1.5360356E-4,2.8646627E-4],"categories":[],"categories_nodes":[],"categories_segments":[],"categories_sizes":[],"default_left":[0,0,0,0,0,0,0,0,0,0,0,0,0,0,0,0,0,0,0],"id":54,"left_children":[1,3,5,7,9,-1,-1,-1,11,13,15,-1,-1,-1,-1,-1,17,-1,-1],"loss_changes":[3.0717016E-3,4.910409E-4,3.212983E-3,1.222128E-6,1.5000573E-4,0E0,0E0,0E0,3.190129E-6,1.7509985E-5,1.5015845E-5,0E0,0E0,0E0,0E0,0E0,3.392937E-5,0E0,0E0],"parents":[2147483647,0,0,1,1,2,2,3,3,4,4,8,8,9,9,10,10,16,16],"right_children":[2,4,6,8,10,-1,-1,-1,12,14,16,-1,-1,-1,-1,-1,18,-1,-1],"split_conditions":[3.9539146E-1,5.938433E-1,8.944272E-1,-8.944272E-1,-4.8140734E-2,3.701283E-3,-3.013035E-4,-1.9940171E-4,-1.4174771E0,1.45865E-1,1.45865E-1,-2.0673584E-4,-7.64962E-4,-6.135265E-5,-4.3511807E-4,4.3863393E-4,1.2302632E-1,-1.5360356E-4,2.8646627E-4],"split_indices":[7,4,0,0,3,0,0,0,3,1,1,0,0,0,0,0,3,0,0],"split_type":[0,0,0,0,0,0,0,0,0,0,0,0,0,0,0,0,0,0,0],"sum_hessian":[2.1E1,1.7E1,4E0,7E0,1E1,2E0,2E0,1E0,6E0,3E0,7E0,1E0,5E0,2E0,1E0,4E0,3E0,1E0,2E0],"tree_param":{"num_deleted":"0","num_feature":"12","num_nodes":"19","size_leaf_vector":"1"}},{"base_weights":[8.825921E-3,-7.847284E-3,2.3181023E-2,-2.5992803E-4,-6.8725535E-4,3.6993004E-2,-7.91952E-4,-5.8079957E-5,4.1780644E-3,-3.76782E-4,2.7118842E-4],"categories":[],"categories_nodes":[],"categories_segments":[],"categories_sizes":[],"default_left":[0,0,0,0,0,0,0,0,0,0,0],"id":55,"left_children":[1,3,5,-1,-1,7,9,-1,-1,-1,-1],"loss_changes":[4.968819E-3,6.2712934E-6,3.6715535E-3,0E0,0E0,4.059879E-3,9.788336E-5,0E0,0E0,0E0,0E0],"parents":[2147483647,0,0,1,1,2,2,5,5,6,6],"right_children":[2,4,6,-1,-1,8,10,-1,-1,-1,-1],"split_conditions":[1E0,-1.4174771E0,1.45865E-1,-2.5992803E-4,-6.8725535E-4,-4.8140734E-2,1.2302632E-1,-5.8079957E-5,4.1780644E-3,-3.76782E-4,2.7118842E-4],"split_indices":[11,3,1,0,0,3,3,0,0,0,0],"split_type":[0,0,0,0,0,0,0,0,0,0,0],"sum_hessian":[1.9E1,9E0,1E1,2E0,7E0,6E0,4E0,2E0,4E0,2E0,2E0],"tree_param":{"num_deleted":"0","num_feature":"12","num_nodes":"11","size_leaf_vector":"1"}},{"base_weights":[-6.419084E-3,-2.0807085E-3,-1.9018069E-2,-6.9587394E-3,1.541984E-3,-3.781271E-3,-1.3964239E-4,-2.7672498E-4,-8.377564E-4,3.1947393E-3,-7.4971915E-4,-4.58252E-4,6.650352E-4,3.8848637E-4,-6.8235395E-6,-3.5668688E-4,2.5672436E-4],"categories":[],"categories_nodes":[],"categories_segments":[],"categories_sizes":[],"default_left":[0,0,0,0,0,0,0,0,0,0,0,0,0,0,0,0,0],"id":56,"left_children":[1,3,5,7,9,-1,11,-1,-1,13,15,-1,-1,-1,-1,-1,-1],"loss_changes":[1.0536115E-3,2.9347598E-4,2.6597716E-3,4.9842696E-5,4.027141E-5,0E0,2.3656708E-4,0E0,0E0,3.310971E-5,8.772068E-5,0E0,0E0,0E0,0E0,0E0,0E0],"parents":[2147483647,0,0,1,1,2,2,3,3,4,4,6,6,9,9,10,10],"right_children":[2,4,6,8,10,-1,12,-1,-1,14,16,-1,-1,-1,-1,-1,-1],"split_conditions":[3.5042867E-1,5.938433E-1,1.45865E-1,3.593303E-1,1.45865E-1,-3.781271E-3,1.3127849E0,-2.7672498E-4,-8.377564E-4,1.2302632E-1,1.2302632E-1,-4.58252E-4,6.650352E-4,3.8848637E-4,-6.8235395E-6,-3.5668688E-4,2.5672436E-4],"split_indices":[7,4,1,5,1,0,1,0,0,3,3,0,0,0,0,0,0],"split_type":[0,0,0,0,0,0,0,0,0,0,0,0,0,0,0,0,0],"sum_hessian":[1.9E1,1.5E1,4E0,6E0,9E0,1E0,3E0,4E0,2E0,5E0,4E0,2E0,1E0,3E0,2E0,2E0,2E0],"tree_param":{"num_deleted":"0","num_feature":"12","num_nodes":"17","size_leaf_vector":"1"}},{"base_weights":[-5.8081965E-3,-9.22634E-3,7.6587587E-3,-2.51402E-3,-1.9415125E-2,-3.376639E-4,1.3588317E-3,-4.7351944E-4,7.6367386E-4,-3.630018E-3,-7.5259022E-3,-7.570068E-5,1.6368985E-3,-2.1054363E-4,-7.4520055E-4,2.2471427E-4,-6.461143E-6],"categories":[],"categories_nodes":[],"categories_segments":[],"categories_sizes":[],"default_left":[0,0,0,0,0,0,0,0,0,0,0,0,0,0,0,0,0],"id":57,"left_children":[1,3,5,7,9,-1,-1,-1,11,-1,13,-1,15,-1,-1,-1,-1],"loss_changes":[1.0833659E-3,1.1822169E-3,6.2567357E-4,1.384457E-4,1.8190288E-3,0E0,0E0,0E0,1.20010145E-5,0E0,2.8021197E-5,0E0,1.0292622E-5,0E0,0E0,0E0,0E0],"parents":[2147483647,0,0,1,1,2,2,3,3,4,4,8,8,10,10,12,12],"right_children":[2,4,6,8,10,-1,-1,-1,12,-1,14,-1,16,-1,-1,-1,-1],"split_conditions":[1.3127849E0,3.797769E-1,1.2302632E-1,0E0,8.944272E-1,-3.376639E-4,1.3588317E-3,-4.7351944E-4,-4.8140734E-2,-3.630018E-3,1.7888544E0,-7.570068E-5,1.2302632E-1,-2.1054363E-4,-7.4520055E-4,2.2471427E-4,-6.461143E-6],"split_indices":[1,3,3,0,0,0,0,0,3,0,0,0,3,0,0,0,0],"split_type":[0,0,0,0,0,0,0,0,0,0,0,0,0,0,0,0,0],"sum_hessian":[2.1E1,1.7E1,4E0,1.1E1,6E0,2E0,2E0,5E0,6E0,1E0,5E0,2E0,4E0,2E0,3E0,2E0,2E0],"tree_param":{"num_deleted":"0","num_feature":"12","num_nodes":"17","size_leaf_vector":"1"}},{"base_weights":[4.3908185E-3,-7.1077514E-3,1.3782622E-2,-2.5761692E-4,-8.9030055E-4,2.6710064E-3,3.8116008E-2,-9.567269E-4,8.351788E-3,3.6763223E-3,5.8407785E-4,1.0579973E-3,-3.1965534E-4,-6.1178207E-6,1.3454627E-3,-7.166346E-5,2.1272978E-4],"categories":[],"categories_nodes":[],"categories_segments":[],"categories_sizes":[],"default_left":[0,0,0,0,0,0,0,0,0,0,0,0,0,0,0,0,0],"id":58,"left_children":[1,3,5,-1,-1,7,9,11,13,-1,-1,15,-1,-1,-1,-1,-1],"loss_changes":[2.5817868E-3,1.3611303E-4,3.4131738E-3,0E0,0E0,2.1407401E-4,6.3060643E-4,4.7086163E-5,2.867175E-4,0E0,0E0,1.8023336E-5,0E0,0E0,0E0,0E0,0E0],"parents":[2147483647,0,0,1,1,2,2,5,5,6,6,7,7,8,8,11,11],"right_children":[2,4,6,-1,-1,8,10,12,14,-1,-1,16,-1,-1,-1,-1,-1],"split_conditions":[1E0,3.593303E-1,3.797769E-1,-2.5761692E-4,-8.9030055E-4,1.2302632E-1,1.45865E-1,1.45865E-1,1.45865E-1,3.6763223E-3,5.8407785E-4,-4.8140734E-2,-3.1965534E-4,-6.1178207E-6,1.3454627E-3,-7.166346E-5,2.1272978E-4],"split_indices":[11,5,3,0,0,3,1,1,1,0,0,3,0,0,0,0,0],"split_type":[0,0,0,0,0,0,0,0,0,0,0,0,0,0,0,0,0],"sum_hessian":[2.2E1,1E1,1.2E1,6E0,4E0,9E0,3E0,6E0,3E0,2E0,1E0,4E0,2E0,2E0,1E0,2E0,2E0],"tree_param":{"num_deleted":"0","num_feature":"12","num_nodes":"17","size_leaf_vector":"1"}},{"base_weights":[-2.849393E-3,5.5629327E-3,-2.06012E-2,-3.2853333E-3,2.6292864E-2,-3.6318682E-3,-6.562098E-3,-5.44422E-3,1.3140514E-3,2.8905615E-3,-1.2898384E-4,-1.9917167E-4,-6.757747E-4,-1.8091721E-4,-6.2650284E-3,2.0138422E-4,-9.182811E-5,-7.8916235E-4,-2.3192167E-4],"categories":[],"categories_nodes":[],"categories_segments":[],"categories_sizes":[],"default_left":[0,0,0,0,0,0,0,0,0,0,0,0,0,0,0,0,0,0,0],"id":59,"left_children":[1,3,5,7,9,-1,11,13,15,-1,-1,-1,-1,-1,17,-1,-1,-1,-1],"loss_changes":[2.8026148E-3,2.4708922E-3,1.79087E-3,1.0644948E-4,1.1565085E-3,0E0,1.7354105E-5,4.1188905E-6,1.4738642E-5,0E0,0E0,0E0,0E0,0E0,3.1982257E-5,0E0,0E0,0E0,0E0],"parents":[2147483647,0,0,1,1,2,2,3,3,4,4,6,6,7,7,8,8,14,14],"right_children":[2,4,6,8,10,-1,12,14,16,-1,-1,-1,-1,-1,18,-1,-1,-1,-1],"split_conditions":[3.5042867E-1,1.9305894E-1,8.944272E-1,5.8170598E-2,8.944272E-1,-3.6318682E-3,1.7888544E0,3.593303E-1,1.45865E-1,2.8905615E-3,-1.2898384E-4,-1.9917167E-4,-6.757747E-4,-1.8091721E-4,0E0,2.0138422E-4,-9.182811E-5,-7.8916235E-4,-2.3192167E-4],"split_indices":[7,7,0,7,0,0,0,5,1,0,0,0,0,0,0,0,0,0,0],"split_type":[0,0,0,0,0,0,0,0,0,0,0,0,0,0,0,0,0,0,0],"sum_hessian":[1.7E1,1.2E1,5E0,9E0,3E0,1E0,4E0,6E0,3E0,2E0,1E0,2E0,2E0,2E0,4E0,2E0,1E0,1E0,3E0],"tree_param":{"num_deleted":"0","num_feature":"12","num_nodes":"19","size_leaf_vector":"1"}},{"base_weights":[4.411283E-3,-2.2355155E-3,1.6322618E-2,-5.2991677E-3,-1.7377287E-4,3.6739507E-3,-1.1987004E-3,-2.0568173E-4,-7.575959E-4,1.8937091E-3,-2.6199967E-3,-4.968371E-3,7.05986E-4,3.4721135E-4,-1.5995502E-4,-3.5280525E-4,-8.5597036E-5,-2.1211784E-4,-5.6943845E-4],"categories":[],"categories_nodes":[],"categories_segments":[],"categories_sizes":[],"default_left":[0,0,0,0,0,0,0,0,0,0,0,0,0,0,0,0,0,0,0],"id":60,"left_children":[1,3,5,7,9,-1,11,-1,-1,13,15,17,-1,-1,-1,-1,-1,-1,-1],"loss_changes":[1.778279E-3,9.382608E-5,4.204345E-3,4.392356E-5,5.5536744E-5,0E0,2.7055733E-4,0E0,0E0,6.582378E-5,9.154734E-6,6.0289894E-6,0E0,0E0,0E0,0E0,0E0,0E0,0E0],"parents":[2147483647,0,0,1,1,2,2,3,3,4,4,6,6,9,9,10,10,11,11],"right_children":[2,4,6,8,10,-1,12,-1,-1,14,16,18,-1,-1,-1,-1,-1,-1,-1],"split_conditions":[3.5042867E-1,5.938433E-1,1.45865E-1,3.593303E-1,1.45865E-1,3.6739507E-3,1.3127849E0,-2.0568173E-4,-7.575959E-4,1.2302632E-1,-4.8140734E-2,7.2932494E-1,7.05986E-4,3.4721135E-4,-1.5995502E-4,-3.5280525E-4,-8.5597036E-5,-2.1211784E-4,-5.6943845E-4],"split_indices":[7,4,1,5,1,0,1,0,0,3,3,1,0,0,0,0,0,0,0],"split_type":[0,0,0,0,0,0,0,0,0,0,0,0,0,0,0,0,0,0,0],"sum_hessian":[2.1E1,1.4E1,7E0,5E0,9E0,2E0,5E0,4E0,1E0,5E0,4E0,4E0,1E0,3E0,2E0,1E0,3E0,3E0,1E0],"tree_param":{"num_deleted":"0","num_feature":"12","num_nodes":"19","size_leaf_vector":"1"}},{"base_weights":[3.2027685E-3,-3.9865337E-3,1.8150877E-2,-6.5582087E-3,4.7251247E-3,3.4780088E-3,-6.7383767E-4,-3.3547136E-3,-9.202586E-3,1.1794447E-3,-2.822832E-4,6.777477E-4,-5.0782203E-3,-5.5578677E-3,3.9456843E-4,-2.8404623E-4,-1.4985049E-3,-1.7723623E-4,-5.466609E-4,-1.8284902E-4,-6.4546015E-4],"categories":[],"categories_nodes":[],"categories_segments":[],"categories_sizes":[],"default_left":[0,0,0,0,0,0,0,0,0,0,0,0,0,0,0,0,0,0,0,0,0],"id":61,"left_children":[1,3,5,7,9,-1,11,13,15,-1,-1,-1,17,19,-1,-1,-1,-1,-1,-1,-1],"loss_changes":[2.3291549E-3,3.6704165E-4,3.366345E-3,7.078296E-5,3.827602E-4,0E0,2.4442739E-4,1.5521198E-4,2.5663158E-4,0E0,0E0,0E0,4.9583323E-6,3.08468E-5,0E0,0E0,0E0,0E0,0E0,0E0,0E0],"parents":[2147483647,0,0,1,1,2,2,3,3,4,4,6,6,7,7,8,8,12,12,13,13],"right_children":[2,4,6,8,10,-1,12,14,16,-1,-1,-1,18,20,-1,-1,-1,-1,-1,-1,-1],"split_conditions":[3.9539146E-1,1.3127849E0,1.45865E-1,5.8170598E-2,-2.0170629E-1,3.4780088E-3,8.944272E-1,-1.3146149E-1,-2.0170629E-1,1.1794447E-3,-2.822832E-4,6.777477E-4,1.7888544E0,3.593303E-1,3.9456843E-4,-2.8404623E-4,-1.4985049E-3,-1.7723623E-4,-5.466609E-4,-1.8284902E-4,-6.4546015E-4],"split_indices":[7,1,1,7,6,0,0,4,6,0,0,0,0,5,0,0,0,0,0,0,0],"split_type":[0,0,0,0,0,0,0,0,0,0,0,0,0,0,0,0,0,0,0,0,0],"sum_hessian":[2E1,1.4E1,6E0,1.1E1,3E0,2E0,4E0,6E0,5E0,1E0,2E0,1E0,3E0,5E0,1E0,4E0,1E0,2E0,1E0,3E0,2E0],"tree_param":{"num_deleted":"0","num_feature":"12","num_nodes":"21","size_leaf_vector":"1"}},{"base_weights":[5.0249067E-3,-5.506789E-3,1.4142365E-2,-1.7726434E-4,-7.911452E-4,3.5663098E-3,3.2925128E-3,1.4833882E-3,5.7991147E-3,3.784275E-4,-3.3403486E-3,-1.3627211E-4,1.1322665E-3,-3.2740174E-4,-7.3440075E-5],"categories":[],"categories_nodes":[],"categories_segments":[],"categories_sizes":[],"default_left":[0,0,0,0,0,0,0,0,0,0,0,0,0,0,0],"id":62,"left_children":[1,3,5,-1,-1,7,-1,9,11,-1,13,-1,-1,-1,-1],"loss_changes":[1.9983253E-3,1.2231545E-4,2.995946E-3,0E0,0E0,3.3254488E-5,0E0,1.0977575E-4,2.7481938E-4,0E0,1.709137E-6,0E0,0E0,0E0,0E0],"parents":[2147483647,0,0,1,1,2,2,5,5,7,7,8,8,10,10],"right_children":[2,4,6,-1,-1,8,-1,10,12,-1,14,-1,-1,-1,-1],"split_conditions":[1E0,3.593303E-1,3.797769E-1,-1.7726434E-4,-7.911452E-4,1.2302632E-1,3.2925128E-3,1.45865E-1,1.45865E-1,3.784275E-4,-4.8140734E-2,-1.3627211E-4,1.1322665E-3,-3.2740174E-4,-7.3440075E-5],"split_indices":[11,5,3,0,0,3,0,1,1,0,3,0,0,0,0],"split_type":[0,0,0,0,0,0,0,0,0,0,0,0,0,0,0],"sum_hessian":[1.9E1,9E0,1E1,6E0,3E0,8E0,2E0,5E0,3E0,3E0,2E0,2E0,1E0,1E0,1E0],"tree_param":{"num_deleted":"0","num_feature":"12","num_nodes":"15","size_leaf_vector":"1"}},{"base_weights":[-1.0246093E-2,2.4471334E-3,-1.9699996E-2,-3.0358112E-3,1.442496E-2,-4.69978E-3,-4.4953567E-3,-4.496848E-3,4.1118762E-4,1.8014979E-3,-7.0502756E-5,-2.057898E-4,-5.0047954E-4,-1.1477092E-4,-6.698278E-4,3.6364794E-4,-3.1430542E-4],"categories":[],"categories_nodes":[],"categories_segments":[],"categories_sizes":[],"default_left":[0,0,0,0,0,0,0,0,0,0,0,0,0,0,0,0,0],"id":63,"left_children":[1,3,5,7,9,-1,11,13,15,-1,-1,-1,-1,-1,-1,-1,-1],"loss_changes":[2.3282187E-3,6.348553E-4,6.2666046E-3,3.71024E-5,3.9150077E-4,0E0,1.43783545E-5,4.733367E-5,7.168893E-5,0E0,0E0,0E0,0E0,0E0,0E0,0E0,0E0],"parents":[2147483647,0,0,1,1,2,2,3,3,4,4,6,6,7,7,8,8],"right_children":[2,4,6,8,10,-1,12,14,16,-1,-1,-1,-1,-1,-1,-1,-1],"split_conditions":[1.2302632E-1,-4.8140734E-2,1.45865E-1,0E0,1.45865E-1,-4.69978E-3,1.7888544E0,3.593303E-1,1.45865E-1,1.8014979E-3,-7.0502756E-5,-2.057898E-4,-5.0047954E-4,-1.1477092E-4,-6.698278E-4,3.6364794E-4,-3.1430542E-4],"split_indices":[3,3,1,0,1,0,0,5,1,0,0,0,0,0,0,0,0],"split_type":[0,0,0,0,0,0,0,0,0,0,0,0,0,0,0,0,0],"sum_hessian":[1.8E1,8E0,1E1,6E0,2E0,2E0,8E0,4E0,2E0,1E0,1E0,5E0,3E0,3E0,1E0,1E0,1E0],"tree_param":{"num_deleted":"0","num_feature":"12","num_nodes":"17","size_leaf_vector":"1"}},{"base_weights":[-6.1964183E-3,-2.63933E-3,-1.7051235E-2,-4.286003E-3,-6.993982E-4,-3.716383E-3,1.9133512E-3,-1.4553904E-3,-5.4587442E-3,1.5445995E-4,-2.5517328E-4,5.271673E-4,-1.4735408E-4,-1.4636685E-4,-1.3312193E-5,-6.430347E-4,-2.6682555E-4],"categories":[],"categories_nodes":[],"categories_segments":[],"categories_sizes":[],"default_left":[0,0,0,0,0,0,0,0,0,0,0,0,0,0,0,0,0],"id":64,"left_children":[1,3,5,7,9,-1,11,13,15,-1,-1,-1,-1,-1,-1,-1,-1],"loss_changes":[7.6583854E-4,5.130774E-5,2.8770152E-3,2.1931584E-5,6.51064E-5,0E0,8.2379855E-5,1.6248841E-6,6.05121E-6,0E0,0E0,0E0,0E0,0E0,0E0,0E0,0E0],"parents":[2147483647,0,0,1,1,2,2,3,3,4,4,6,6,7,7,8,8],"right_children":[2,4,6,8,10,-1,12,14,16,-1,-1,-1,-1,-1,-1,-1,-1],"split_conditions":[3.9539146E-1,5.8170598E-2,1.45865E-1,3.593303E-1,1.45865E-1,-3.716383E-3,8.944272E-1,-1.4174771E0,0E0,1.5445995E-4,-2.5517328E-4,5.271673E-4,-1.4735408E-4,-1.4636685E-4,-1.3312193E-5,-6.430347E-4,-2.6682555E-4],"split_indices":[7,7,1,5,1,0,0,3,0,0,0,0,0,0,0,0,0],"split_type":[0,0,0,0,0,0,0,0,0,0,0,0,0,0,0,0,0],"sum_hessian":[2E1,1.6E1,4E0,8E0,8E0,1E0,3E0,3E0,5E0,4E0,4E0,1E0,2E0,2E0,1E0,1E0,4E0],"tree_param":{"num_deleted":"0","num_feature":"12","num_nodes":"17","size_leaf_vector":"1"}},{"base_weights":[3.5818876E-3,-2.42642E-3,2.5697079E-2,-3.877339E-3,-7.3285936E-4,3.5657724E-3,-1.394952E-4,-1.2601948E-4,-3.4047657E-4,1.4457511E-4,-2.1819385E-4],"categories":[],"categories_nodes":[],"categories_segments":[],"categories_sizes":[],"default_left":[0,0,0,0,0,0,0,0,0,0,0],"id":65,"left_children":[1,3,5,7,9,-1,-1,-1,-1,-1,-1],"loss_changes":[3.118474E-3,4.3845634E-5,2.667453E-3,2.0119915E-6,5.5591856E-5,0E0,0E0,0E0,0E0,0E0,0E0],"parents":[2147483647,0,0,1,1,2,2,3,3,4,4],"right_children":[2,4,6,8,10,-1,-1,-1,-1,-1,-1],"split_conditions":[3.9539146E-1,5.8170598E-2,8.944272E-1,-8.944272E-1,1.45865E-1,3.5657724E-3,-1.394952E-4,-1.2601948E-4,-3.4047657E-4,1.4457511E-4,-2.1819385E-4],"split_indices":[7,7,0,0,1,0,0,0,0,0,0],"split_type":[0,0,0,0,0,0,0,0,0,0,0],"sum_hessian":[2.2E1,1.8E1,4E0,9E0,9E0,2E0,2E0,2E0,7E0,4E0,5E0],"tree_param":{"num_deleted":"0","num_feature":"12","num_nodes":"11","size_leaf_vector":"1"}},{"base_weights":[-3.138487E-3,4.9260594E-3,-9.2762755E-3,-3.8495648E-4,1.1124858E-3,-1.5880286E-3,-1.9087603E-3,-1.261207E-4,4.8395752E-5,3.6345003E-4,-3.7412622E-3,-1.4856238E-4,-4.0051877E-4],"categories":[],"categories_nodes":[],"categories_segments":[],"categories_sizes":[],"default_left":[0,0,0,0,0,0,0,0,0,0,0,0,0],"id":66,"left_children":[1,3,5,7,-1,-1,9,-1,-1,-1,11,-1,-1],"loss_changes":[8.8716974E-4,3.8689713E-4,7.411576E-4,8.030835E-6,0E0,0E0,9.9758676E-5,0E0,0E0,0E0,5.006652E-6,0E0,0E0],"parents":[2147483647,0,0,1,1,2,2,3,3,6,6,10,10],"right_children":[2,4,6,8,-1,-1,10,-1,-1,-1,12,-1,-1],"split_conditions":[1.2302632E-1,-4.8140734E-2,3.797769E-1,-1.4174771E0,1.1124858E-3,-1.5880286E-3,8.944272E-1,-1.261207E-4,4.8395752E-5,3.6345003E-4,1.7888544E0,-1.4856238E-4,-4.0051877E-4],"split_indices":[3,3,3,3,0,0,0,0,0,0,0,0,0],"split_type":[0,0,0,0,0,0,0,0,0,0,0,0,0],"sum_hessian":[1.6E1,7E0,9E0,5E0,2E0,3E0,6E0,2E0,3E0,1E0,5E0,3E0,2E0],"tree_param":{"num_deleted":"0","num_feature":"12","num_nodes":"13","size_leaf_vector":"1"}},{"base_weights":[-2.8711348E-3,2.373577E-3,-1.3657256E-2,-2.7567702E-3,1.5237764E-2,-2.2506586E-3,-4.1430574E-3,-3.5775667E-3,-1.2469292E-6,1.5557945E-3,-6.403604E-5,-1.3964863E-4,-4.76691E-4,-1.0628483E-4,-4.8554777E-3,-6.056301E-4,-2.238738E-4],"categories":[],"categories_nodes":[],"categories_segments":[],"categories_sizes":[],"default_left":[0,0,0,0,0,0,0,0,0,0,0,0,0,0,0,0,0],"id":67,"left_children":[1,3,5,7,9,-1,11,13,-1,-1,-1,-1,-1,-1,15,-1,-1],"loss_changes":[1.3900988E-3,1.1639688E-3,9.85261E-4,2.919363E-5,3.5314437E-4,0E0,1.5715123E-5,2.2289503E-5,0E0,0E0,0E0,0E0,0E0,0E0,1.2323071E-5,0E0,0E0],"parents":[2147483647,0,0,1,1,2,2,3,3,4,4,6,6,7,7,14,14],"right_children":[2,4,6,8,10,-1,12,14,-1,-1,-1,-1,-1,-1,16,-1,-1],"split_conditions":[3.5042867E-1,1.9305894E-1,8.944272E-1,5.8170598E-2,8.944272E-1,-2.2506586E-3,1.7888544E0,3.593303E-1,-1.2469292E-6,1.5557945E-3,-6.403604E-5,-1.3964863E-4,-4.76691E-4,-1.0628483E-4,0E0,-6.056301E-4,-2.238738E-4],"split_indices":[7,7,0,7,0,0,0,5,0,0,0,0,0,0,0,0,0],"split_type":[0,0,0,0,0,0,0,0,0,0,0,0,0,0,0,0,0],"sum_hessian":[2.3E1,1.6E1,7E0,1.2E1,4E0,2E0,5E0,9E0,3E0,3E0,1E0,3E0,2E0,4E0,5E0,1E0,4E0],"tree_param":{"num_deleted":"0","num_feature":"12","num_nodes":"17","size_leaf_vector":"1"}},{"base_weights":[-5.7397797E-3,-2.2571494E-3,-1.3875145E-2,-3.5219803E-3,-8.9308666E-4,-3.6348724E-3,-1.0423684E-3,-8.132172E-5,-4.6052895E-3,1.0079383E-4,-2.0307308E-4,-3.4455326E-3,4.3893812E-4,-5.8140495E-4,-2.095458E-4,-1.3126973E-4,-4.2656707E-4],"categories":[],"categories_nodes":[],"categories_segments":[],"categories_sizes":[],"default_left":[0,0,0,0,0,0,0,0,0,0,0,0,0,0,0,0,0],"id":68,"left_children":[1,3,5,7,9,-1,11,-1,13,-1,-1,15,-1,-1,-1,-1,-1],"loss_changes":[6.4866105E-4,2.7910115E-5,2.7877246E-3,1.9746316E-5,3.8622253E-5,0E0,1.1304762E-4,0E0,1.26870145E-5,0E0,0E0,8.273695E-6,0E0,0E0,0E0,0E0,0E0],"parents":[2147483647,0,0,1,1,2,2,3,3,4,4,6,6,8,8,11,11],"right_children":[2,4,6,8,10,-1,12,-1,14,-1,-1,16,-1,-1,-1,-1,-1],"split_conditions":[3.9539146E-1,5.8170598E-2,1.45865E-1,3.593303E-1,1.45865E-1,-3.6348724E-3,1.3127849E0,-8.132172E-5,-4.3759498E-1,1.0079383E-4,-2.0307308E-4,7.2932494E-1,4.3893812E-4,-5.8140495E-4,-2.095458E-4,-1.3126973E-4,-4.2656707E-4],"split_indices":[7,7,1,5,1,0,1,0,1,0,0,1,0,0,0,0,0],"split_type":[0,0,0,0,0,0,0,0,0,0,0,0,0,0,0,0,0],"sum_hessian":[2.3E1,1.7E1,6E0,8E0,9E0,1E0,5E0,3E0,5E0,4E0,5E0,4E0,1E0,1E0,4E0,3E0,1E0],"tree_param":{"num_deleted":"0","num_feature":"12","num_nodes":"17","size_leaf_vector":"1"}},{"base_weights":[7.829944E-3,-5.747282E-3,3.8205147E-2,-3.545088E-3,-1.0366496E-2,8.994641E-3,8.729695E-4,-1.0344207E-3,-5.4649073E-3,-1.3115238E-3,-2.3141026E-4,4.2138097E-4,-1.2339355E-4,1.02044745E-4,-2.0066403E-4,-1.2105141E-4,-7.129833E-4],"categories":[],"categories_nodes":[],"categories_segments":[],"categories_sizes":[],"default_left":[0,0,0,0,0,0,0,0,0,0,0,0,0,0,0,0,0],"id":69,"left_children":[1,3,5,7,9,-1,11,13,15,-1,-1,-1,-1,-1,-1,-1,-1],"loss_changes":[8.055384E-3,1.0566352E-4,1.652838E-2,4.73673E-5,1.3277464E-4,0E0,6.119396E-5,2.3627283E-5,6.825391E-5,0E0,0E0,0E0,0E0,0E0,0E0,0E0,0E0],"parents":[2147483647,0,0,1,1,2,2,3,3,4,4,6,6,7,7,8,8],"right_children":[2,4,6,8,10,-1,12,14,16,-1,-1,-1,-1,-1,-1,-1,-1],"split_conditions":[3.9539146E-1,1.3127849E0,1.45865E-1,-2.0170629E-1,-2.0170629E-1,8.994641E-3,8.944272E-1,8.944272E-1,3.593303E-1,-1.3115238E-3,-2.3141026E-4,4.2138097E-4,-1.2339355E-4,1.02044745E-4,-2.0066403E-4,-1.2105141E-4,-7.129833E-4],"split_indices":[7,1,1,6,6,0,0,0,5,0,0,0,0,0,0,0,0],"split_type":[0,0,0,0,0,0,0,0,0,0,0,0,0,0,0,0,0],"sum_hessian":[1.8E1,1.3E1,5E0,1E1,3E0,1E0,4E0,5E0,5E0,1E0,2E0,1E0,3E0,2E0,3E0,3E0,2E0],"tree_param":{"num_deleted":"0","num_feature":"12","num_nodes":"17","size_leaf_vector":"1"}},{"base_weights":[-2.9096932E-3,-1.2644922E-3,-6.019453E-3,-2.7164891E-3,7.830028E-4,-9.922903E-3,-6.1114016E-4,-1.1207667E-4,-5.296294E-4,-4.366199E-5,1.13893504E-4,-2.1906813E-4,-1.2590622E-3,4.045248E-4,-4.1858936E-3,-9.773858E-5,-4.0456865E-4],"categories":[],"categories_nodes":[],"categories_segments":[],"categories_sizes":[],"default_left":[0,0,0,0,0,0,0,0,0,0,0,0,0,0,0,0,0],"id":70,"left_children":[1,3,5,7,9,11,13,-1,-1,-1,-1,-1,-1,-1,15,-1,-1],"loss_changes":[9.9828234E-5,4.6721358E-5,1.4171327E-4,3.6946192E-5,6.7361225E-6,1.240265E-4,1.0220874E-4,0E0,0E0,0E0,0E0,0E0,0E0,0E0,1.5688311E-6,0E0,0E0],"parents":[2147483647,0,0,1,1,2,2,3,3,4,4,5,5,6,6,14,14],"right_children":[2,4,6,8,10,12,14,-1,-1,-1,-1,-1,-1,-1,16,-1,-1],"split_conditions":[7.2932494E-1,1E0,3.797769E-1,3.593303E-1,-4.8140734E-2,1.2302632E-1,8.944272E-1,-1.1207667E-4,-5.296294E-4,-4.366199E-5,1.13893504E-4,-2.1906813E-4,-1.2590622E-3,4.045248E-4,1.0644451E0,-9.773858E-5,-4.0456865E-4],"split_indices":[1,11,3,5,3,3,0,0,0,0,0,0,0,0,3,0,0],"split_type":[0,0,0,0,0,0,0,0,0,0,0,0,0,0,0,0,0],"sum_hessian":[2E1,1.4E1,6E0,8E0,6E0,3E0,3E0,7E0,1E0,2E0,4E0,2E0,1E0,1E0,2E0,1E0,1E0],"tree_param":{"num_deleted":"0","num_feature":"12","num_nodes":"17","size_leaf_vector":"1"}},{"base_weights":[3.2312742E-3,-2.4767804E-3,1.4243474E-2,-4.238193E-3,-1.8559422E-4,3.1843218E-3,-9.1071194E-4,-7.935781E-5,-6.636774E-3,1.0660362E-4,-1.629496E-4,-3.0345828E-3,3.883457E-4,-6.167629E-4,-9.382903E-5,-1.0926533E-4,-3.883859E-4],"categories":[],"categories_nodes":[],"categories_segments":[],"categories_sizes":[],"default_left":[0,0,0,0,0,0,0,0,0,0,0,0,0,0,0,0,0],"id":71,"left_children":[1,3,5,7,9,-1,11,-1,13,-1,-1,15,-1,-1,-1,-1,-1],"loss_changes":[1.4810174E-3,6.378499E-5,3.1350446E-3,6.34934E-5,2.519818E-5,0E0,8.8195964E-5,0E0,2.0265157E-5,0E0,0E0,8.5569845E-6,0E0,0E0,0E0,0E0,0E0],"parents":[2147483647,0,0,1,1,2,2,3,3,4,4,6,6,8,8,11,11],"right_children":[2,4,6,8,10,-1,12,-1,14,-1,-1,16,-1,-1,-1,-1,-1],"split_conditions":[3.9539146E-1,5.8170598E-2,1.45865E-1,3.593303E-1,1.45865E-1,3.1843218E-3,1.3127849E0,-7.935781E-5,-4.8140734E-2,1.0660362E-4,-1.629496E-4,7.2932494E-1,3.883457E-4,-6.167629E-4,-9.382903E-5,-1.0926533E-4,-3.883859E-4],"split_indices":[7,7,1,5,1,0,1,0,3,0,0,1,0,0,0,0,0],"split_type":[0,0,0,0,0,0,0,0,0,0,0,0,0,0,0,0,0],"sum_hessian":[2.2E1,1.5E1,7E0,8E0,7E0,2E0,5E0,4E0,4E0,4E0,3E0,4E0,1E0,3E0,1E0,3E0,1E0],"tree_param":{"num_deleted":"0","num_feature":"12","num_nodes":"17","size_leaf_vector":"1"}},{"base_weights":[-4.088445E-3,9.2002656E-4,-1.4952317E-2,-2.9734813E-3,4.278697E-3,-3.98119E-3,-8.56079E-4,-9.192438E-5,-4.5049386E-4,-3.1366816E-4,1.3567984E-2,3.7281035E-4,-2.8913466E-3,6.319237E-5,-2.0484E-3,1.6886949E-3,-6.053686E-5,-1.0270942E-4,-3.7285048E-4,-3.4324057E-5,-2.1148394E-4],"categories":[],"categories_nodes":[],"categories_segments":[],"categories_sizes":[],"default_left":[0,0,0,0,0,0,0,0,0,0,0,0,0,0,0,0,0,0,0,0,0],"id":72,"left_children":[1,3,5,7,9,-1,11,-1,-1,13,15,-1,17,-1,19,-1,-1,-1,-1,-1,-1],"loss_changes":[1.2108072E-3,2.219548E-4,3.3924798E-3,3.2319585E-5,3.8819402E-4,0E0,8.0835816E-5,0E0,0E0,1.5018862E-5,3.4002803E-4,0E0,8.236806E-6,0E0,1.7570464E-6,0E0,0E0,0E0,0E0,0E0,0E0],"parents":[2147483647,0,0,1,1,2,2,3,3,4,4,6,6,9,9,10,10,12,12,14,14],"right_children":[2,4,6,8,10,-1,12,-1,-1,14,16,-1,18,-1,20,-1,-1,-1,-1,-1,-1],"split_conditions":[3.9539146E-1,5.8170598E-2,1.45865E-1,-1.3146149E-1,-2.0170629E-1,-3.98119E-3,8.944272E-1,-9.192438E-5,-4.5049386E-4,8.944272E-1,1.45865E-1,3.7281035E-4,1.7888544E0,6.319237E-5,1.7888544E0,1.6886949E-3,-6.053686E-5,-1.0270942E-4,-3.7285048E-4,-3.4324057E-5,-2.1148394E-4],"split_indices":[7,7,1,4,6,0,0,0,0,0,1,0,0,0,0,0,0,0,0,0,0],"split_type":[0,0,0,0,0,0,0,0,0,0,0,0,0,0,0,0,0,0,0,0,0],"sum_hessian":[2.1E1,1.5E1,6E0,7E0,8E0,1E0,5E0,5E0,2E0,6E0,2E0,1E0,4E0,4E0,2E0,1E0,1E0,3E0,1E0,1E0,1E0],"tree_param":{"num_deleted":"0","num_feature":"12","num_nodes":"21","size_leaf_vector":"1"}},{"base_weights":[5.1668906E-3,-1.0320665E-3,1.6826678E-2,-3.1669552E-3,5.0586666E-4,2.5990675E-3,-3.04166E-3,-9.6786796E-5,-4.720797E-3,-2.237333E-5,1.7361244E-4,-8.5819425E-5,-3.5793646E-4,-4.8009673E-4,-8.63989E-5],"categories":[],"categories_nodes":[],"categories_segments":[],"categories_sizes":[],"default_left":[0,0,0,0,0,0,0,0,0,0,0,0,0,0,0],"id":73,"left_children":[1,3,5,7,9,-1,11,-1,13,-1,-1,-1,-1,-1,-1],"loss_changes":[1.4629366E-3,4.7568486E-5,2.2770178E-3,1.2534951E-5,1.2373108E-5,0E0,6.482587E-6,0E0,7.503986E-6,0E0,0E0,0E0,0E0,0E0,0E0],"parents":[2147483647,0,0,1,1,2,2,3,3,4,4,6,6,8,8],"right_children":[2,4,6,8,10,-1,12,-1,14,-1,-1,-1,-1,-1,-1],"split_conditions":[3.5042867E-1,-1.3146149E-1,8.944272E-1,3.593303E-1,-4.938743E-2,2.5990675E-3,1.7888544E0,-9.6786796E-5,0E0,-2.237333E-5,1.7361244E-4,-8.5819425E-5,-3.5793646E-4,-4.8009673E-4,-8.63989E-5],"split_indices":[7,4,0,5,6,0,0,0,0,0,0,0,0,0,0],"split_type":[0,0,0,0,0,0,0,0,0,0,0,0,0,0,0],"sum_hessian":[1.9E1,1.3E1,6E0,5E0,8E0,3E0,3E0,3E0,2E0,6E0,2E0,2E0,1E0,1E0,1E0],"tree_param":{"num_deleted":"0","num_feature":"12","num_nodes":"15","size_leaf_vector":"1"}},{"base_weights":[-8.657686E-3,-1.6314121E-2,-8.900023E-4,-3.0798006E-3,-2.5034065E-3,-1.5082402E-4,8.2544546E-4,-6.2201405E-5,-4.4531404E-4,2.5393485E-4,-8.124239E-5],"categories":[],"categories_nodes":[],"categories_segments":[],"categories_sizes":[],"default_left":[0,0,0,0,0,0,0,0,0,0,0],"id":74,"left_children":[1,3,5,-1,7,-1,9,-1,-1,-1,-1],"loss_changes":[9.370446E-4,2.3545725E-3,1.692265E-5,0E0,2.739059E-5,0E0,2.0519372E-5,0E0,0E0,0E0,0E0],"parents":[2147483647,0,0,1,1,2,2,4,4,6,6],"right_children":[2,4,6,-1,8,-1,10,-1,-1,-1,-1],"split_conditions":[1.45865E-1,-4.938743E-2,3.9539146E-1,-3.0798006E-3,0E0,-1.5082402E-4,8.944272E-1,-6.2201405E-5,-4.4531404E-4,2.5393485E-4,-8.124239E-5],"split_indices":[1,6,7,0,0,0,0,0,0,0,0],"split_type":[0,0,0,0,0,0,0,0,0,0,0],"sum_hessian":[1.5E1,7E0,8E0,2E0,5E0,5E0,3E0,4E0,1E0,1E0,2E0],"tree_param":{"num_deleted":"0","num_feature":"12","num_nodes":"11","size_leaf_vector":"1"}},{"base_weights":[2.5743502E-3,-5.654902E-3,7.888895E-3,-2.190025E-3,-1.3009608E-2,2.624532E-2,-1.1721066E-3,-4.263851E-5,-3.077655E-3,-1.5099656E-3,-5.1187275E-5,2.469174E-4,3.2524585E-3,1.7706007E-3,-2.4969468E-3,-4.5840483E-4,-9.820387E-4,2.6345253E-5,2.4377822E-4,-7.96278E-5,-3.7497093E-3,3.0077696E-5,-2.0224272E-4,-7.6909986E-5,-3.4869567E-4],"categories":[],"categories_nodes":[],"categories_segments":[],"categories_sizes":[],"default_left":[0,0,0,0,0,0,0,0,0,0,0,0,0,0,0,0,0,0,0,0,0,0,0,0,0],"id":75,"left_children":[1,3,5,7,9,11,13,-1,15,-1,-1,-1,-1,17,19,-1,21,-1,-1,-1,23,-1,-1,-1,-1],"loss_changes":[1.0942445E-3,2.2634014E-4,2.5256763E-3,1.0126401E-5,2.0556798E-4,1.5431603E-3,4.7305883E-5,0E0,2.2164983E-5,0E0,0E0,0E0,0E0,6.3564357E-6,1.1316915E-5,0E0,9.348376E-6,0E0,0E0,0E0,2.6018897E-6,0E0,0E0,0E0,0E0],"parents":[2147483647,0,0,1,1,2,2,3,3,4,4,5,5,6,6,8,8,13,13,14,14,16,16,20,20],"right_children":[2,4,6,8,10,12,14,-1,16,-1,-1,-1,-1,18,20,-1,22,-1,-1,-1,24,-1,-1,-1,-1],"split_conditions":[1.2302632E-1,-4.8140734E-2,1.45865E-1,3.593303E-1,1.45865E-1,3.797769E-1,8.944272E-1,-4.263851E-5,0E0,-1.5099656E-3,-5.1187275E-5,2.469174E-4,3.2524585E-3,3.797769E-1,1.7888544E0,-4.5840483E-4,1.45865E-1,2.6345253E-5,2.4377822E-4,-7.96278E-5,1.0644451E0,3.0077696E-5,-2.0224272E-4,-7.6909986E-5,-3.4869567E-4],"split_indices":[3,3,1,5,1,3,0,0,0,0,0,0,0,3,0,0,1,0,0,0,3,0,0,0,0],"split_type":[0,0,0,0,0,0,0,0,0,0,0,0,0,0,0,0,0,0,0,0,0,0,0,0,0],"sum_hessian":[2.3E1,9E0,1.4E1,7E0,2E0,4E0,1E1,3E0,4E0,1E0,1E0,2E0,2E0,3E0,7E0,1E0,3E0,2E0,1E0,4E0,3E0,2E0,1E0,1E0,2E0],"tree_param":{"num_deleted":"0","num_feature":"12","num_nodes":"25","size_leaf_vector":"1"}},{"base_weights":[-8.33399E-3,-3.052706E-3,-2.0398531E-2,7.9528155E-4,-4.851287E-3,-2.4658584E-3,-3.1743208E-3,2.3374715E-4,-1.5963704E-3,-9.991375E-4,-8.8484643E-4,-5.449698E-5,-3.2642152E-4,-2.283809E-5,-1.6872634E-4,-2.6250966E-3,1.8484154E-4,-4.2475334E-5,-4.4006866E-4],"categories":[],"categories_nodes":[],"categories_segments":[],"categories_sizes":[],"default_left":[0,0,0,0,0,0,0,0,0,0,0,0,0,0,0,0,0,0,0],"id":76,"left_children":[1,3,5,7,9,-1,11,-1,13,-1,15,-1,-1,-1,-1,17,-1,-1,-1],"loss_changes":[1.0209059E-3,9.3830065E-5,7.999432E-4,3.009427E-5,2.6160764E-4,0E0,3.9963506E-6,0E0,1.4142297E-6,0E0,4.4990487E-5,0E0,0E0,0E0,0E0,2.7190814E-5,0E0,0E0,0E0],"parents":[2147483647,0,0,1,1,2,2,3,3,4,4,6,6,8,8,10,10,15,15],"right_children":[2,4,6,8,10,-1,12,-1,14,-1,16,-1,-1,-1,-1,18,-1,-1,-1],"split_conditions":[3.9539146E-1,-2.0170629E-1,8.944272E-1,8.944272E-1,-4.938743E-2,-2.4658584E-3,1.7888544E0,2.3374715E-4,1.7888544E0,-9.991375E-4,0E0,-5.449698E-5,-3.2642152E-4,-2.283809E-5,-1.6872634E-4,3.593303E-1,1.8484154E-4,-4.2475334E-5,-4.4006866E-4],"split_indices":[7,6,0,0,6,0,0,0,0,0,0,0,0,0,0,5,0,0,0],"split_type":[0,0,0,0,0,0,0,0,0,0,0,0,0,0,0,0,0,0,0],"sum_hessian":[1.6E1,1.2E1,4E0,4E0,8E0,2E0,2E0,2E0,2E0,2E0,6E0,1E0,1E0,1E0,1E0,4E0,2E0,3E0,1E0],"tree_param":{"num_deleted":"0","num_feature":"12","num_nodes":"19","size_leaf_vector":"1"}},{"base_weights":[-6.3431445E-3,-2.2011288E-3,-1.633133E-2,1.9586923E-5,-8.868173E-3,-3.8341808E-3,-4.2669103E-4,-2.805908E-3,2.8422836E-3,-1.2081861E-3,-1.7560124E-3,-2.612493E-3,3.3266068E-4,-6.706324E-5,-3.2576386E-4,3.0716608E-4,1.861612E-5,-9.174347E-6,-2.0154714E-4,-6.975613E-5,-3.1336467E-4],"categories":[],"categories_nodes":[],"categories_segments":[],"categories_sizes":[],"default_left":[0,0,0,0,0,0,0,0,0,0,0,0,0,0,0,0,0,0,0,0,0],"id":77,"left_children":[1,3,5,7,9,-1,11,13,15,-1,17,19,-1,-1,-1,-1,-1,-1,-1,-1,-1],"loss_changes":[8.328482E-4,2.3706345E-4,2.9946812E-3,1.1165688E-4,1.5083334E-4,0E0,6.0972376E-5,1.4025398E-5,1.7324146E-5,0E0,3.469705E-6,5.6671142E-6,0E0,0E0,0E0,0E0,0E0,0E0,0E0,0E0,0E0],"parents":[2147483647,0,0,1,1,2,2,3,3,4,4,6,6,7,7,8,8,10,10,11,11],"right_children":[2,4,6,8,10,-1,12,14,16,-1,18,20,-1,-1,-1,-1,-1,-1,-1,-1,-1],"split_conditions":[3.9539146E-1,1.3127849E0,1.45865E-1,5.938433E-1,-2.0170629E-1,-3.8341808E-3,1.3127849E0,3.593303E-1,-4.938743E-2,-1.2081861E-3,-4.938743E-2,7.2932494E-1,3.3266068E-4,-6.706324E-5,-3.2576386E-4,3.0716608E-4,1.861612E-5,-9.174347E-6,-2.0154714E-4,-6.975613E-5,-3.1336467E-4],"split_indices":[7,1,1,4,6,0,1,5,6,0,6,1,0,0,0,0,0,0,0,0,0],"split_type":[0,0,0,0,0,0,0,0,0,0,0,0,0,0,0,0,0,0,0,0,0],"sum_hessian":[2E1,1.5E1,5E0,1.2E1,3E0,1E0,4E0,6E0,6E0,1E0,2E0,3E0,1E0,3E0,3E0,4E0,2E0,1E0,1E0,2E0,1E0],"tree_param":{"num_deleted":"0","num_feature":"12","num_nodes":"21","size_leaf_vector":"1"}},{"base_weights":[2.8352623E-3,-5.40187E-3,1.8904489E-2,-5.580548E-4,-1.7371893E-2,3.41499E-3,8.5385796E-4,-2.0254974E-3,2.5163442E-3,-2.8948665E-3,7.690906E-5,-7.429028E-5,3.1935214E-4,3.503081E-5,-2.439964E-3,2.7428148E-4,-8.807182E-6,-3.0805668E-4,-8.844198E-5],"categories":[],"categories_nodes":[],"categories_segments":[],"categories_sizes":[],"default_left":[0,0,0,0,0,0,0,0,0,0,0,0,0,0,0,0,0,0,0],"id":78,"left_children":[1,3,5,7,9,-1,11,13,15,-1,-1,-1,-1,-1,17,-1,-1,-1,-1],"loss_changes":[2.7494063E-3,8.020335E-4,2.9686238E-3,5.472339E-5,1.4144707E-3,0E0,3.1674597E-5,9.236348E-6,9.960511E-6,0E0,0E0,0E0,0E0,0E0,8.920815E-6,0E0,0E0,0E0,0E0],"parents":[2147483647,0,0,1,1,2,2,3,3,4,4,6,6,7,7,8,8,14,14],"right_children":[2,4,6,8,10,-1,12,14,16,-1,-1,-1,-1,-1,18,-1,-1,-1,-1],"split_conditions":[2.1554033E-1,1.9305894E-1,1.45865E-1,5.8170598E-2,1.45865E-1,3.41499E-3,7.2932494E-1,-6.5153295E-1,1.45865E-1,-2.8948665E-3,7.690906E-5,-7.429028E-5,3.1935214E-4,3.503081E-5,-4.3759498E-1,2.7428148E-4,-8.807182E-6,-3.0805668E-4,-8.844198E-5],"split_indices":[7,7,1,7,1,0,1,5,1,0,0,0,0,0,1,0,0,0,0],"split_type":[0,0,0,0,0,0,0,0,0,0,0,0,0,0,0,0,0,0,0],"sum_hessian":[1.9E1,1.3E1,6E0,1E1,3E0,2E0,4E0,7E0,3E0,1E0,2E0,3E0,1E0,1E0,6E0,2E0,1E0,2E0,4E0],"tree_param":{"num_deleted":"0","num_feature":"12","num_nodes":"19","size_leaf_vector":"1"}},{"base_weights":[6.097915E-3,-2.2922596E-3,1.5459221E-2,-5.978234E-5,-3.6918177E-4,5.144354E-3,2.5779319E-3,-6.595659E-5,9.0554234E-4],"categories":[],"categories_nodes":[],"categories_segments":[],"categories_sizes":[],"default_left":[0,0,0,0,0,0,0,0,0],"id":79,"left_children":[1,3,5,-1,-1,7,-1,-1,-1],"loss_changes":[1.8419253E-3,4.3198554E-5,1.7364358E-3,0E0,0E0,3.04188E-4,0E0,0E0,0E0],"parents":[2147483647,0,0,1,1,2,2,5,5],"right_children":[2,4,6,-1,-1,8,-1,-1,-1],"split_conditions":[1E0,3.593303E-1,3.797769E-1,-5.978234E-5,-3.6918177E-4,1.2302632E-1,2.5779319E-3,-6.595659E-5,9.0554234E-4],"split_indices":[11,5,3,0,0,3,0,0,0],"split_type":[0,0,0,0,0,0,0,0,0],"sum_hessian":[2.2E1,1.2E1,1E1,8E0,4E0,7E0,3E0,4E0,3E0],"tree_param":{"num_deleted":"0","num_feature":"12","num_nodes":"9","size_leaf_vector":"1"}},{"base_weights":[3.0724483E-3,-2.6467063E-3,1.8764645E-2,-5.266117E-3,9.5839537E-4,3.0953693E-3,-8.7212E-4,-2.0950274E-3,-1.1966984E-2,3.1099794E-4,-6.658768E-4,2.0346165E-4,-2.8583405E-3,-6.977004E-5,-2.6543434E-3,-1.4302217E-3,-5.816221E-6,1.1446083E-5,-1.2180173E-4,-4.416395E-5,-2.988369E-4,-3.8234584E-4,-7.426143E-5],"categories":[],"categories_nodes":[],"categories_segments":[],"categories_sizes":[],"default_left":[0,0,0,0,0,0,0,0,0,0,0,0,0,0,0,0,0,0,0,0,0,0,0],"id":80,"left_children":[1,3,5,7,9,-1,11,13,15,-1,17,-1,19,-1,21,-1,-1,-1,-1,-1,-1,-1,-1],"loss_changes":[2.0240787E-3,1.6558211E-4,2.3816105E-3,1.8741935E-4,4.0649553E-5,0E0,3.4404406E-5,3.156987E-6,2.09614E-4,0E0,4.375748E-6,0E0,4.0065297E-6,0E0,1.3902889E-5,0E0,0E0,0E0,0E0,0E0,0E0,0E0,0E0],"parents":[2147483647,0,0,1,1,2,2,3,3,4,4,6,6,7,7,8,8,10,10,12,12,14,14],"right_children":[2,4,6,8,10,-1,12,14,16,-1,18,-1,20,-1,22,-1,-1,-1,-1,-1,-1,-1,-1],"split_conditions":[3.9539146E-1,1.2302632E-1,1.45865E-1,-4.8140734E-2,1.45865E-1,3.0953693E-3,8.944272E-1,3.593303E-1,1.45865E-1,3.1099794E-4,1.7888544E0,2.0346165E-4,1.7888544E0,-6.977004E-5,0E0,-1.4302217E-3,-5.816221E-6,1.1446083E-5,-1.2180173E-4,-4.416395E-5,-2.988369E-4,-3.8234584E-4,-7.426143E-5],"split_indices":[7,3,1,3,1,0,0,5,1,0,0,0,0,0,0,0,0,0,0,0,0,0,0],"split_type":[0,0,0,0,0,0,0,0,0,0,0,0,0,0,0,0,0,0,0,0,0,0,0],"sum_hessian":[2.1E1,1.6E1,5E0,9E0,7E0,2E0,3E0,7E0,2E0,2E0,5E0,1E0,2E0,3E0,4E0,1E0,1E0,3E0,2E0,1E0,1E0,1E0,3E0],"tree_param":{"num_deleted":"0","num_feature":"12","num_nodes":"23","size_leaf_vector":"1"}},{"base_weights":[6.571359E-3,-1.7262696E-3,1.308694E-2,-5.488705E-5,-3.3750653E-3,5.53616E-3,2.8692156E-2,-3.6705198E-4,-1.1530563E-4,9.868878E-3,-7.703334E-4,2.930282E-3,1.9532203E-4,2.9818613E-5,1.4523767E-2,-1.8433869E-4,1.5136003E-5,1.8821871E-3,2.9441036E-4],"categories":[],"categories_nodes":[],"categories_segments":[],"categories_sizes":[],"default_left":[0,0,0,0,0,0,0,0,0,0,0,0,0,0,0,0,0,0,0],"id":81,"left_children":[1,3,5,-1,7,9,11,-1,-1,13,15,-1,-1,-1,17,-1,-1,-1,-1],"loss_changes":[1.2660605E-3,1.6549919E-5,1.3729658E-3,0E0,2.7701935E-6,2.808449E-4,7.4390974E-4,0E0,0E0,2.598075E-4,7.7951045E-6,0E0,0E0,0E0,3.039423E-4,0E0,0E0,0E0,0E0],"parents":[2147483647,0,0,1,1,2,2,4,4,5,5,6,6,9,9,10,10,14,14],"right_children":[2,4,6,-1,8,10,12,-1,-1,14,16,-1,-1,-1,18,-1,-1,-1,-1],"split_conditions":[1E0,3.593303E-1,3.797769E-1,-5.488705E-5,-4.3759498E-1,1.45865E-1,1.45865E-1,-3.6705198E-4,-1.1530563E-4,-4.8140734E-2,-4.8140734E-2,2.930282E-3,1.9532203E-4,2.9818613E-5,1.2302632E-1,-1.8433869E-4,1.5136003E-5,1.8821871E-3,2.9441036E-4],"split_indices":[11,5,3,0,1,1,1,0,0,3,3,0,0,0,3,0,0,0,0],"split_type":[0,0,0,0,0,0,0,0,0,0,0,0,0,0,0,0,0,0,0],"sum_hessian":[2.2E1,1E1,1.2E1,7E0,3E0,9E0,3E0,1E0,2E0,5E0,4E0,2E0,1E0,2E0,3E0,1E0,3E0,1E0,2E0],"tree_param":{"num_deleted":"0","num_feature":"12","num_nodes":"19","size_leaf_vector":"1"}},{"base_weights":[4.916013E-3,-2.1233922E-3,1.09591335E-2,-3.8833565E-5,-3.1935005E-4,2.1987676E-4,2.7740002E-3],"categories":[],"categories_nodes":[],"categories_segments":[],"categories_sizes":[],"default_left":[0,0,0,0,0,0,0],"id":82,"left_children":[1,3,5,-1,-1,-1,-1],"loss_changes":[9.591501E-4,3.172804E-5,2.2413763E-3,0E0,0E0,0E0,0E0],"parents":[2147483647,0,0,1,1,2,2],"right_children":[2,4,6,-1,-1,-1,-1],"split_conditions":[1E0,3.593303E-1,3.797769E-1,-3.8833565E-5,-3.1935005E-4,2.1987676E-4,2.7740002E-3],"split_indices":[11,5,3,0,0,0,0],"split_type":[0,0,0,0,0,0,0],"sum_hessian":[2.1E1,1E1,1.1E1,6E0,4E0,9E0,2E0],"tree_param":{"num_deleted":"0","num_feature":"12","num_nodes":"7","size_leaf_vector":"1"}},{"base_weights":[4.3042403E-4,-4.7308556E-3,1.134434E-2,-5.217689E-4,-1.2360552E-2,2.0078158E-3,-1.9272146E-3,-1.4786419E-3,2.2733846E-4,-1.4156246E-3,-1.1273618E-3,-5.7972855E-5,-2.694972E-4,-3.094428E-5,-2.1420668E-3,-1.058815E-5,-1.2469526E-4,-3.395959E-4,-6.9800066E-5],"categories":[],"categories_nodes":[],"categories_segments":[],"categories_sizes":[],"default_left":[0,0,0,0,0,0,0,0,0,0,0,0,0,0,0,0,0,0,0],"id":83,"left_children":[1,3,5,7,9,-1,11,13,-1,-1,15,-1,-1,-1,17,-1,-1,-1,-1],"loss_changes":[1.405583E-3,5.394896E-4,1.5085961E-3,4.282321E-5,3.3960893E-4,0E0,6.226235E-6,6.41497E-6,0E0,0E0,1.0812346E-6,0E0,0E0,0E0,1.2314764E-5,0E0,0E0,0E0,0E0],"parents":[2147483647,0,0,1,1,2,2,3,3,4,4,6,6,7,7,10,10,14,14],"right_children":[2,4,6,8,10,-1,12,14,-1,-1,16,-1,-1,-1,18,-1,-1,-1,-1],"split_conditions":[3.9539146E-1,1.9305894E-1,8.944272E-1,5.8170598E-2,8.944272E-1,2.0078158E-3,1.7888544E0,3.593303E-1,2.2733846E-4,-1.4156246E-3,1.7888544E0,-5.7972855E-5,-2.694972E-4,-3.094428E-5,0E0,-1.058815E-5,-1.2469526E-4,-3.395959E-4,-6.9800066E-5],"split_indices":[7,7,0,7,0,0,0,5,0,0,0,0,0,0,0,0,0,0,0],"split_type":[0,0,0,0,0,0,0,0,0,0,0,0,0,0,0,0,0,0,0],"sum_hessian":[2.3E1,1.6E1,7E0,1.1E1,5E0,3E0,4E0,9E0,2E0,3E0,2E0,3E0,1E0,4E0,5E0,1E0,1E0,1E0,4E0],"tree_param":{"num_deleted":"0","num_feature":"12","num_nodes":"19","size_leaf_vector":"1"}},{"base_weights":[1.8691163E-3,-2.1359278E-3,1.0646826E-2,1.5732968E-3,-4.6393704E-3,1.8873452E-3,-1.8385313E-3,2.576103E-4,-8.785676E-4,-9.935116E-4,-1.2245677E-4,-5.449448E-5,-2.587173E-4,-1.1970745E-4,-1.3908903E-5],"categories":[],"categories_nodes":[],"categories_segments":[],"categories_sizes":[],"default_left":[0,0,0,0,0,0,0,0,0,0,0,0,0,0,0],"id":84,"left_children":[1,3,5,7,9,-1,11,-1,13,-1,-1,-1,-1,-1,-1],"loss_changes":[9.0161874E-4,1.7444408E-4,1.3363569E-3,3.5131572E-5,2.4701323E-4,0E0,5.872118E-6,0E0,1.4812456E-6,0E0,0E0,0E0,0E0,0E0,0E0],"parents":[2147483647,0,0,1,1,2,2,3,3,4,4,6,6,8,8],"right_children":[2,4,6,8,10,-1,12,-1,14,-1,-1,-1,-1,-1,-1],"split_conditions":[3.9539146E-1,-2.0170629E-1,8.944272E-1,8.944272E-1,-4.938743E-2,1.8873452E-3,1.7888544E0,2.576103E-4,-9.414023E-1,-9.935116E-4,-1.2245677E-4,-5.449448E-5,-2.587173E-4,-1.1970745E-4,-1.3908903E-5],"split_indices":[7,6,0,0,6,0,0,0,6,0,0,0,0,0,0],"split_type":[0,0,0,0,0,0,0,0,0,0,0,0,0,0,0],"sum_hessian":[2.4E1,1.7E1,7E0,7E0,1E1,3E0,4E0,4E0,3E0,2E0,8E0,3E0,1E0,1E0,2E0],"tree_param":{"num_deleted":"0","num_feature":"12","num_nodes":"15","size_leaf_vector":"1"}},{"base_weights":[4.0813256E-3,6.46313E-5,1.2105482E-2,-3.068734E-3,3.1899177E-3,2.4183113E-3,-1.189662E-3,-2.1126614E-5,-4.6458913E-4,3.581667E-4,6.267845E-5,-2.9172095E-5,-1.294495E-4],"categories":[],"categories_nodes":[],"categories_segments":[],"categories_sizes":[],"default_left":[0,0,0,0,0,0,0,0,0,0,0,0,0],"id":85,"left_children":[1,3,5,7,9,-1,11,-1,-1,-1,-1,-1,-1],"loss_changes":[6.7605975E-4,1.5667896E-4,1.7226357E-3,5.9913596E-5,2.1272157E-5,0E0,1.1773586E-6,0E0,0E0,0E0,0E0,0E0,0E0],"parents":[2147483647,0,0,1,1,2,2,3,3,4,4,6,6],"right_children":[2,4,6,8,10,-1,12,-1,-1,-1,-1,-1,-1],"split_conditions":[3.797769E-1,-4.8140734E-2,1.45865E-1,3.593303E-1,1.45865E-1,2.4183113E-3,7.2932494E-1,-2.1126614E-5,-4.6458913E-4,3.581667E-4,6.267845E-5,-2.9172095E-5,-1.294495E-4],"split_indices":[3,3,1,5,1,0,1,0,0,0,0,0,0],"split_type":[0,0,0,0,0,0,0,0,0,0,0,0,0],"sum_hessian":[2E1,1.4E1,6E0,7E0,7E0,2E0,4E0,4E0,3E0,4E0,3E0,2E0,2E0],"tree_param":{"num_deleted":"0","num_feature":"12","num_nodes":"13","size_leaf_vector":"1"}},{"base_weights":[3.7067574E-3,8.2974825E-3,-1.192864E-3,1.3719668E-3,2.2893364E-3,-1.942388E-4,-1.8784194E-3,-1.2055155E-3,3.3524417E-4,-1.5948653E-4,4.5147684E-5,-4.9474485E-5,-2.1350423E-4,-2.2913874E-3,5.1532188E-5,-4.2727846E-5,-3.025302E-4],"categories":[],"categories_nodes":[],"categories_segments":[],"categories_sizes":[],"default_left":[0,0,0,0,0,0,0,0,0,0,0,0,0,0,0,0,0],"id":86,"left_children":[1,3,5,7,-1,9,11,13,-1,-1,-1,-1,-1,15,-1,-1,-1],"loss_changes":[5.2723254E-4,1.6493921E-3,7.850493E-6,7.7700315E-5,0E0,9.3147955E-6,5.3206477E-6,1.35270175E-5,0E0,0E0,0E0,0E0,0E0,8.455374E-6,0E0,0E0,0E0],"parents":[2147483647,0,0,1,1,2,2,3,3,5,5,6,6,7,7,13,13],"right_children":[2,4,6,8,-1,10,12,14,-1,-1,-1,-1,-1,16,-1,-1,-1],"split_conditions":[1.45865E-1,3.797769E-1,2.1554033E-1,-4.8140734E-2,2.2893364E-3,-4.8140734E-2,7.2932494E-1,-4.3759498E-1,3.3524417E-4,-1.5948653E-4,4.5147684E-5,-4.9474485E-5,-2.1350423E-4,-1.4174771E0,5.1532188E-5,-4.2727846E-5,-3.025302E-4],"split_indices":[1,3,7,3,0,3,1,1,0,0,0,0,0,3,0,0,0],"split_type":[0,0,0,0,0,0,0,0,0,0,0,0,0,0,0,0,0],"sum_hessian":[2.2E1,1.1E1,1.1E1,9E0,2E0,5E0,6E0,5E0,4E0,1E0,4E0,3E0,3E0,3E0,2E0,2E0,1E0],"tree_param":{"num_deleted":"0","num_feature":"12","num_nodes":"17","size_leaf_vector":"1"}},{"base_weights":[1.5554391E-3,6.3646496E-3,-3.784159E-3,1.3353798E-4,2.1672407E-3,-8.179773E-3,-1.4100908E-3,-2.5918453E-3,3.1378935E-4,-1.1813095E-3,-1.1670064E-3,-3.978978E-5,-2.0407913E-3,-1.0907819E-4,-4.6926737E-4,-1.5310704E-4,1.1349916E-5,-6.770302E-6,-2.0069398E-4,-4.050146E-5,2.5957703E-5],"categories":[],"categories_nodes":[],"categories_segments":[],"categories_sizes":[],"default_left":[0,0,0,0,0,0,0,0,0,0,0,0,0,0,0,0,0,0,0,0,0],"id":87,"left_children":[1,3,5,7,-1,9,11,13,-1,15,-1,-1,17,19,-1,-1,-1,-1,-1,-1,-1],"loss_changes":[6.403869E-4,1.6752691E-3,1.13691625E-4,1.237523E-4,0E0,1.6214681E-4,4.165837E-6,5.626016E-5,0E0,3.179333E-6,0E0,0E0,4.363974E-6,1.0252774E-6,0E0,0E0,0E0,0E0,0E0,0E0,0E0],"parents":[2147483647,0,0,1,1,2,2,3,3,5,5,6,6,7,7,9,9,12,12,13,13],"right_children":[2,4,6,8,-1,10,12,14,-1,16,-1,-1,18,20,-1,-1,-1,-1,-1,-1,-1],"split_conditions":[1.45865E-1,3.797769E-1,3.797769E-1,-4.8140734E-2,2.1672407E-3,1.2302632E-1,7.2932494E-1,3.593303E-1,3.1378935E-4,-4.8140734E-2,-1.1670064E-3,-3.978978E-5,-1.3146149E-1,-8.944272E-1,-4.6926737E-4,-1.5310704E-4,1.1349916E-5,-6.770302E-6,-2.0069398E-4,-4.050146E-5,2.5957703E-5],"split_indices":[1,3,3,3,0,3,1,5,0,3,0,0,4,0,0,0,0,0,0,0,0],"split_type":[0,0,0,0,0,0,0,0,0,0,0,0,0,0,0,0,0,0,0,0,0],"sum_hessian":[2.3E1,1.2E1,1.1E1,1E1,2E0,3E0,8E0,6E0,4E0,2E0,1E0,4E0,4E0,4E0,2E0,1E0,1E0,1E0,3E0,2E0,2E0],"tree_param":{"num_deleted":"0","num_feature":"12","num_nodes":"21","size_leaf_vector":"1"}},{"base_weights":[-2.1118242E-3,-8.345222E-3,9.766175E-3,-1.7888805E-2,-1.4438288E-4,2.0516554E-3,-1.7147706E-3,7.847542E-6,-2.872672E-3,-1.4698267E-4,3.599291E-4,-5.8165704E-5,-2.2662271E-4,1.2832731E-3,-6.533972E-4,1.0895729E-5,1.2961864E-4,-7.5802027E-6,-9.317324E-5],"categories":[],"categories_nodes":[],"categories_segments":[],"categories_sizes":[],"default_left":[0,0,0,0,0,0,0,0,0,0,0,0,0,0,0,0,0,0,0],"id":88,"left_children":[1,3,5,7,9,-1,11,-1,-1,-1,13,-1,-1,15,17,-1,-1,-1,-1],"loss_changes":[1.4882665E-3,1.0148673E-3,1.3201595E-3,1.9482224E-3,7.4912923E-6,0E0,3.4616705E-6,0E0,0E0,0E0,7.3880283E-6,0E0,0E0,1.3254053E-6,1.0321145E-6,0E0,0E0,0E0,0E0],"parents":[2147483647,0,0,1,1,2,2,3,3,4,4,6,6,10,10,13,13,14,14],"right_children":[2,4,6,8,10,-1,12,-1,-1,-1,14,-1,-1,16,18,-1,-1,-1,-1],"split_conditions":[3.9539146E-1,1.45865E-1,1.45865E-1,0E0,-4.8140734E-2,2.0516554E-3,1.7888544E0,7.847542E-6,-2.872672E-3,-1.4698267E-4,8.944272E-1,-5.8165704E-5,-2.2662271E-4,1.2302632E-1,1.3211957E0,1.0895729E-5,1.2961864E-4,-7.5802027E-6,-9.317324E-5],"split_indices":[7,1,1,0,3,0,0,0,0,0,0,0,0,3,3,0,0,0,0],"split_type":[0,0,0,0,0,0,0,0,0,0,0,0,0,0,0,0,0,0,0],"sum_hessian":[1.8E1,1.2E1,6E0,5E0,7E0,2E0,4E0,3E0,2E0,1E0,6E0,3E0,1E0,3E0,3E0,1E0,2E0,2E0,1E0],"tree_param":{"num_deleted":"0","num_feature":"12","num_nodes":"19","size_leaf_vector":"1"}},{"base_weights":[2.2042275E-3,-1.5081174E-3,7.961259E-3,4.397719E-3,-1.589568E-2,1.9422309E-3,-1.5239305E-3,-4.835699E-4,1.5948584E-2,-2.7273654E-3,1.227045E-4,-2.9369598E-5,-2.046694E-4,-1.7708528E-3,1.2464263E-3,1.9033706E-3,1.0459423E-5,-4.1099174E-5,-2.719722E-4,2.2702098E-4,-1.4110327E-4],"categories":[],"categories_nodes":[],"categories_segments":[],"categories_sizes":[],"default_left":[0,0,0,0,0,0,0,0,0,0,0,0,0,0,0,0,0,0,0,0,0],"id":89,"left_children":[1,3,5,7,9,-1,11,13,15,-1,-1,-1,-1,17,19,-1,-1,-1,-1,-1,-1],"loss_changes":[4.394483E-4,1.1745224E-3,1.2751282E-3,5.7154335E-4,1.3209056E-3,0E0,6.240659E-6,2.0023193E-5,3.690935E-4,0E0,0E0,0E0,0E0,8.491394E-6,2.4166287E-5,0E0,0E0,0E0,0E0,0E0,0E0],"parents":[2147483647,0,0,1,1,2,2,3,3,4,4,6,6,7,7,8,8,13,13,14,14],"right_children":[2,4,6,8,10,-1,12,14,16,-1,-1,-1,-1,18,20,-1,-1,-1,-1,-1,-1],"split_conditions":[3.797769E-1,1.2302632E-1,8.944272E-1,-4.8140734E-2,1.45865E-1,1.9422309E-3,1.7888544E0,0E0,1.45865E-1,-2.7273654E-3,1.227045E-4,-2.9369598E-5,-2.046694E-4,3.593303E-1,1.45865E-1,1.9033706E-3,1.0459423E-5,-4.1099174E-5,-2.719722E-4,2.2702098E-4,-1.4110327E-4],"split_indices":[3,3,0,3,1,0,0,0,1,0,0,0,0,5,1,0,0,0,0,0,0],"split_type":[0,0,0,0,0,0,0,0,0,0,0,0,0,0,0,0,0,0,0,0,0],"sum_hessian":[1.9E1,1.2E1,7E0,9E0,3E0,2E0,5E0,7E0,2E0,1E0,2E0,3E0,2E0,4E0,3E0,1E0,1E0,3E0,1E0,2E0,1E0],"tree_param":{"num_deleted":"0","num_feature":"12","num_nodes":"21","size_leaf_vector":"1"}},{"base_weights":[1.6282516E-2,-9.3972986E-4,3.3609174E-2,-1.0151304E-5,-2.1272649E-3,1.3994571E-2,7.62104E-3,-2.6109332E-4,-5.284603E-5,3.964881E-3,1.3341589E-3,6.1124505E-4,-1.354593E-4],"categories":[],"categories_nodes":[],"categories_segments":[],"categories_sizes":[],"default_left":[0,0,0,0,0,0,0,0,0,0,0,0,0],"id":90,"left_children":[1,3,5,-1,7,9,-1,-1,-1,11,-1,-1,-1],"loss_changes":[5.4028546E-3,9.38281E-6,9.550675E-3,0E0,4.5110955E-6,1.4910812E-4,0E0,0E0,0E0,7.532969E-5,0E0,0E0,0E0],"parents":[2147483647,0,0,1,1,2,2,4,4,5,5,9,9],"right_children":[2,4,6,-1,8,10,-1,-1,-1,12,-1,-1,-1],"split_conditions":[1E0,3.593303E-1,3.797769E-1,-1.0151304E-5,0E0,-4.8140734E-2,7.62104E-3,-2.6109332E-4,-5.284603E-5,1.45865E-1,1.3341589E-3,6.1124505E-4,-1.354593E-4],"split_indices":[11,5,3,0,0,3,0,0,0,1,0,0,0],"split_type":[0,0,0,0,0,0,0,0,0,0,0,0,0],"sum_hessian":[1.7E1,9E0,8E0,6E0,3E0,7E0,1E0,1E0,2E0,2E0,5E0,1E0,1E0],"tree_param":{"num_deleted":"0","num_feature":"12","num_nodes":"13","size_leaf_vector":"1"}},{"base_weights":[2.5247363E-3,5.7209656E-3,-2.2024582E-3,1.4510453E-2,7.541256E-4,-7.708481E-4,-3.479899E-3,1.4321868E-3,5.0254026E-4,-1.1014886E-3,2.2640299E-4,-7.2734256E-5,-1.1557738E-4,-3.400661E-5,-4.2997987E-4,-6.853837E-5,-2.5064958E-4,4.500548E-5,-7.91457E-5,2.8607921E-5,-3.774637E-5],"categories":[],"categories_nodes":[],"categories_segments":[],"categories_sizes":[],"default_left":[0,0,0,0,0,0,0,0,0,0,0,0,0,0,0,0,0,0,0,0,0],"id":91,"left_children":[1,3,5,7,9,11,13,-1,-1,15,-1,17,-1,-1,-1,19,-1,-1,-1,-1,-1],"loss_changes":[3.6011176E-4,6.0024095E-4,1.5605492E-5,2.7095783E-5,4.1638166E-5,2.7175438E-6,2.6657392E-5,0E0,0E0,1.2376702E-5,0E0,2.8858021E-6,0E0,0E0,0E0,1.0280132E-6,0E0,0E0,0E0,0E0,0E0],"parents":[2147483647,0,0,1,1,2,2,3,3,4,4,5,5,6,6,9,9,11,11,15,15],"right_children":[2,4,6,8,10,12,14,-1,-1,16,-1,18,-1,-1,-1,20,-1,-1,-1,-1,-1],"split_conditions":[1.45865E-1,-2.0170629E-1,3.9539146E-1,-3.414147E-1,0E0,-2.0170629E-1,7.2932494E-1,1.4321868E-3,5.0254026E-4,3.593303E-1,2.2640299E-4,8.944272E-1,-1.1557738E-4,-3.400661E-5,-4.2997987E-4,1.6660645E0,-2.5064958E-4,4.500548E-5,-7.91457E-5,2.8607921E-5,-3.774637E-5],"split_indices":[1,6,7,6,0,6,1,0,0,5,0,0,0,0,0,6,0,0,0,0,0],"split_type":[0,0,0,0,0,0,0,0,0,0,0,0,0,0,0,0,0,0,0,0,0],"sum_hessian":[2.2E1,1.3E1,9E0,4E0,9E0,5E0,4E0,2E0,2E0,5E0,4E0,3E0,2E0,2E0,2E0,4E0,1E0,2E0,1E0,2E0,2E0],"tree_param":{"num_deleted":"0","num_feature":"12","num_nodes":"21","size_leaf_vector":"1"}},{"base_weights":[-1.8281543E-3,8.690026E-3,-2.1100752E-2,-3.0914927E-4,3.103226E-3,-3.7638124E-3,-1.3124603E-3,-1.3536353E-3,1.2149612E-3,-3.621704E-5,-1.9005798E-4,-3.5733232E-5,-1.6270903E-3,1.1786103E-4,7.2701637E-6,-2.0573056E-5,-1.524225E-4],"categories":[],"categories_nodes":[],"categories_segments":[],"categories_sizes":[],"default_left":[0,0,0,0,0,0,0,0,0,0,0,0,0,0,0,0,0],"id":92,"left_children":[1,3,5,7,-1,-1,9,11,13,-1,-1,-1,15,-1,-1,-1,-1],"loss_changes":[4.034906E-3,3.5334043E-3,3.5323661E-3,1.9155646E-5,0E0,0E0,3.4951718E-6,1.0093427E-6,1.3178792E-6,0E0,0E0,0E0,1.4155394E-6,0E0,0E0,0E0,0E0],"parents":[2147483647,0,0,1,1,2,2,3,3,6,6,7,7,8,8,12,12],"right_children":[2,4,6,8,-1,-1,10,12,14,-1,-1,-1,16,-1,-1,-1,-1],"split_conditions":[2.1554033E-1,1.9305894E-1,8.944272E-1,-4.8140734E-2,3.103226E-3,-3.7638124E-3,1.7888544E0,-1.4174771E0,8.944272E-1,-3.621704E-5,-1.9005798E-4,-3.5733232E-5,-8.944272E-1,1.1786103E-4,7.2701637E-6,-2.0573056E-5,-1.524225E-4],"split_indices":[7,7,0,3,0,0,0,3,0,0,0,0,0,0,0,0,0],"split_type":[0,0,0,0,0,0,0,0,0,0,0,0,0,0,0,0,0],"sum_hessian":[1.8E1,1.2E1,6E0,1E1,2E0,2E0,4E0,6E0,4E0,3E0,1E0,2E0,4E0,3E0,1E0,1E0,3E0],"tree_param":{"num_deleted":"0","num_feature":"12","num_nodes":"17","size_leaf_vector":"1"}},{"base_weights":[8.857482E-3,2.1091484E-2,-1.9573816E-3,1.0840518E-3,2.9504495E-3,-2.188214E-5,-2.5546362E-3,-3.382746E-5,1.783677E-4,6.979357E-6,-2.3556084E-4],"categories":[],"categories_nodes":[],"categories_segments":[],"categories_sizes":[],"default_left":[0,0,0,0,0,0,0,0,0,0,0],"id":93,"left_children":[1,3,5,7,-1,-1,9,-1,-1,-1,-1],"loss_changes":[2.5551561E-3,2.8031198E-3,1.0363834E-5,9.573845E-6,0E0,0E0,8.496885E-6,0E0,0E0,0E0,0E0],"parents":[2147483647,0,0,1,1,2,2,3,3,6,6],"right_children":[2,4,6,8,-1,-1,10,-1,-1,-1,-1],"split_conditions":[1.45865E-1,-4.8140734E-2,7.2932494E-1,0E0,2.9504495E-3,-2.188214E-5,-7.671775E-2,-3.382746E-5,1.783677E-4,6.979357E-6,-2.3556084E-4],