{"learner":{"attributes":{"scikit_learn":"{\"_estimator_type\": \"regressor\"}"},"feature_names":["pathway_encoded","catalyst_encoded","reactor_encoded","temperature_c","pressure_bar","h2_co2_ratio","1000_T_K","temp_pressure","ln_pressure","is_thermal","is_methanation","is_methanol"],"feature_types":["float","float","float","float","float","float","float","float","float","float","float","float"],"gradient_booster":{"model":{"gbtree_model_param":{"num_parallel_tree":"1","num_trees":"150"},"iteration_indptr":[0,1,2,3,4,5,6,7,8,9,10,11,12,13,14,15,16,17,18,19,20,21,22,23,24,25,26,27,28,29,30,31,32,33,34,35,36,37,38,39,40,41,42,43,44,45,46,47,48,49,50,51,52,53,54,55,56,57,58,59,60,61,62,63,64,65,66,67,68,69,70,71,72,73,74,75,76,77,78,79,80,81,82,83,84,85,86,87,88,89,90,91,92,93,94,95,96,97,98,99,100,101,102,103,104,105,106,107,108,109,110,111,112,113,114,115,116,117,118,119,120,121,122,123,124,125,126,127,128,129,130,131,132,133,134,135,136,137,138,139,140,141,142,143,144,145,146,147,148,149,150],"tree_info":[0,0,0,0,0,0,0,0,0,0,0,0,0,0,0,0,0,0,0,0,0,0,0,0,0,0,0,0,0,0,0,0,0,0,0,0,0,0,0,0,0,0,0,0,0,0,0,0,0,0,0,0,0,0,0,0,0,0,0,0,0,0,0,0,0,0,0,0,0,0,0,0,0,0,0,0,0,0,0,0,0,0,0,0,0,0,0,0,0,0,0,0,0,0,0,0,0,0,0,0,0,0,0,0,0,0,0,0,0,0,0,0,0,0,0,0,0,0,0,0,0,0,0,0,0,0,0,0,0,0,0,0,0,0,0,0,0,0,0,0,0,0,0,0,0,0,0,0,0,0],"trees":[{"base_weights":[2.7819902E-1,2.75794E1,-1.9653091E0,1.44224E0,2.9919598E0],"categories":[],"categories_nodes":[],"categories_segments":[],"categories_sizes":[],"default_left":[0,0,0,0,0],"id":0,"left_children":[1,3,-1,-1,-1],"loss_changes":[1.4243253E4,2.6371924E2,0E0,0E0,0E0],"parents":[2147483647,0,0,1,1],"right_children":[2,4,-1,-1,-1],"split_conditions":[1E0,1.7888544E0,-1.9653091E0,1.44224E0,2.9919598E0],"split_indices":[11,0,0,0,0],"split_type":[0,0,0,0,0],"sum_hessian":[1.9E1,9E0,1E1,6E0,3E0],"tree_param":{"num_deleted":"0","num_feature":"12","num_nodes":"5","size_leaf_vector":"1"}},{"base_weights":[-4.378166E0,1.4901129E0,-1.8547039E0],"categories":[],"categories_nodes":[],"categories_segments":[],"categories_sizes":[],"default_left":[0,0,0],"id":1,"left_children":[1,-1,-1],"loss_changes":[9.51676E3,0E0,0E0],"parents":[2147483647,0,0],"right_children":[2,-1,-1],"split_conditions":[1E0,1.4901129E0,-1.8547039E0],"split_indices":[11,0,0],"split_type":[0,0,0],"sum_hessian":[2E1,9E0,1.1E1],"tree_param":{"num_deleted":"0","num_feature":"12","num_nodes":"3","size_leaf_vector":"1"}},{"base_weights":[-1.6973906E0,-1.3240639E1,2.5519753E1,9.960188E-1,-1.7103263E0,4.7734588E-1,2.2589579E0],"categories":[],"categories_nodes":[],"categories_segments":[],"categories_sizes":[],"default_left":[0,0,0,0,0,0,0],"id":2,"left_children":[1,3,5,-1,-1,-1,-1],"loss_changes":[6.307208E3,3.193346E3,1.5029272E2,0E0,0E0,0E0,0E0],"parents":[2147483647,0,0,1,1,2,2],"right_children":[2,4,6,-1,-1,-1,-1],"split_conditions":[8.944272E-1,0E0,1.3211957E0,9.960188E-1,-1.7103263E0,4.7734588E-1,2.2589579E0],"split_indices":[0,0,3,0,0,0,0],"split_type":[0,0,0,0,0,0,0],"sum_hessian":[1.8E1,1.3E1,5E0,3E0,1E1,1E0,4E0],"tree_param":{"num_deleted":"0","num_feature":"12","num_nodes":"7","size_leaf_vector":"1"}},{"base_weights":[3.403845E0,2.294808E1,-1.6002662E0,1.1305103E0,2.47032E0],"categories":[],"categories_nodes":[],"categories_segments":[],"categories_sizes":[],"default_left":[0,0,0,0,0],"id":3,"left_children":[1,3,-1,-1,-1],"loss_changes":[1.098097E4,4.7265625E2,0E0,0E0,0E0],"parents":[2147483647,0,0,1,1],"right_children":[2,4,-1,-1,-1],"split_conditions":[1E0,1.3211957E0,-1.6002662E0,1.1305103E0,2.47032E0],"split_indices":[11,3,0,0,0],"split_type":[0,0,0,0,0],"sum_hessian":[2.2E1,1.2E1,1E1,7E0,5E0],"tree_param":{"num_deleted":"0","num_feature":"12","num_nodes":"5","size_leaf_vector":"1"}},{"base_weights":[1.5046033E0,1.9367102E1,-1.4494833E0,1.0874829E0,2.2012677E0],"categories":[],"categories_nodes":[],"categories_segments":[],"categories_sizes":[],"default_left":[0,0,0,0,0],"id":4,"left_children":[1,3,-1,-1,-1],"loss_changes":[8.062308E3,1.9052979E2,0E0,0E0,0E0],"parents":[2147483647,0,0,1,1],"right_children":[2,4,-1,-1,-1],"split_conditions":[1E0,1.5779463E0,-1.4494833E0,1.0874829E0,2.2012677E0],"split_indices":[11,3,0,0,0],"split_type":[0,0,0,0,0],"sum_hessian":[2.1E1,1.1E1,1E1,8E0,3E0],"tree_param":{"num_deleted":"0","num_feature":"12","num_nodes":"5","size_leaf_vector":"1"}},{"base_weights":[-3.8403125E0,1.5552365E1,-1.3934333E0,1.713743E0,9.976644E0,1.1850474E0,4.063556E-1],"categories":[],"categories_nodes":[],"categories_segments":[],"categories_sizes":[],"default_left":[0,0,0,0,0,0,0],"id":5,"left_children":[1,3,-1,-1,5,-1,-1],"loss_changes":[6.3269307E3,1.13545166E2,0E0,0E0,9.055304E1,0E0,0E0],"parents":[2147483647,0,0,1,1,4,4],"right_children":[2,4,-1,-1,6,-1,-1],"split_conditions":[1E0,-9.414023E-1,-1.3934333E0,1.713743E0,-1.021055E0,1.1850474E0,4.063556E-1],"split_indices":[11,6,0,0,1,0,0],"split_type":[0,0,0,0,0,0,0],"sum_hessian":[2.2E1,9E0,1.3E1,3E0,6E0,2E0,4E0],"tree_param":{"num_deleted":"0","num_feature":"12","num_nodes":"7","size_leaf_vector":"1"}},{"base_weights":[8.8779086E-1,1.6482738E1,-1.3084344E0,5.19591E-1,1.7009792E0],"categories":[],"categories_nodes":[],"categories_segments":[],"categories_sizes":[],"default_left":[0,0,0,0,0],"id":6,"left_children":[1,3,-1,-1,-1],"loss_changes":[5.6477246E3,3.870105E2,0E0,0E0,0E0],"parents":[2147483647,0,0,1,1],"right_children":[2,4,-1,-1,-1],"split_conditions":[1E0,0E0,-1.3084344E0,5.19591E-1,1.7009792E0],"split_indices":[11,0,0,0,0],"split_type":[0,0,0,0,0],"sum_hessian":[1.9E1,1E1,9E0,4E0,6E0],"tree_param":{"num_deleted":"0","num_feature":"12","num_nodes":"5","size_leaf_vector":"1"}},{"base_weights":[3.5845888E0,1.948729E1,-1.1413473E0,9.068511E0,2.132655E0,1.0941333E0,3.3452673E0,3.1747587E-2,3.3566344E-1],"categories":[],"categories_nodes":[],"categories_segments":[],"categories_sizes":[],"default_left":[0,0,0,0,0,0,0,0,0],"id":7,"left_children":[1,3,-1,5,-1,-1,7,-1,-1],"loss_changes":[5.9557407E3,5.8008154E2,0E0,1.124895E2,0E0,0E0,8.365761E0,0E0,0E0],"parents":[2147483647,0,0,1,1,3,3,6,6],"right_children":[2,4,-1,6,-1,-1,8,-1,-1],"split_conditions":[1E0,0E0,-1.1413473E0,-8.944272E-1,2.132655E0,1.0941333E0,-6.5153295E-1,3.1747587E-2,3.3566344E-1],"split_indices":[11,0,0,0,0,0,5,0,0],"split_type":[0,0,0,0,0,0,0,0,0],"sum_hessian":[1.9E1,1E1,9E0,5E0,5E0,2E0,3E0,1E0,2E0],"tree_param":{"num_deleted":"0","num_feature":"12","num_nodes":"9","size_leaf_vector":"1"}},{"base_weights":[4.9465615E-1,-7.360515E0,2.2390203E1,1.0824941E1,-1.0643415E0,4.227803E-1,2.0276303E0,1.0357796E0,1.7832108E-1],"categories":[],"categories_nodes":[],"categories_segments":[],"categories_sizes":[],"default_left":[0,0,0,0,0,0,0,0,0],"id":8,"left_children":[1,3,5,7,-1,-1,-1,-1,-1],"loss_changes":[3.2606821E3,1.6572764E3,1.18803955E2,4.4113068E1,0E0,0E0,0E0,0E0,0E0],"parents":[2147483647,0,0,1,1,2,2,3,3],"right_children":[2,4,6,8,-1,-1,-1,-1,-1],"split_conditions":[8.944272E-1,0E0,-2.7245924E-1,-8.944272E-1,-1.0643415E0,4.227803E-1,2.0276303E0,1.0357796E0,1.7832108E-1],"split_indices":[0,0,5,0,0,0,0,0,0],"split_type":[0,0,0,0,0,0,0,0,0],"sum_hessian":[1.7E1,1.3E1,4E0,3E0,1E1,1E0,3E0,2E0,1E0],"tree_param":{"num_deleted":"0","num_feature":"12","num_nodes":"9","size_leaf_vector":"1"}},{"base_weights":[-7.2149813E-1,1.2020358E1,-9.7915304E-1,5.267277E0,1.4175987E0,5.9540355E-1,2.6749712E-1],"categories":[],"categories_nodes":[],"categories_segments":[],"categories_sizes":[],"default_left":[0,0,0,0,0,0,0],"id":9,"left_children":[1,3,-1,5,-1,-1,-1],"loss_changes":[3.0823145E3,2.9156433E2,0E0,2.1984863E-1,0E0,0E0,0E0],"parents":[2147483647,0,0,1,1,3,3],"right_children":[2,4,-1,6,-1,-1,-1],"split_conditions":[1E0,1.3211957E0,-9.7915304E-1,-8.944272E-1,1.4175987E0,5.9540355E-1,2.6749712E-1],"split_indices":[11,3,0,0,0,0,0],"split_type":[0,0,0,0,0,0,0],"sum_hessian":[1.9E1,9E0,1E1,5E0,4E0,1E0,4E0],"tree_param":{"num_deleted":"0","num_feature":"12","num_nodes":"7","size_leaf_vector":"1"}},{"base_weights":[7.86743E-1,-5.447814E0,1.6318707E0,7.3182793E0,-9.522241E-1,9.4878334E-1,2.5037724E-1],"categories":[],"categories_nodes":[],"categories_segments":[],"categories_sizes":[],"default_left":[0,0,0,0,0,0,0],"id":10,"left_children":[1,3,-1,5,-1,-1,-1],"loss_changes":[3.0456038E3,1.6528026E3,0E0,9.603909E1,0E0,0E0,0E0],"parents":[2147483647,0,0,1,1,3,3],"right_children":[2,4,-1,6,-1,-1,-1],"split_conditions":[1.3211957E0,5.938433E-1,1.6318707E0,-8.944272E-1,-9.522241E-1,9.4878334E-1,2.5037724E-1],"split_indices":[3,4,0,0,0,0,0],"split_type":[0,0,0,0,0,0,0],"sum_hessian":[2.3E1,1.8E1,5E0,6E0,1.2E1,2E0,4E0],"tree_param":{"num_deleted":"0","num_feature":"12","num_nodes":"7","size_leaf_vector":"1"}},{"base_weights":[-3.9068544E-1,1.3233479E1,-8.853984E-1,4.5607287E-1,1.1419159E0],"categories":[],"categories_nodes":[],"categories_segments":[],"categories_sizes":[],"default_left":[0,0,0,0,0],"id":11,"left_children":[1,3,-1,-1,-1],"loss_changes":[3.6375588E3,4.836914E0,0E0,0E0,0E0],"parents":[2147483647,0,0,1,1],"right_children":[2,4,-1,-1,-1],"split_conditions":[1E0,-1.4174771E0,-8.853984E-1,4.5607287E-1,1.1419159E0],"split_indices":[11,3,0,0,0],"split_type":[0,0,0,0,0],"sum_hessian":[2.3E1,1E1,1.3E1,2E0,8E0],"tree_param":{"num_deleted":"0","num_feature":"12","num_nodes":"5","size_leaf_vector":"1"}},{"base_weights":[-9.229905E-1,-3.9911034E0,1.5052844E0,6.1692147E0,-9.155036E0,8.555685E-1,2.2201362E0,2.247966E-1,-8.309025E-1,6.131935E-1,2.4696268E-1,-4.304672E-2,1.1662994E-1],"categories":[],"categories_nodes":[],"categories_segments":[],"categories_sizes":[],"default_left":[0,0,0,0,0,0,0,0,0,0,0,0,0],"id":12,"left_children":[1,3,-1,5,7,-1,9,-1,-1,11,-1,-1,-1],"loss_changes":[1.3468909E3,1.0533562E3,0E0,1.0135443E2,2.2069897E2,0E0,5.0723248E0,0E0,0E0,3.7018447E0,0E0,0E0,0E0],"parents":[2147483647,0,0,1,1,3,3,4,4,6,6,9,9],"right_children":[2,4,-1,6,8,-1,10,-1,-1,12,-1,-1,-1],"split_conditions":[1.7888544E0,3.593303E-1,1.5052844E0,-8.944272E-1,0E0,8.555685E-1,-6.5153295E-1,2.247966E-1,-8.309025E-1,0E0,2.4696268E-1,-4.304672E-2,1.1662994E-1],"split_indices":[0,5,0,0,0,0,5,0,0,0,0,0,0],"split_type":[0,0,0,0,0,0,0,0,0,0,0,0,0],"sum_hessian":[2E1,1.8E1,2E0,6E0,1.2E1,2E0,4E0,1E0,1.1E1,2E0,2E0,1E0,1E0],"tree_param":{"num_deleted":"0","num_feature":"12","num_nodes":"13","size_leaf_vector":"1"}},{"base_weights":[1.9649091E0,1.3450897E1,-7.7597654E-1,6.3226783E-1,1.6946619E0],"categories":[],"categories_nodes":[],"categories_segments":[],"categories_sizes":[],"default_left":[0,0,0,0,0],"id":13,"left_children":[1,3,-1,-1,-1],"loss_changes":[2.9440427E3,3.044342E2,0E0,0E0,0E0],"parents":[2147483647,0,0,1,1],"right_children":[2,4,-1,-1,-1],"split_conditions":[1E0,1.7888544E0,-7.7597654E-1,6.3226783E-1,1.6946619E0],"split_indices":[11,0,0,0,0],"split_type":[0,0,0,0,0],"sum_hessian":[2E1,1E1,1E1,7E0,3E0],"tree_param":{"num_deleted":"0","num_feature":"12","num_nodes":"5","size_leaf_vector":"1"}},{"base_weights":[-1.2153411E0,8.521492E0,-6.8893796E-1,3.1813056E0,1.0580333E0,4.558798E-1,1.5381676E0,1.6715367E-1,1.917167E-1,-6.66156E-2,8.667404E-2],"categories":[],"categories_nodes":[],"categories_segments":[],"categories_sizes":[],"default_left":[0,0,0,0,0,0,0,0,0,0,0],"id":14,"left_children":[1,3,-1,5,-1,-1,7,9,-1,-1,-1],"loss_changes":[1.6577665E3,2.0912427E2,0E0,1.605132E1,0E0,0E0,5.4830685E0,3.6505625E0,0E0,0E0,0E0],"parents":[2147483647,0,0,1,1,3,3,6,6,7,7],"right_children":[2,4,-1,6,-1,-1,8,10,-1,-1,-1],"split_conditions":[1E0,1.3211957E0,-6.8893796E-1,-8.944272E-1,1.0580333E0,4.558798E-1,-6.5153295E-1,0E0,1.917167E-1,-6.66156E-2,8.667404E-2],"split_indices":[11,3,0,0,0,0,5,0,0,0,0],"split_type":[0,0,0,0,0,0,0,0,0,0,0],"sum_hessian":[2.1E1,9E0,1.2E1,5E0,4E0,1E0,4E0,2E0,2E0,1E0,1E0],"tree_param":{"num_deleted":"0","num_feature":"12","num_nodes":"11","size_leaf_vector":"1"}},{"base_weights":[5.5430806E-1,1.0504932E1,-6.3264716E-1,6.7238955E0,1.2352617E0,7.519038E-1,4.265795E0,1.4760406E-1,6.5478075E-1],"categories":[],"categories_nodes":[],"categories_segments":[],"categories_sizes":[],"default_left":[0,0,0,0,0,0,0,0,0],"id":15,"left_children":[1,3,-1,5,-1,-1,7,-1,-1],"loss_changes":[2.0198152E3,1.0146643E2,0E0,1.2508087E1,0E0,0E0,4.1819557E1,0E0,0E0],"parents":[2147483647,0,0,1,1,3,3,6,6],"right_children":[2,4,-1,6,-1,-1,8,-1,-1],"split_conditions":[1E0,1.5779463E0,-6.3264716E-1,-8.944272E-1,1.2352617E0,7.519038E-1,1.7888544E0,1.4760406E-1,6.5478075E-1],"split_indices":[11,3,0,0,0,0,0,0,0],"split_type":[0,0,0,0,0,0,0,0,0],"sum_hessian":[2.2E1,1E1,1.2E1,7E0,3E0,2E0,5E0,4E0,1E0],"tree_param":{"num_deleted":"0","num_feature":"12","num_nodes":"9","size_leaf_vector":"1"}},{"base_weights":[2.203708E0,1.2612168E1,-6.016818E-1,7.992169E0,1.4959302E0,8.698391E-1,4.0890794E0,3.6716384E-1,8.348816E-2],"categories":[],"categories_nodes":[],"categories_segments":[],"categories_sizes":[],"default_left":[0,0,0,0,0,0,0,0,0],"id":16,"left_children":[1,3,-1,5,-1,-1,7,-1,-1],"loss_changes":[2.321685E3,1.598927E2,0E0,4.549225E1,0E0,0E0,2.8311691E0,0E0,0E0],"parents":[2147483647,0,0,1,1,3,3,6,6],"right_children":[2,4,-1,6,-1,-1,8,-1,-1],"split_conditions":[1E0,1.7888544E0,-6.016818E-1,-6.5153295E-1,1.4959302E0,8.698391E-1,1.6660645E0,3.6716384E-1,8.348816E-2],"split_indices":[11,0,0,5,0,0,6,0,0],"split_type":[0,0,0,0,0,0,0,0,0],"sum_hessian":[2.1E1,1E1,1.1E1,7E0,3E0,3E0,4E0,3E0,1E0],"tree_param":{"num_deleted":"0","num_feature":"12","num_nodes":"9","size_leaf_vector":"1"}},{"base_weights":[1.4816833E0,8.266688E0,-6.808491E0,5.858937E0,1.0829571E0,-2.2103651E-1,-5.979604E-1,6.833747E-1,4.120352E0,6.654108E-1,1.3349844E0,-4.142629E-2,1.9126785E-1],"categories":[],"categories_nodes":[],"categories_segments":[],"categories_sizes":[],"default_left":[0,0,0,0,0,0,0,0,0,0,0,0,0],"id":17,"left_children":[1,3,5,7,-1,-1,-1,-1,9,-1,11,-1,-1],"loss_changes":[1.23751E3,7.2962036E1,6.292145E0,1.1453735E1,0E0,0E0,0E0,0E0,8.2423904E1,0E0,1.2975959E1,0E0,0E0],"parents":[2147483647,0,0,1,1,2,2,3,3,8,8,10,10],"right_children":[2,4,6,8,-1,-1,-1,-1,10,-1,12,-1,-1],"split_conditions":[1E0,1.7888544E0,-3.414147E-1,-1.0682727E0,1.0829571E0,-2.2103651E-1,-5.979604E-1,6.833747E-1,-8.944272E-1,6.654108E-1,-6.5153295E-1,-4.142629E-2,1.9126785E-1],"split_indices":[11,0,6,6,0,0,0,0,0,0,5,0,0],"split_type":[0,0,0,0,0,0,0,0,0,0,0,0,0],"sum_hessian":[2E1,1.1E1,9E0,9E0,2E0,2E0,7E0,2E0,7E0,2E0,5E0,2E0,3E0],"tree_param":{"num_deleted":"0","num_feature":"12","num_nodes":"13","size_leaf_vector":"1"}},{"base_weights":[-1.8583901E-1,5.1206064E0,-4.0281777E0,6.2992233E-1,2.8904603E0,-5.034279E-1,3.28685E-1,6.731061E-2,5.2543396E-1],"categories":[],"categories_nodes":[],"categories_segments":[],"categories_sizes":[],"default_left":[0,0,0,0,0,0,0,0,0],"id":18,"left_children":[1,3,5,-1,7,-1,-1,-1,-1],"loss_changes":[3.876316E2,2.636473E1,2.2855205E2,0E0,3.9686314E1,0E0,0E0,0E0,0E0],"parents":[2147483647,0,0,1,1,2,2,4,4],"right_children":[2,4,6,-1,8,-1,-1,-1,-1],"split_conditions":[5.938433E-1,-8.944272E-1,8.944272E-1,6.2992233E-1,1.7888544E0,-5.034279E-1,3.28685E-1,6.731061E-2,5.2543396E-1],"split_indices":[4,0,0,0,0,0,0,0,0],"split_type":[0,0,0,0,0,0,0,0,0],"sum_hessian":[1.7E1,7E0,1E1,2E0,5E0,8E0,2E0,4E0,1E0],"tree_param":{"num_deleted":"0","num_feature":"12","num_nodes":"9","size_leaf_vector":"1"}},{"base_weights":[1.237673E0,-2.5932028E0,8.997651E-1,4.2105117E0,-6.068574E0,5.963266E-1,7.252054E-1,-5.2670556E-1,-1.9999841E-1,-1.0568405E-1,1.4781128E-1],"categories":[],"categories_nodes":[],"categories_segments":[],"categories_sizes":[],"default_left":[0,0,0,0,0,0,0,0,0,0,0],"id":19,"left_children":[1,3,-1,5,7,-1,9,-1,-1,-1,-1],"loss_changes":[8.344053E2,4.0387875E2,0E0,6.2423286E1,3.7662659E0,0E0,1.1627991E1,0E0,0E0,0E0,0E0],"parents":[2147483647,0,0,1,1,3,3,4,4,6,6],"right_children":[2,4,-1,6,8,-1,10,-1,-1,-1,-1],"split_conditions":[8.944272E-1,0E0,8.997651E-1,-8.944272E-1,3.797769E-1,5.963266E-1,-6.5153295E-1,-5.2670556E-1,-1.9999841E-1,-1.0568405E-1,1.4781128E-1],"split_indices":[0,0,0,0,3,0,5,0,0,0,0],"split_type":[0,0,0,0,0,0,0,0,0,0,0],"sum_hessian":[2E1,1.5E1,5E0,5E0,1E1,2E0,3E0,8E0,2E0,1E0,2E0],"tree_param":{"num_deleted":"0","num_feature":"12","num_nodes":"11","size_leaf_vector":"1"}},{"base_weights":[7.4619377E-1,8.095264E0,-5.606309E0,3.795797E0,1.2596198E0,-4.942066E-1,-2.1069828E-1,1.7656108E0,5.8141065E-1,2.9710877E-1,6.5754086E-2],"categories":[],"categories_nodes":[],"categories_segments":[],"categories_sizes":[],"default_left":[0,0,0,0,0,0,0,0,0,0,0],"id":20,"left_children":[1,3,5,7,-1,-1,-1,9,-1,-1,-1],"loss_changes":[1.2125093E3,3.349245E2,7.50412E0,5.0604446E1,0E0,0E0,0E0,9.817211E0,0E0,0E0,0E0],"parents":[2147483647,0,0,1,1,2,2,3,3,7,7],"right_children":[2,4,6,8,-1,-1,-1,10,-1,-1,-1],"split_conditions":[1E0,1.7888544E0,3.797769E-1,1.5779463E0,1.2596198E0,-4.942066E-1,-2.1069828E-1,-8.944272E-1,5.8141065E-1,2.9710877E-1,6.5754086E-2],"split_indices":[11,0,3,3,0,0,0,0,0,0,0],"split_type":[0,0,0,0,0,0,0,0,0,0,0],"sum_hessian":[2.4E1,1.1E1,1.3E1,8E0,3E0,1E1,3E0,6E0,2E0,1E0,5E0],"tree_param":{"num_deleted":"0","num_feature":"12","num_nodes":"11","size_leaf_vector":"1"}},{"base_weights":[-7.960113E-1,-2.7361557E0,8.8881534E-1,3.1916778E0,-4.6577997E0,5.3779083E-1,6.284046E-1,-5.17131E0,8.0713496E-2,-1.0408691E-1,1.364211E-1,-4.5859367E-1,-1.9805638E-1],"categories":[],"categories_nodes":[],"categories_segments":[],"categories_sizes":[],"default_left":[0,0,0,0,0,0,0,0,0,0,0,0,0],"id":21,"left_children":[1,3,-1,5,7,-1,9,11,-1,-1,-1,-1,-1],"loss_changes":[4.9239432E2,2.1990753E2,0E0,4.102646E1,4.59563E1,0E0,1.0529855E1,5.4711304E0,0E0,0E0,0E0,0E0,0E0],"parents":[2147483647,0,0,1,1,3,3,4,4,6,6,7,7],"right_children":[2,4,-1,6,8,-1,10,12,-1,-1,-1,-1,-1],"split_conditions":[1.5779463E0,-4.3759498E-1,8.8881534E-1,-1.021055E0,8.9327806E-1,5.3779083E-1,-6.5153295E-1,3.797769E-1,8.0713496E-2,-1.0408691E-1,1.364211E-1,-4.5859367E-1,-1.9805638E-1],"split_indices":[3,1,0,1,3,0,5,3,0,0,0,0,0],"split_type":[0,0,0,0,0,0,0,0,0,0,0,0,0],"sum_hessian":[1.9E1,1.7E1,2E0,4E0,1.3E1,1E0,3E0,1.2E1,1E0,1E0,2E0,9E0,3E0],"tree_param":{"num_deleted":"0","num_feature":"12","num_nodes":"13","size_leaf_vector":"1"}},{"base_weights":[8.9454055E-1,6.2939806E0,-4.586221E0,4.035542E0,8.777042E-1,-1.8617302E-1,-4.1139784E-1,5.199946E-1,2.4028685E0,5.6968026E-2,5.018991E-1],"categories":[],"categories_nodes":[],"categories_segments":[],"categories_sizes":[],"default_left":[0,0,0,0,0,0,0,0,0,0,0],"id":22,"left_children":[1,3,5,7,-1,-1,-1,-1,9,-1,-1],"loss_changes":[6.503196E2,7.192276E1,1.8553009E0,2.059343E1,0E0,0E0,0E0,0E0,4.1345676E1,0E0,0E0],"parents":[2147483647,0,0,1,1,2,2,3,3,8,8],"right_children":[2,4,6,8,-1,-1,-1,-1,10,-1,-1],"split_conditions":[1E0,1.7888544E0,-3.414147E-1,-8.944272E-1,8.777042E-1,-1.8617302E-1,-4.1139784E-1,5.199946E-1,1.3191481E0,5.6968026E-2,5.018991E-1],"split_indices":[11,0,6,0,0,0,0,0,4,0,0],"split_type":[0,0,0,0,0,0,0,0,0,0,0],"sum_hessian":[2E1,1E1,1E1,8E0,2E0,3E0,7E0,2E0,6E0,5E0,1E0],"tree_param":{"num_deleted":"0","num_feature":"12","num_nodes":"11","size_leaf_vector":"1"}},{"base_weights":[2.1719506E0,7.3711534E0,-4.170012E0,4.0306215E0,1.1103755E0,-3.712E-1,-1.750026E-1,4.9226165E-1,2.7308006E0,6.646264E-1,4.7623056E-1,3.372168E-2,7.5206146E-2],"categories":[],"categories_nodes":[],"categories_segments":[],"categories_sizes":[],"default_left":[0,0,0,0,0,0,0,0,0,0,0,0,0],"id":23,"left_children":[1,3,5,7,-1,-1,-1,-1,9,11,-1,-1,-1],"loss_changes":[7.8912024E2,2.2670197E2,9.899902E-2,1.0787277E1,0E0,0E0,0E0,0E0,4.930261E1,5.518675E-3,0E0,0E0,0E0],"parents":[2147483647,0,0,1,1,2,2,3,3,8,8,9,9],"right_children":[2,4,6,8,-1,-1,-1,-1,10,12,-1,-1,-1],"split_conditions":[1E0,7.2932494E-1,3.797769E-1,-1.021055E0,1.1103755E0,-3.712E-1,-1.750026E-1,4.9226165E-1,1.5779463E0,1.3211957E0,4.7623056E-1,3.372168E-2,7.5206146E-2],"split_indices":[11,1,3,1,0,0,0,0,3,3,0,0,0],"split_type":[0,0,0,0,0,0,0,0,0,0,0,0,0],"sum_hessian":[2.2E1,1.2E1,1E1,9E0,3E0,7E0,3E0,2E0,7E0,5E0,2E0,4E0,1E0],"tree_param":{"num_deleted":"0","num_feature":"12","num_nodes":"13","size_leaf_vector":"1"}},{"base_weights":[1.7536669E0,7.4604206E0,-4.112511E0,4.2510242E0,1.1681442E0,-3.585559E-1,-1.3066883E-1,4.2329383E-1,2.3606706E0,5.2178342E-2,2.0997787E-1],"categories":[],"categories_nodes":[],"categories_segments":[],"categories_sizes":[],"default_left":[0,0,0,0,0,0,0,0,0,0,0],"id":24,"left_children":[1,3,5,7,-1,-1,-1,-1,9,-1,-1],"loss_changes":[7.336946E2,1.900423E2,2.7541962E0,5.205536E0,0E0,0E0,0E0,0E0,5.4367256E-1,0E0,0E0],"parents":[2147483647,0,0,1,1,2,2,3,3,8,8],"right_children":[2,4,6,8,-1,-1,-1,-1,10,-1,-1],"split_conditions":[1E0,7.2932494E-1,2.1554033E-1,-6.5153295E-1,1.1681442E0,-3.585559E-1,-1.3066883E-1,4.2329383E-1,-1.2165242E0,5.2178342E-2,2.0997787E-1],"split_indices":[11,1,7,5,0,0,0,0,7,0,0],"split_type":[0,0,0,0,0,0,0,0,0,0,0],"sum_hessian":[2E1,1E1,1E1,8E0,2E0,8E0,2E0,4E0,4E0,1E0,3E0],"tree_param":{"num_deleted":"0","num_feature":"12","num_nodes":"11","size_leaf_vector":"1"}},{"base_weights":[2.0719919E-1,4.590054E0,-3.8276842E0,1.8907629E0,5.9608406E-1,-3.3865863E-1,-1.5666232E-1,1.0035414E0,2.885637E-1,2.1365178E0,-9.7076416E-2,2.0629089E-1,5.0091248E-2,3.6016845E-3,-2.0934753E-2],"categories":[],"categories_nodes":[],"categories_segments":[],"categories_sizes":[],"default_left":[0,0,0,0,0,0,0,0,0,0,0,0,0,0,0],"id":25,"left_children":[1,3,5,7,-1,-1,-1,9,-1,11,13,-1,-1,-1,-1],"loss_changes":[4.0662405E2,7.0861115E1,8.077545E-1,7.0392437E0,0E0,0E0,0E0,7.6892495E0,0E0,3.887081E-1,1.05342835E-1,0E0,0E0,0E0,0E0],"parents":[2147483647,0,0,1,1,2,2,3,3,7,7,9,9,10,10],"right_children":[2,4,6,8,-1,-1,-1,10,-1,12,14,-1,-1,-1,-1],"split_conditions":[1E0,1.3211957E0,3.797769E-1,7.2932494E-1,5.9608406E-1,-3.3865863E-1,-1.5666232E-1,-1.4174771E0,2.885637E-1,-1.021055E0,-4.3759498E-1,2.0629089E-1,5.0091248E-2,3.6016845E-3,-2.0934753E-2],"split_indices":[11,3,3,1,0,0,0,3,0,1,1,0,0,0,0],"split_type":[0,0,0,0,0,0,0,0,0,0,0,0,0,0,0],"sum_hessian":[2.1E1,1E1,1.1E1,6E0,4E0,8E0,3E0,5E0,1E0,2E0,3E0,1E0,1E0,2E0,1E0],"tree_param":{"num_deleted":"0","num_feature":"12","num_nodes":"15","size_leaf_vector":"1"}},{"base_weights":[2.0570712E0,6.448751E0,-2.7349213E-1,3.3536143E0,1.1800621E1,4.3783495E-1,1.9662454E0,2.7702117E-1,1.0740521E0,-2.6340562E-1,4.021532E-1,-9.381612E-2,5.8695372E-2],"categories":[],"categories_nodes":[],"categories_segments":[],"categories_sizes":[],"default_left":[0,0,0,0,0,0,0,0,0,0,0,0,0],"id":26,"left_children":[1,3,-1,5,7,-1,9,-1,-1,11,-1,-1,-1],"loss_changes":[5.2704614E2,1.5920248E2,0E0,1.5701416E1,7.7072144E0,0E0,4.90937E1,0E0,0E0,5.393687E0,0E0,0E0,0E0],"parents":[2147483647,0,0,1,1,3,3,4,4,6,6,9,9],"right_children":[2,4,-1,6,8,-1,10,-1,-1,12,-1,-1,-1],"split_conditions":[1E0,1.7888544E0,-2.7349213E-1,-8.944272E-1,1.0644451E0,4.3783495E-1,1.5779463E0,2.7702117E-1,1.0740521E0,-6.5153295E-1,4.021532E-1,-9.381612E-2,5.8695372E-2],"split_indices":[11,0,0,0,3,0,3,0,0,5,0,0,0],"split_type":[0,0,0,0,0,0,0,0,0,0,0,0,0],"sum_hessian":[2E1,1.1E1,9E0,8E0,3E0,2E0,6E0,1E0,2E0,4E0,2E0,2E0,2E0],"tree_param":{"num_deleted":"0","num_feature":"12","num_nodes":"13","size_leaf_vector":"1"}},{"base_weights":[1.0948998E0,-1.0889246E0,1.1194341E1,2.3031216E0,-3.259545E0,2.659404E-1,1.0167694E0,4.1448376E-1,4.8030534E-1,-2.8952786E-1,-1.3085307E-1,-5.467453E-1,1.6896044E0,4.5739744E-2,-8.8812664E-2,3.7607573E-2,1.6514495E-1],"categories":[],"categories_nodes":[],"categories_segments":[],"categories_sizes":[],"default_left":[0,0,0,0,0,0,0,0,0,0,0,0,0,0,0,0,0],"id":27,"left_children":[1,3,5,7,9,-1,-1,-1,11,-1,-1,13,15,-1,-1,-1,-1],"loss_changes":[4.974087E2,1.4740118E2,5.4514465E0,3.947895E1,1.0868378E0,0E0,0E0,0E0,8.375853E0,0E0,0E0,3.1554217E0,4.0045643E-1,0E0,0E0,0E0,0E0],"parents":[2147483647,0,0,1,1,2,2,3,3,4,4,8,8,11,11,12,12],"right_children":[2,4,6,8,10,-1,-1,-1,12,-1,-1,14,16,-1,-1,-1,-1],"split_conditions":[1.7888544E0,1E0,1.0644451E0,-8.944272E-1,3.797769E-1,2.659404E-1,1.0167694E0,4.1448376E-1,1.3211957E0,-2.8952786E-1,-1.3085307E-1,-1.4174771E0,1.5779463E0,4.5739744E-2,-8.8812664E-2,3.7607573E-2,1.6514495E-1],"split_indices":[0,11,3,0,3,0,0,0,3,0,0,3,3,0,0,0,0],"split_type":[0,0,0,0,0,0,0,0,0,0,0,0,0,0,0,0,0],"sum_hessian":[2.1E1,1.8E1,3E0,7E0,1.1E1,1E0,2E0,2E0,5E0,8E0,3E0,3E0,2E0,1E0,2E0,1E0,1E0],"tree_param":{"num_deleted":"0","num_feature":"12","num_nodes":"17","size_leaf_vector":"1"}},{"base_weights":[9.0461934E-1,-1.5044987E0,9.2155963E-1,2.3604217E-1,-2.9881153E0,-2.763424E-1,-9.5913374E-1,-9.377946E-2,-1.2792205E-2],"categories":[],"categories_nodes":[],"categories_segments":[],"categories_sizes":[],"default_left":[0,0,0,0,0,0,0,0,0],"id":28,"left_children":[1,3,-1,-1,5,-1,7,-1,-1],"loss_changes":[5.543534E2,1.2778841E2,0E0,0E0,9.928635E0,0E0,4.9385E-1,0E0,0E0],"parents":[2147483647,0,0,1,1,4,4,6,6],"right_children":[2,4,-1,-1,6,-1,8,-1,-1],"split_conditions":[1.3211957E0,-7.671775E-2,9.2155963E-1,2.3604217E-1,3.797769E-1,-2.763424E-1,8.9327806E-1,-9.377946E-2,-1.2792205E-2],"split_indices":[3,7,0,0,3,0,3,0,0],"split_type":[0,0,0,0,0,0,0,0,0],"sum_hessian":[2E1,1.7E1,3E0,4E0,1.3E1,1E1,3E0,2E0,1E0],"tree_param":{"num_deleted":"0","num_feature":"12","num_nodes":"9","size_leaf_vector":"1"}},{"base_weights":[1.1770476E0,-8.1206024E-1,8.66266E-1,3.0169792E0,-2.6685758E0,3.797891E-1,1.3753525E0,-2.8502343E0,-1.2280579E-2,1.8255901E-1,2.4586105E-1,-2.811577E-1,-1.5966217E-1,3.4468535E-2,-3.5060628E-3],"categories":[],"categories_nodes":[],"categories_segments":[],"categories_sizes":[],"default_left":[0,0,0,0,0,0,0,0,0,0,0,0,0,0,0],"id":29,"left_children":[1,3,-1,5,7,-1,9,11,-1,13,-1,-1,-1,-1,-1],"loss_changes":[4.503342E2,1.5022444E2,0E0,1.3355221E1,5.9588394E0,0E0,9.565231E0,3.642044E-1,0E0,2.4372594E-1,0E0,0E0,0E0,0E0,0E0],"parents":[2147483647,0,0,1,1,3,3,4,4,6,6,7,7,9,9],"right_children":[2,4,-1,6,8,-1,10,12,-1,14,-1,-1,-1,-1,-1],"split_conditions":[1.3211957E0,-1.3146149E-1,8.66266E-1,-8.944272E-1,8.944272E-1,3.797891E-1,0E0,1.2302632E-1,-1.2280579E-2,-1.4174771E0,2.4586105E-1,-2.811577E-1,-1.5966217E-1,3.4468535E-2,-3.5060628E-3],"split_indices":[3,4,0,0,0,0,0,3,0,3,0,0,0,0,0],"split_type":[0,0,0,0,0,0,0,0,0,0,0,0,0,0,0],"sum_hessian":[2.2E1,1.9E1,3E0,6E0,1.3E1,2E0,4E0,1.2E1,1E0,3E0,1E0,5E0,7E0,1E0,2E0],"tree_param":{"num_deleted":"0","num_feature":"12","num_nodes":"15","size_leaf_vector":"1"}},{"base_weights":[7.247166E-1,3.6824267E0,-2.8970072E0,2.337582E0,5.5502135E-1,-2.4222355E-1,-6.879692E-2,3.595338E-1,1.2366629E0,-7.953326E-2,3.456834E0,-8.4911115E-2,1.004895E-1,8.7026216E-2,3.2779387E-1],"categories":[],"categories_nodes":[],"categories_segments":[],"categories_sizes":[],"default_left":[0,0,0,0,0,0,0,0,0,0,0,0,0,0,0],"id":30,"left_children":[1,3,5,7,-1,-1,-1,-1,9,11,13,-1,-1,-1,-1],"loss_changes":[2.3562022E2,3.6317535E1,6.0401917E-2,1.8184544E1,0E0,0E0,0E0,0E0,2.3652382E1,9.2017355E0,9.5386505E-2,0E0,0E0,0E0,0E0],"parents":[2147483647,0,0,1,1,2,2,3,3,8,8,9,9,10,10],"right_children":[2,4,6,8,-1,-1,-1,-1,10,12,14,-1,-1,-1,-1],"split_conditions":[1E0,1.7888544E0,3.797769E-1,-8.944272E-1,5.5502135E-1,-2.4222355E-1,-6.879692E-2,3.595338E-1,1.5779463E0,-2.7245924E-1,1.7491133E0,-8.4911115E-2,1.004895E-1,8.7026216E-2,3.2779387E-1],"split_indices":[11,0,3,0,0,0,0,0,3,5,3,0,0,0,0],"split_type":[0,0,0,0,0,0,0,0,0,0,0,0,0,0,0],"sum_hessian":[2E1,1.1E1,9E0,9E0,2E0,8E0,1E0,2E0,7E0,5E0,2E0,3E0,2E0,1E0,1E0],"tree_param":{"num_deleted":"0","num_feature":"12","num_nodes":"15","size_leaf_vector":"1"}},{"base_weights":[1.3620143E0,-2.7144635E-1,9.188814E0,2.2295685E0,-2.5204191E0,2.1382567E-1,8.375897E-1,3.403586E-1,1.1915298E0,-2.5159895E-1,-1.1806254E-1,-7.057444E-2,3.3185616E0,-7.981644E-2,9.5130004E-2,8.354522E-2,3.1468216E-1],"categories":[],"categories_nodes":[],"categories_segments":[],"categories_sizes":[],"default_left":[0,0,0,0,0,0,0,0,0,0,0,0,0,0,0,0,0],"id":31,"left_children":[1,3,5,7,9,-1,-1,-1,11,-1,-1,13,15,-1,-1,-1,-1],"loss_changes":[2.9654398E2,1.1811374E2,5.405365E0,1.595005E1,2.5355988E0,0E0,0E0,0E0,2.1710491E1,0E0,0E0,8.193836E0,8.7905884E-2,0E0,0E0,0E0,0E0],"parents":[2147483647,0,0,1,1,2,2,3,3,4,4,8,8,11,11,12,12],"right_children":[2,4,6,8,10,-1,-1,-1,12,-1,-1,14,16,-1,-1,-1,-1],"split_conditions":[1.6229094E0,1E0,1.0644451E0,-1.021055E0,1.2302632E-1,2.1382567E-1,8.375897E-1,3.403586E-1,1.5779463E0,-2.5159895E-1,-1.1806254E-1,-2.7245924E-1,1.7491133E0,-7.981644E-2,9.5130004E-2,8.354522E-2,3.1468216E-1],"split_indices":[5,11,3,1,3,0,0,0,3,0,0,5,3,0,0,0,0],"split_type":[0,0,0,0,0,0,0,0,0,0,0,0,0,0,0,0,0],"sum_hessian":[2.2E1,1.9E1,3E0,9E0,1E1,1E0,2E0,2E0,7E0,5E0,5E0,5E0,2E0,3E0,2E0,1E0,1E0],"tree_param":{"num_deleted":"0","num_feature":"12","num_nodes":"17","size_leaf_vector":"1"}},{"base_weights":[1.3555609E0,5.378457E0,-2.4450574E0,3.037098E0,8.716561E0,-7.029672E-2,-2.136365E-1,4.9087753E0,9.3233645E-1,2.0527267E-1,7.929181E-1,1.113176E-1,4.4939098E-1,-2.8820647E-2,1.3455496E0,1.2668203E-1,2.5264893E-2],"categories":[],"categories_nodes":[],"categories_segments":[],"categories_sizes":[],"default_left":[0,0,0,0,0,0,0,0,0,0,0,0,0,0,0,0,0],"id":32,"left_children":[1,3,5,7,9,-1,-1,11,13,-1,-1,-1,-1,-1,15,-1,-1],"loss_changes":[3.495195E2,5.9499664E1,1.8900833E0,2.6938843E1,3.966095E0,0E0,0E0,2.153183E0,3.1553311E0,0E0,0E0,0E0,0E0,0E0,4.801159E-1,0E0,0E0],"parents":[2147483647,0,0,1,1,2,2,3,3,4,4,7,7,8,8,14,14],"right_children":[2,4,6,8,10,-1,-1,12,14,-1,-1,-1,-1,-1,16,-1,-1],"split_conditions":[1E0,7.2932494E-1,-3.414147E-1,-6.5153295E-1,-1.3146149E-1,-7.029672E-2,-2.136365E-1,-1.915112E0,-2.7245924E-1,2.0527267E-1,7.929181E-1,1.113176E-1,4.4939098E-1,-2.8820647E-2,1.6660645E0,1.2668203E-1,2.5264893E-2],"split_indices":[11,1,6,5,4,0,0,5,5,0,0,0,0,0,6,0,0],"split_type":[0,0,0,0,0,0,0,0,0,0,0,0,0,0,0,0,0],"sum_hessian":[2.1E1,1E1,1.1E1,7E0,3E0,2E0,9E0,3E0,4E0,1E0,2E0,1E0,2E0,1E0,3E0,2E0,1E0],"tree_param":{"num_deleted":"0","num_feature":"12","num_nodes":"17","size_leaf_vector":"1"}},{"base_weights":[9.5035946E-1,4.396815E0,-2.3040884E0,2.1874037E0,8.268785E0,-1.22841775E-1,-2.1947992E-1,3.0725393E-1,1.1663731E0,1.9706176E-1,7.5062925E-1,-1.6335449E-1,2.9937947E0,-1.0778503E-1,8.6004436E-2,7.513611E-2,2.8411925E-1],"categories":[],"categories_nodes":[],"categories_segments":[],"categories_sizes":[],"default_left":[0,0,0,0,0,0,0,0,0,0,0,0,0,0,0,0,0],"id":33,"left_children":[1,3,5,7,9,-1,-1,-1,11,-1,-1,13,15,-1,-1,-1,-1],"loss_changes":[2.7932205E2,8.4570114E1,1.776123E-1,1.07127E1,2.7586975E0,0E0,0E0,0E0,1.749886E1,0E0,0E0,8.779565E0,1.019516E-1,0E0,0E0,0E0,0E0],"parents":[2147483647,0,0,1,1,2,2,3,3,4,4,8,8,11,11,12,12],"right_children":[2,4,6,8,10,-1,-1,-1,12,-1,-1,14,16,-1,-1,-1,-1],"split_conditions":[1E0,1.7888544E0,-2.0170629E-1,-8.944272E-1,-1.3146149E-1,-1.22841775E-1,-2.1947992E-1,3.0725393E-1,1.3191481E0,1.9706176E-1,7.5062925E-1,-2.7245924E-1,2.044453E0,-1.0778503E-1,8.6004436E-2,7.513611E-2,2.8411925E-1],"split_indices":[11,0,6,0,4,0,0,0,4,0,0,5,4,0,0,0,0],"split_type":[0,0,0,0,0,0,0,0,0,0,0,0,0,0,0,0,0],"sum_hessian":[2.3E1,1.1E1,1.2E1,8E0,3E0,6E0,6E0,2E0,6E0,1E0,2E0,4E0,2E0,2E0,2E0,1E0,1E0],"tree_param":{"num_deleted":"0","num_feature":"12","num_nodes":"17","size_leaf_vector":"1"}},{"base_weights":[1.0252082E0,-9.963062E-1,7.844207E0,3.4172577E-1,-1.73011E0,1.8917923E-1,7.105959E-1,-1.9176486E0,2.0814056E-2,-1.2706896E0,-2.0554024E-1,-1.0950405E-1,-2.3356475E-2],"categories":[],"categories_nodes":[],"categories_segments":[],"categories_sizes":[],"default_left":[0,0,0,0,0,0,0,0,0,0,0,0,0],"id":34,"left_children":[1,3,5,-1,7,-1,-1,9,-1,11,-1,-1,-1],"loss_changes":[2.4215521E2,6.150854E1,1.7513428E0,0E0,5.351242E0,0E0,0E0,1.794014E0,0E0,3.6856842E-1,0E0,0E0,0E0],"parents":[2147483647,0,0,1,1,2,2,4,4,7,7,9,9],"right_children":[2,4,6,-1,8,-1,-1,10,-1,12,-1,-1,-1],"split_conditions":[1.7888544E0,-8.944272E-1,-1.3146149E-1,3.4172577E-1,1.6660645E0,1.8917923E-1,7.105959E-1,-2.0170629E-1,2.0814056E-2,8.944272E-1,-2.0554024E-1,-1.0950405E-1,-2.3356475E-2],"split_indices":[0,0,4,0,6,0,0,6,0,0,0,0,0],"split_type":[0,0,0,0,0,0,0,0,0,0,0,0,0],"sum_hessian":[1.6E1,1.3E1,3E0,1E0,1.2E1,1E0,2E0,1.1E1,1E0,7E0,4E0,6E0,1E0],"tree_param":{"num_deleted":"0","num_feature":"12","num_nodes":"13","size_leaf_vector":"1"}},{"base_weights":[1.410266E0,-8.381844E-3,7.441615E0,1.7051909E0,-1.5497591E0,1.8161209E-1,6.726975E-1,3.4080212E0,7.318077E-1,1.0953369E-1,-1.6209719E-1,8.090576E-2,3.2805678E-1,-7.092384E-1,2.8896153E0,1.9981537E-2,-8.091461E-2,7.3065035E-2,2.736888E-1],"categories":[],"categories_nodes":[],"categories_segments":[],"categories_sizes":[],"default_left":[0,0,0,0,0,0,0,0,0,0,0,0,0,0,0,0,0,0,0],"id":35,"left_children":[1,3,5,7,9,-1,-1,11,13,-1,-1,-1,-1,15,17,-1,-1,-1,-1],"loss_changes":[1.7974596E2,5.018535E1,9.163208E-1,1.2423542E1,1.6681644E1,0E0,0E0,8.333626E-1,2.381593E1,0E0,0E0,0E0,0E0,1.7016573E0,2.6639938E-2,0E0,0E0,0E0,0E0],"parents":[2147483647,0,0,1,1,2,2,3,3,4,4,7,7,8,8,13,13,14,14],"right_children":[2,4,6,8,10,-1,-1,12,14,-1,-1,-1,-1,16,18,-1,-1,-1,-1],"split_conditions":[1.7888544E0,3.593303E-1,1.0644451E0,-8.944272E-1,0E0,1.8161209E-1,6.726975E-1,-1.4174771E0,1.5779463E0,1.0953369E-1,-1.6209719E-1,8.090576E-2,3.2805678E-1,-1.4174771E0,1.7491133E0,1.9981537E-2,-8.091461E-2,7.3065035E-2,2.736888E-1],"split_indices":[0,5,3,0,0,0,0,3,3,0,0,0,0,3,3,0,0,0,0],"split_type":[0,0,0,0,0,0,0,0,0,0,0,0,0,0,0,0,0,0,0],"sum_hessian":[2E1,1.7E1,3E0,8E0,9E0,1E0,2E0,2E0,6E0,1E0,8E0,1E0,1E0,4E0,2E0,1E0,3E0,1E0,1E0],"tree_param":{"num_deleted":"0","num_feature":"12","num_nodes":"19","size_leaf_vector":"1"}},{"base_weights":[1.1765095E0,-2.770152E-1,7.059862E0,-8.687566E-1,2.77403E0,1.7434753E-1,6.3682026E-1,1.01002045E-1,-1.5067875E0,7.0142366E-2,2.6274124E-1,-1.6810876E-1,-7.8189903E-1,-7.402093E-2,-2.2586262E-2],"categories":[],"categories_nodes":[],"categories_segments":[],"categories_sizes":[],"default_left":[0,0,0,0,0,0,0,0,0,0,0,0,0,0,0],"id":36,"left_children":[1,3,5,7,9,-1,-1,-1,11,-1,-1,-1,13,-1,-1],"loss_changes":[1.7298766E2,3.3102264E1,2.2938538E-1,2.2299719E1,2.4555206E-2,0E0,0E0,0E0,3.5289288E0,0E0,0E0,0E0,2.401104E-1,0E0,0E0],"parents":[2147483647,0,0,1,1,2,2,3,3,4,4,8,8,12,12],"right_children":[2,4,6,8,10,-1,-1,-1,12,-1,-1,-1,14,-1,-1],"split_conditions":[1.7888544E0,1.5779463E0,1.0644451E0,0E0,1.7491133E0,1.7434753E-1,6.3682026E-1,1.01002045E-1,1.2302632E-1,7.0142366E-2,2.6274124E-1,-1.6810876E-1,8.944272E-1,-7.402093E-2,-2.2586262E-2],"split_indices":[0,3,3,0,3,0,0,0,3,0,0,0,0,0,0],"split_type":[0,0,0,0,0,0,0,0,0,0,0,0,0,0,0],"sum_hessian":[1.9E1,1.6E1,3E0,1.4E1,2E0,1E0,2E0,3E0,1.1E1,1E0,1E0,5E0,6E0,4E0,2E0],"tree_param":{"num_deleted":"0","num_feature":"12","num_nodes":"15","size_leaf_vector":"1"}},{"base_weights":[4.811616E-1,2.6318018E0,-1.5303556E0,1.6454569E0,3.7708557E-1,-8.502175E-2,-1.5779346E-1,3.1089446E-1,8.7959385E-1,-1.587429E-1,2.6630695E0,-7.717636E-2,7.750295E-2,6.733673E-2,2.522316E-1],"categories":[],"categories_nodes":[],"categories_segments":[],"categories_sizes":[],"default_left":[0,0,0,0,0,0,0,0,0,0,0,0,0,0,0],"id":37,"left_children":[1,3,5,7,-1,-1,-1,-1,9,11,13,-1,-1,-1,-1],"loss_changes":[9.920069E1,1.4830788E1,3.8418388E-1,1.2026529E1,0E0,0E0,0E0,0E0,1.5237529E1,6.3870673E0,2.262497E-2,0E0,0E0,0E0,0E0],"parents":[2147483647,0,0,1,1,2,2,3,3,8,8,9,9,10,10],"right_children":[2,4,6,8,-1,-1,-1,-1,10,12,14,-1,-1,-1,-1],"split_conditions":[1E0,1.7888544E0,-2.0170629E-1,-8.944272E-1,3.7708557E-1,-8.502175E-2,-1.5779346E-1,3.1089446E-1,1.3191481E0,-2.7245924E-1,2.044453E0,-7.717636E-2,7.750295E-2,6.733673E-2,2.522316E-1],"split_indices":[11,0,6,0,0,0,0,0,4,5,4,0,0,0,0],"split_type":[0,0,0,0,0,0,0,0,0,0,0,0,0,0,0],"sum_hessian":[2.1E1,1E1,1.1E1,8E0,2E0,7E0,4E0,1E0,7E0,5E0,2E0,3E0,2E0,1E0,1E0],"tree_param":{"num_deleted":"0","num_feature":"12","num_nodes":"15","size_leaf_vector":"1"}},{"base_weights":[3.4349775E-1,2.619226E0,-1.5815673E0,1.2639165E0,4.2882475E-1,-1.5687285E-1,-7.0032425E-2,2.9971035E0,1.866703E-1,6.1193693E-2,2.984587E-1,-1.0824713E0,1.0918589E0,-1.1919326E-1,-1.0703278E-2,1.2042084E-2,1.0843689E-1],"categories":[],"categories_nodes":[],"categories_segments":[],"categories_sizes":[],"default_left":[0,0,0,0,0,0,0,0,0,0,0,0,0,0,0,0,0],"id":38,"left_children":[1,3,5,7,-1,-1,-1,9,11,-1,-1,13,15,-1,-1,-1,-1],"loss_changes":[9.6141914E1,3.0375183E1,1.497942E0,1.437708E1,0E0,0E0,0E0,2.0590725E0,8.07478E0,0E0,0E0,9.602668E-1,7.88517E-1,0E0,0E0,0E0,0E0],"parents":[2147483647,0,0,1,1,2,2,3,3,7,7,8,8,11,11,12,12],"right_children":[2,4,6,8,-1,-1,-1,10,12,-1,-1,14,16,-1,-1,-1,-1],"split_conditions":[1E0,1.7888544E0,1.2302632E-1,-8.944272E-1,4.2882475E-1,-1.5687285E-1,-7.0032425E-2,-1.4174771E0,-6.5153295E-1,6.1193693E-2,2.984587E-1,0E0,-1.4174771E0,-1.1919326E-1,-1.0703278E-2,1.2042084E-2,1.0843689E-1],"split_indices":[11,0,3,0,0,0,0,3,5,0,0,0,3,0,0,0,0],"split_type":[0,0,0,0,0,0,0,0,0,0,0,0,0,0,0,0,0],"sum_hessian":[2E1,9E0,1.1E1,7E0,2E0,6E0,5E0,2E0,5E0,1E0,1E0,2E0,3E0,1E0,1E0,1E0,2E0],"tree_param":{"num_deleted":"0","num_feature":"12","num_nodes":"17","size_leaf_vector":"1"}},{"base_weights":[1.1032342E0,5.003249E-2,6.0934343E0,1.4318602E0,-9.9050766E-1,1.3513717E-1,5.598749E-1,2.877219E0,6.0786927E-1,9.367462E-2,-1.2934507E0,5.874588E-2,2.865204E-1,-6.633644E-1,2.523969E0,-1.3381481E-1,-6.702321E-2,1.1560364E-2,-7.211662E-2,6.0305785E-2,2.4257049E-1],"categories":[],"categories_nodes":[],"categories_segments":[],"categories_sizes":[],"default_left":[0,0,0,0,0,0,0,0,0,0,0,0,0,0,0,0,0,0,0,0,0],"id":39,"left_children":[1,3,5,7,9,-1,-1,11,13,-1,15,-1,-1,17,19,-1,-1,-1,-1,-1,-1],"loss_changes":[1.2057595E2,3.0175213E1,4.1214294E0,8.969688E0,9.372062E0,0E0,0E0,1.8976517E0,1.8724983E1,0E0,4.9946594E-1,0E0,0E0,1.092006E0,4.1287804E-1,0E0,0E0,0E0,0E0,0E0,0E0],"parents":[2147483647,0,0,1,1,2,2,3,3,4,4,7,7,8,8,10,10,13,13,14,14],"right_children":[2,4,6,8,10,-1,-1,12,14,-1,16,-1,-1,18,20,-1,-1,-1,-1,-1,-1],"split_conditions":[1.7888544E0,3.593303E-1,1.0644451E0,-8.944272E-1,0E0,1.3513717E-1,5.598749E-1,-1.4174771E0,1.5779463E0,9.367462E-2,1.2302632E-1,5.874588E-2,2.865204E-1,-1.4174771E0,1.7491133E0,-1.3381481E-1,-6.702321E-2,1.1560364E-2,-7.211662E-2,6.0305785E-2,2.4257049E-1],"split_indices":[0,5,3,0,0,0,0,3,3,0,3,0,0,3,3,0,0,0,0,0,0],"split_type":[0,0,0,0,0,0,0,0,0,0,0,0,0,0,0,0,0,0,0,0,0],"sum_hessian":[2.2E1,1.9E1,3E0,8E0,1.1E1,1E0,2E0,2E0,6E0,1E0,1E1,1E0,1E0,4E0,2E0,4E0,6E0,1E0,3E0,1E0,1E0],"tree_param":{"num_deleted":"0","num_feature":"12","num_nodes":"21","size_leaf_vector":"1"}},{"base_weights":[1.0352119E0,3.4551173E-2,5.7797127E0,1.3825989E0,-9.7936386E-1,1.2973174E-1,5.300148E-1,2.7621295E0,5.9385735E-1,8.992767E-2,-1.272778E0,5.6396026E-2,2.750595E-1,-6.22406E-1,2.4230106E0,-1.14538826E-1,-5.0933495E-2,-7.9287514E-2,-3.699951E-3,5.7893522E-2,2.3286773E-1],"categories":[],"categories_nodes":[],"categories_segments":[],"categories_sizes":[],"default_left":[0,0,0,0,0,0,0,0,0,0,0,0,0,0,0,0,0,0,0,0,0],"id":40,"left_children":[1,3,5,7,9,-1,-1,11,13,-1,15,-1,-1,17,19,-1,-1,-1,-1,-1,-1],"loss_changes":[1.08995926E2,2.8690182E1,3.3184052E0,8.152527E0,8.836944E0,0E0,0E0,1.7488747E0,1.708122E1,0E0,2.0071602E-1,0E0,0E0,1.0162728E0,3.8051033E-1,0E0,0E0,0E0,0E0,0E0,0E0],"parents":[2147483647,0,0,1,1,2,2,3,3,4,4,7,7,8,8,10,10,13,13,14,14],"right_children":[2,4,6,8,10,-1,-1,12,14,-1,16,-1,-1,18,20,-1,-1,-1,-1,-1,-1],"split_conditions":[1.7888544E0,3.593303E-1,1.0644451E0,-8.944272E-1,0E0,1.2973174E-1,5.300148E-1,-1.4174771E0,1.5779463E0,8.992767E-2,3.797769E-1,5.6396026E-2,2.750595E-1,-6.5153295E-1,1.7491133E0,-1.14538826E-1,-5.0933495E-2,-7.9287514E-2,-3.699951E-3,5.7893522E-2,2.3286773E-1],"split_indices":[0,5,3,0,0,0,0,3,3,0,3,0,0,5,3,0,0,0,0,0,0],"split_type":[0,0,0,0,0,0,0,0,0,0,0,0,0,0,0,0,0,0,0,0,0],"sum_hessian":[2.2E1,1.9E1,3E0,8E0,1.1E1,1E0,2E0,2E0,6E0,1E0,1E1,1E0,1E0,4E0,2E0,7E0,3E0,2E0,2E0,1E0,1E0],"tree_param":{"num_deleted":"0","num_feature":"12","num_nodes":"21","size_leaf_vector":"1"}},{"base_weights":[1.0723004E0,3.7806797E0,-1.2740407E0,1.9146341E0,4.8808715E-1,-1.3270019E-1,-6.0982566E-2,2.2513187E0,-4.2189024E-3,5.44885E-1,2.3746513E-1,5.4140165E-2,1.1246032E-2],"categories":[],"categories_nodes":[],"categories_segments":[],"categories_sizes":[],"default_left":[0,0,0,0,0,0,0,0,0,0,0,0,0],"id":41,"left_children":[1,3,5,7,-1,-1,-1,9,-1,11,-1,-1,-1],"loss_changes":[1.3826715E2,3.1618546E1,1.0981178E0,4.7554073E0,0E0,0E0,0E0,5.7236404E0,0E0,6.481069E-2,0E0,0E0,0E0],"parents":[2147483647,0,0,1,1,2,2,3,3,7,7,9,9],"right_children":[2,4,6,8,-1,-1,-1,10,-1,12,-1,-1,-1],"split_conditions":[1E0,1.3211957E0,1.2302632E-1,1.0644451E0,4.8808715E-1,-1.3270019E-1,-6.0982566E-2,-1.4174771E0,-4.2189024E-3,-8.944272E-1,2.3746513E-1,5.4140165E-2,1.1246032E-2],"split_indices":[11,3,3,3,0,0,0,3,0,0,0,0,0],"split_type":[0,0,0,0,0,0,0,0,0,0,0,0,0],"sum_hessian":[2E1,9E0,1.1E1,6E0,3E0,5E0,6E0,5E0,1E0,2E0,3E0,1E0,1E0],"tree_param":{"num_deleted":"0","num_feature":"12","num_nodes":"13","size_leaf_vector":"1"}},{"base_weights":[6.051829E-1,-3.8954857E-1,5.1788616E0,2.5544422E0,-8.861617E-1,1.15043946E-1,4.7571594E-1,5.1974487E-2,2.5455856E-1,-1.22353144E-1,-1.2916615E0,-9.87134E-1,7.73016E-1,-1.1998647E-1,-5.9351377E-2,-1.1786789E-1,-2.6715698E-2,1.0796203E-2,7.525757E-2],"categories":[],"categories_nodes":[],"categories_segments":[],"categories_sizes":[],"default_left":[0,0,0,0,0,0,0,0,0,0,0,0,0,0,0,0,0,0,0],"id":42,"left_children":[1,3,5,7,9,-1,-1,-1,-1,11,13,15,17,-1,-1,-1,-1,-1,-1],"loss_changes":[1.0210823E2,3.0042114E1,2.9343185E0,1.5186672E0,5.107274E0,0E0,0E0,0E0,0E0,6.1831565E0,1.4618301E-1,7.783387E-1,3.0106997E-1,0E0,0E0,0E0,0E0,0E0,0E0],"parents":[2147483647,0,0,1,1,2,2,3,3,4,4,9,9,10,10,11,11,12,12],"right_children":[2,4,6,8,10,-1,-1,-1,-1,12,14,16,18,-1,-1,-1,-1,-1,-1],"split_conditions":[1.7888544E0,-8.944272E-1,1.0644451E0,-1.4174771E0,1E0,1.15043946E-1,4.7571594E-1,5.1974487E-2,2.5455856E-1,-2.7245924E-1,1.2302632E-1,0E0,-1.4174771E0,-1.1998647E-1,-5.9351377E-2,-1.1786789E-1,-2.6715698E-2,1.0796203E-2,7.525757E-2],"split_indices":[0,0,3,3,11,0,0,0,0,5,3,0,3,0,0,0,0,0,0],"split_type":[0,0,0,0,0,0,0,0,0,0,0,0,0,0,0,0,0,0,0],"sum_hessian":[2.1E1,1.8E1,3E0,2E0,1.6E1,1E0,2E0,1E0,1E0,6E0,1E1,3E0,3E0,6E0,4E0,1E0,2E0,1E0,2E0],"tree_param":{"num_deleted":"0","num_feature":"12","num_nodes":"19","size_leaf_vector":"1"}},{"base_weights":[5.8187383E-1,-1.9585347E-1,3.1489426E-1,2.4437621E-1,-5.6675106E-1,-7.747389E-1,1.104422E-1,-1.597435E-1,-9.664255E-1,-7.742319E-2,5.612406E-2,-1.0366823E-1,-5.117841E-2],"categories":[],"categories_nodes":[],"categories_segments":[],"categories_sizes":[],"default_left":[0,0,0,0,0,0,0,0,0,0,0,0,0],"id":43,"left_children":[1,3,-1,-1,5,7,-1,9,11,-1,-1,-1,-1],"loss_changes":[5.5554333E1,2.3432478E1,0E0,0E0,7.9547243E0,1.731801E0,0E0,4.1587834E0,4.6247292E-1,0E0,0E0,0E0,0E0],"parents":[2147483647,0,0,1,1,4,4,5,5,7,7,8,8],"right_children":[2,4,-1,-1,6,8,-1,10,12,-1,-1,-1,-1],"split_conditions":[1.3396099E0,-8.944272E-1,3.1489426E-1,2.4437621E-1,1.7888544E0,5.938433E-1,1.104422E-1,-6.5153295E-1,1.9305894E-1,-7.742319E-2,5.612406E-2,-1.0366823E-1,-5.117841E-2],"split_indices":[7,0,0,0,0,4,0,5,7,0,0,0,0],"split_type":[0,0,0,0,0,0,0,0,0,0,0,0,0],"sum_hessian":[2E1,1.7E1,3E0,1E0,1.6E1,1.5E1,1E0,4E0,1.1E1,2E0,2E0,4E0,7E0],"tree_param":{"num_deleted":"0","num_feature":"12","num_nodes":"13","size_leaf_vector":"1"}},{"base_weights":[5.862168E-1,-2.632357E-1,4.3900207E-1,2.289346E0,-7.253925E-1,4.012039E-2,2.3460113E-1,-1.5251541E-1,-1.0538672E0,-8.9280415E-1,6.259022E-1,-9.8691136E-2,-2.2318602E-1,-1.100563E-1,-2.1861572E-2,8.119354E-3,6.1349995E-2,-4.7911643E-3,-2.1991158E-2],"categories":[],"categories_nodes":[],"categories_segments":[],"categories_sizes":[],"default_left":[0,0,0,0,0,0,0,0,0,0,0,0,0,0,0,0,0,0,0],"id":44,"left_children":[1,3,-1,5,7,-1,-1,9,11,13,15,-1,17,-1,-1,-1,-1,-1,-1],"loss_changes":[8.4713104E1,2.2895151E1,0E0,1.9789772E0,2.8500786E0,0E0,0E0,4.5925846E0,1.2180023E0,8.2075405E-1,2.1787882E-1,0E0,8.865967E-3,0E0,0E0,0E0,0E0,0E0,0E0],"parents":[2147483647,0,0,1,1,3,3,4,4,7,7,8,8,9,9,10,10,12,12],"right_children":[2,4,-1,6,8,-1,-1,10,12,14,16,-1,18,-1,-1,-1,-1,-1,-1],"split_conditions":[1.7888544E0,-8.944272E-1,4.3900207E-1,-1.4174771E0,1E0,4.012039E-2,2.3460113E-1,-2.7245924E-1,3.797769E-1,0E0,-1.4174771E0,-9.8691136E-2,1.45865E-1,-1.100563E-1,-2.1861572E-2,8.119354E-3,6.1349995E-2,-4.7911643E-3,-2.1991158E-2],"split_indices":[0,0,0,3,11,0,0,5,3,0,3,0,1,0,0,0,0,0,0],"split_type":[0,0,0,0,0,0,0,0,0,0,0,0,0,0,0,0,0,0,0],"sum_hessian":[1.9E1,1.7E1,2E0,2E0,1.5E1,1E0,1E0,6E0,9E0,3E0,3E0,7E0,2E0,1E0,2E0,1E0,2E0,1E0,1E0],"tree_param":{"num_deleted":"0","num_feature":"12","num_nodes":"19","size_leaf_vector":"1"}},{"base_weights":[8.379629E-1,3.363179E-2,4.449045E0,1.4685224E0,-5.837236E-1,8.846436E-2,4.1558856E-1,2.197773E0,5.5445385E-1,6.409772E-1,-8.412552E-1,3.8515624E-2,2.2521713E-1,-8.7220126E-1,1.9337676E-1,7.794647E-3,6.912262E-2,-7.669034E-2,1.7994385E-2,-1.0565399E-1,9.898376E-4],"categories":[],"categories_nodes":[],"categories_segments":[],"categories_sizes":[],"default_left":[0,0,0,0,0,0,0,0,0,0,0,0,0,0,0,0,0,0,0,0,0],"id":45,"left_children":[1,3,5,7,9,-1,-1,11,13,15,17,-1,-1,19,-1,-1,-1,-1,-1,-1,-1],"loss_changes":[6.37495E1,1.7688122E1,4.229225E0,2.7809477E0,4.9548135E0,0E0,0E0,1.823823E0,1.2738334E1,2.7953625E-1,1.7173338E0,0E0,0E0,1.2064652E0,0E0,0E0,0E0,0E0,0E0,0E0,0E0],"parents":[2147483647,0,0,1,1,2,2,3,3,4,4,7,7,8,8,9,9,10,10,13,13],"right_children":[2,4,6,8,10,-1,-1,12,14,16,18,-1,-1,20,-1,-1,-1,-1,-1,-1,-1],"split_conditions":[1.6229094E0,-6.5153295E-1,1.0644451E0,-9.042488E-1,5.7735026E-1,8.846436E-2,4.1558856E-1,-1.4174771E0,1.3211957E0,-1.4174771E0,1.5779463E0,3.8515624E-2,2.2521713E-1,5.7735026E-1,1.9337676E-1,7.794647E-3,6.912262E-2,-7.669034E-2,1.7994385E-2,-1.0565399E-1,9.898376E-4],"split_indices":[5,5,3,5,2,0,0,3,3,3,3,0,0,2,0,0,0,0,0,0,0],"split_type":[0,0,0,0,0,0,0,0,0,0,0,0,0,0,0,0,0,0,0,0,0],"sum_hessian":[2.1E1,1.8E1,3E0,5E0,1.3E1,1E0,2E0,2E0,3E0,2E0,1.1E1,1E0,1E0,2E0,1E0,1E0,1E0,1E1,1E0,1E0,1E0],"tree_param":{"num_deleted":"0","num_feature":"12","num_nodes":"21","size_leaf_vector":"1"}},{"base_weights":[6.96428E-1,-4.5824155E-2,3.934239E-1,2.1620849E-1,-3.6647338E-1,-6.7944324E-1,1.8564178E-1,-7.5353026E-1,1.7274475E-2,-1.37935635E-2,-7.075517E-2],"categories":[],"categories_nodes":[],"categories_segments":[],"categories_sizes":[],"default_left":[0,0,0,0,0,0,0,0,0,0,0],"id":46,"left_children":[1,3,-1,-1,5,7,-1,9,-1,-1,-1],"loss_changes":[6.2891777E1,1.685351E1,0E0,0E0,1.5872791E1,1.2240796E0,0E0,9.8859787E-1,0E0,0E0,0E0],"parents":[2147483647,0,0,1,1,4,4,5,5,7,7],"right_children":[2,4,-1,-1,6,8,-1,10,-1,-1,-1],"split_conditions":[1.7888544E0,-8.944272E-1,3.934239E-1,2.1620849E-1,1.7491133E0,1.5779463E0,1.8564178E-1,0E0,1.7274475E-2,-1.37935635E-2,-7.075517E-2],"split_indices":[0,0,0,0,3,3,0,0,0,0,0],"split_type":[0,0,0,0,0,0,0,0,0,0,0],"sum_hessian":[1.9E1,1.7E1,2E0,1E0,1.6E1,1.5E1,1E0,1.4E1,1E0,3E0,1.1E1],"tree_param":{"num_deleted":"0","num_feature":"12","num_nodes":"11","size_leaf_vector":"1"}},{"base_weights":[4.6947014E-1,-1.15021154E-1,2.619647E-1,1.9657224E0,-4.554217E-1,2.8326567E-2,2.0756012E-1,-5.8395946E-1,6.918884E-2,-1.1075668E-1,-7.210406E-1,8.034668E-3,-1.5093002E-2,-8.133406E-2,-3.273473E-2],"categories":[],"categories_nodes":[],"categories_segments":[],"categories_sizes":[],"default_left":[0,0,0,0,0,0,0,0,0,0,0,0,0,0,0],"id":47,"left_children":[1,3,-1,5,7,-1,-1,9,-1,11,13,-1,-1,-1,-1],"loss_changes":[3.8086292E1,1.5060957E1,0E0,2.1214314E0,3.5597544E0,0E0,0E0,1.022882E0,0E0,1.012127E-1,7.8253746E-1,0E0,0E0,0E0,0E0],"parents":[2147483647,0,0,1,1,3,3,4,4,7,7,9,9,10,10],"right_children":[2,4,-1,6,8,-1,-1,10,-1,12,14,-1,-1,-1,-1],"split_conditions":[1.5779463E0,-1.021055E0,2.619647E-1,-1.4174771E0,2.6457512E0,2.8326567E-2,2.0756012E-1,5.938433E-1,6.918884E-2,-1.4174771E0,1.2302632E-1,8.034668E-3,-1.5093002E-2,-8.133406E-2,-3.273473E-2],"split_indices":[3,1,0,3,10,0,0,4,0,3,3,0,0,0,0],"split_type":[0,0,0,0,0,0,0,0,0,0,0,0,0,0,0],"sum_hessian":[2.2E1,1.9E1,3E0,2E0,1.7E1,1E0,1E0,1.6E1,1E0,4E0,1.2E1,1E0,3E0,5E0,7E0],"tree_param":{"num_deleted":"0","num_feature":"12","num_nodes":"15","size_leaf_vector":"1"}},{"base_weights":[6.698145E-1,-3.4849307E-1,3.2736657E0,1.8870926E0,-8.026548E-1,3.596292E0,6.642135E-2,1.9925766E-1,2.719345E-2,-3.757479E-2,-1.1683338E0,1.4486898E0,3.6361042E-1,-1.15245365E-1,7.713318E-3,1.6773772E-1,6.1050416E-3],"categories":[],"categories_nodes":[],"categories_segments":[],"categories_sizes":[],"default_left":[0,0,0,0,0,0,0,0,0,0,0,0,0,0,0,0,0],"id":48,"left_children":[1,3,5,7,9,11,-1,-1,-1,-1,13,15,-1,-1,-1,-1,-1],"loss_changes":[5.6822803E1,1.7759764E1,1.7439423E0,1.9551125E0,1.1558933E0,3.6041565E0,0E0,0E0,0E0,0E0,2.2047377E0,2.5080242E0,0E0,0E0,0E0,0E0,0E0],"parents":[2147483647,0,0,1,1,2,2,3,3,4,4,5,5,10,10,11,11],"right_children":[2,4,6,8,10,12,-1,-1,-1,-1,14,16,-1,-1,-1,-1,-1],"split_conditions":[8.944272E-1,-8.944272E-1,-9.414023E-1,1.6660645E0,-4.938743E-2,1.7888544E0,6.642135E-2,1.9925766E-1,2.719345E-2,-3.757479E-2,1.6660645E0,-1.1834885E0,3.6361042E-1,-1.15245365E-1,7.713318E-3,1.6773772E-1,6.1050416E-3],"split_indices":[0,0,6,6,6,0,0,0,0,0,6,6,0,0,0,0,0],"split_type":[0,0,0,0,0,0,0,0,0,0,0,0,0,0,0,0,0],"sum_hessian":[2E1,1.5E1,5E0,2E0,1.3E1,4E0,1E0,1E0,1E0,8E0,5E0,2E0,2E0,4E0,1E0,1E0,1E0],"tree_param":{"num_deleted":"0","num_feature":"12","num_nodes":"17","size_leaf_vector":"1"}},{"base_weights":[2.444602E-1,-3.4182674E-1,3.1008992E-1,2.6951107E-1,-6.447143E-1,-3.021225E-1,9.0591736E-2,-7.3105074E-2,-3.3886384E-2,2.234029E-2,-7.8279114E-1,-9.5662385E-2,1.7274475E-3],"categories":[],"categories_nodes":[],"categories_segments":[],"categories_sizes":[],"default_left":[0,0,0,0,0,0,0,0,0,0,0,0,0],"id":49,"left_children":[1,3,-1,5,7,9,-1,-1,-1,-1,11,-1,-1],"loss_changes":[4.60381E1,3.691923E0,0E0,3.794903E0,3.8651943E-1,1.6158437E0,0E0,0E0,0E0,0E0,1.0224252E0,0E0,0E0],"parents":[2147483647,0,0,1,1,3,3,4,4,5,5,10,10],"right_children":[2,4,-1,6,8,10,-1,-1,-1,-1,12,-1,-1],"split_conditions":[1.5779463E0,5.938433E-1,3.1008992E-1,3.593303E-1,1.2302632E-1,-1.4174771E0,9.0591736E-2,-7.3105074E-2,-3.3886384E-2,2.234029E-2,0E0,-9.5662385E-2,1.7274475E-3],"split_indices":[3,4,0,5,3,3,0,0,0,0,0,0,0],"split_type":[0,0,0,0,0,0,0,0,0,0,0,0,0],"sum_hessian":[2E1,1.8E1,2E0,6E0,1.2E1,4E0,2E0,4E0,8E0,2E0,2E0,1E0,1E0],"tree_param":{"num_deleted":"0","num_feature":"12","num_nodes":"13","size_leaf_vector":"1"}},{"base_weights":[4.380479E-1,-1.6656494E-1,3.5027533E0,1.9511382E-1,-4.1878548E-1,6.0140837E-2,3.3353314E-1,-6.3638544E-1,1.4862457E-1,-9.364542E-1,-3.3302143E-1,6.5112305E-3,-8.590869E-2,1.6583252E-3,-2.9637551E-2],"categories":[],"categories_nodes":[],"categories_segments":[],"categories_sizes":[],"default_left":[0,0,0,0,0,0,0,0,0,0,0,0,0,0,0],"id":50,"left_children":[1,3,5,-1,7,-1,-1,9,-1,11,13,-1,-1,-1,-1],"loss_changes":[4.505448E1,1.4821693E1,4.1989517E0,0E0,1.1090012E1,0E0,0E0,1.4177122E0,0E0,1.3461084E0,1.5339911E-1,0E0,0E0,0E0,0E0],"parents":[2147483647,0,0,1,1,2,2,4,4,7,7,9,9,10,10],"right_children":[2,4,6,-1,8,-1,-1,10,-1,12,14,-1,-1,-1,-1],"split_conditions":[1.7888544E0,-8.944272E-1,1.0644451E0,1.9511382E-1,1.7491133E0,6.0140837E-2,3.3353314E-1,1.2302632E-1,1.4862457E-1,-1.4174771E0,5.938433E-1,6.5112305E-3,-8.590869E-2,1.6583252E-3,-2.9637551E-2],"split_indices":[0,0,3,0,3,0,0,3,0,3,4,0,0,0,0],"split_type":[0,0,0,0,0,0,0,0,0,0,0,0,0,0,0],"sum_hessian":[2.3E1,2E1,3E0,1E0,1.9E1,1E0,2E0,1.8E1,1E0,8E0,1E1,1E0,7E0,1E0,9E0],"tree_param":{"num_deleted":"0","num_feature":"12","num_nodes":"15","size_leaf_vector":"1"}},{"base_weights":[6.074725E-1,6.1692245E-2,3.3209505E0,7.772217E-1,-5.397233E-1,5.7735138E-2,3.157446E-1,1.7059733E0,3.317871E-1,-6.073467E-2,-2.1960905E-2,1.740753E-2,1.8730927E-1,-1.3038418E-1,1.4267944E-1,6.250763E-3,-1.4252777E-2],"categories":[],"categories_nodes":[],"categories_segments":[],"categories_sizes":[],"default_left":[0,0,0,0,0,0,0,0,0,0,0,0,0,0,0,0,0],"id":51,"left_children":[1,3,5,7,9,-1,-1,11,13,-1,-1,-1,-1,15,-1,-1,-1],"loss_changes":[3.5338226E1,9.456426E0,3.658699E0,3.570961E0,4.9003696E-1,0E0,0E0,2.3276472E0,5.6000338E0,0E0,0E0,0E0,0E0,8.365508E-2,0E0,0E0,0E0],"parents":[2147483647,0,0,1,1,2,2,3,3,4,4,7,7,8,8,13,13],"right_children":[2,4,6,8,10,-1,-1,12,14,-1,-1,-1,-1,16,-1,-1,-1],"split_conditions":[1.7888544E0,1E0,1.0644451E0,-8.944272E-1,1.2302632E-1,5.7735138E-2,3.157446E-1,-1.4174771E0,1.7491133E0,-6.073467E-2,-2.1960905E-2,1.740753E-2,1.8730927E-1,-1.4174771E0,1.4267944E-1,6.250763E-3,-1.4252777E-2],"split_indices":[0,11,3,0,3,0,0,3,3,0,0,0,0,3,0,0,0],"split_type":[0,0,0,0,0,0,0,0,0,0,0,0,0,0,0,0,0],"sum_hessian":[2.3E1,2E1,3E0,9E0,1.1E1,1E0,2E0,2E0,7E0,5E0,6E0,1E0,1E0,6E0,1E0,1E0,5E0],"tree_param":{"num_deleted":"0","num_feature":"12","num_nodes":"17","size_leaf_vector":"1"}},{"base_weights":[2.9537338E-1,-2.6347885E-1,2.9890501E-1,1.6377348E0,-5.8348835E-1,1.6711272E-2,1.7981689E-1,-9.5612866E-1,-3.4854418E-1,6.000671E-3,-9.418862E-2,-2.954804E-2,-4.7869873E-3],"categories":[],"categories_nodes":[],"categories_segments":[],"categories_sizes":[],"default_left":[0,0,0,0,0,0,0,0,0,0,0,0,0],"id":52,"left_children":[1,3,-1,5,7,-1,-1,9,11,-1,-1,-1,-1],"loss_changes":[4.1366947E1,1.2515321E1,0E0,2.1451569E0,1.1550913E0,0E0,0E0,1.4570165E0,4.998207E-2,0E0,0E0,0E0,0E0],"parents":[2147483647,0,0,1,1,3,3,4,4,7,7,8,8],"right_children":[2,4,-1,6,8,-1,-1,10,12,-1,-1,-1,-1],"split_conditions":[1.6229094E0,-1.021055E0,2.9890501E-1,-1.4174771E0,-4.8140734E-2,1.6711272E-2,1.7981689E-1,-1.4174771E0,1.5779463E0,6.000671E-3,-9.418862E-2,-2.954804E-2,-4.7869873E-3],"split_indices":[5,1,0,3,3,0,0,3,3,0,0,0,0],"split_type":[0,0,0,0,0,0,0,0,0,0,0,0,0],"sum_hessian":[2E1,1.8E1,2E0,2E0,1.6E1,1E0,1E0,5E0,1.1E1,1E0,4E0,1E1,1E0],"tree_param":{"num_deleted":"0","num_feature":"12","num_nodes":"13","size_leaf_vector":"1"}},{"base_weights":[4.9372745E-1,-9.2008285E-2,2.6062644E-1,1.572225E0,-4.6898454E-1,1.6042786E-2,1.726242E-1,-6.315295E-1,-8.2606696E-2,5.7606506E-3,-7.284727E-1,2.6599646E-2,-2.0777281E-2,-8.5627876E-2,-3.4889817E-2,6.079864E-4,3.3439635E-3],"categories":[],"categories_nodes":[],"categories_segments":[],"categories_sizes":[],"default_left":[0,0,0,0,0,0,0,0,0,0,0,0,0,0,0,0,0],"id":53,"left_children":[1,3,-1,5,7,-1,-1,9,11,-1,13,15,-1,-1,-1,-1,-1],"loss_changes":[2.7823324E1,1.0147996E1,0E0,1.9769788E0,7.642803E-1,0E0,0E0,6.6628504E-1,1.03615664E-1,0E0,3.327756E-1,8.3751185E-4,0E0,0E0,0E0,0E0,0E0],"parents":[2147483647,0,0,1,1,3,3,4,4,7,7,8,8,10,10,11,11],"right_children":[2,4,-1,6,8,-1,-1,10,12,-1,14,16,-1,-1,-1,-1,-1],"split_conditions":[1.5779463E0,-8.944272E-1,2.6062644E-1,-1.4174771E0,3.797769E-1,1.6042786E-2,1.726242E-1,-1.4174771E0,1.3211957E0,5.7606506E-3,-4.8140734E-2,8.944272E-1,-2.0777281E-2,-8.5627876E-2,-3.4889817E-2,6.079864E-4,3.3439635E-3],"split_indices":[3,0,0,3,3,0,0,3,3,0,3,0,0,0,0,0,0],"split_type":[0,0,0,0,0,0,0,0,0,0,0,0,0,0,0,0,0],"sum_hessian":[1.6E1,1.4E1,2E0,2E0,1.2E1,1E0,1E0,8E0,4E0,1E0,7E0,3E0,1E0,2E0,5E0,2E0,1E0],"tree_param":{"num_deleted":"0","num_feature":"12","num_nodes":"17","size_leaf_vector":"1"}},{"base_weights":[9.570551E-2,1.2136164E0,-5.06894E-1,7.744893E-1,1.7150024E-1,-6.3031994E-2,-2.9678732E-2,1.657193E-1,2.1307373E-1,3.9009858E-2,4.3335725E-2,5.530243E-3,1.1358642E-3],"categories":[],"categories_nodes":[],"categories_segments":[],"categories_sizes":[],"default_left":[0,0,0,0,0,0,0,0,0,0,0,0,0],"id":54,"left_children":[1,3,5,7,-1,-1,-1,-1,9,11,-1,-1,-1],"loss_changes":[1.5435531E1,1.6072721E0,2.8057337E-1,4.6557198E0,0E0,0E0,0E0,0E0,3.2207665E-1,2.7548932E-3,0E0,0E0,0E0],"parents":[2147483647,0,0,1,1,2,2,3,3,8,8,9,9],"right_children":[2,4,6,8,-1,-1,-1,-1,10,12,-1,-1,-1],"split_conditions":[5.938433E-1,1.3211957E0,-4.8140734E-2,-8.944272E-1,1.7150024E-1,-6.3031994E-2,-2.9678732E-2,1.657193E-1,1.7888544E0,-1.4174771E0,4.3335725E-2,5.530243E-3,1.1358642E-3],"split_indices":[4,3,3,0,0,0,0,0,0,3,0,0,0],"split_type":[0,0,0,0,0,0,0,0,0,0,0,0,0],"sum_hessian":[2.1E1,7E0,1.4E1,6E0,1E0,3E0,1.1E1,1E0,5E0,4E0,1E0,1E0,3E0],"tree_param":{"num_deleted":"0","num_feature":"12","num_nodes":"13","size_leaf_vector":"1"}},{"base_weights":[9.407255E-2,-2.92892E-1,2.3845024E0,6.75691E-2,-4.3672854E-1,4.1602325E-2,2.4453796E-1,9.387512E-3,1.3345718E-2,-5.9250068E-2,-2.1719739E-2,-6.8623864E-4,3.1646728E-3],"categories":[],"categories_nodes":[],"categories_segments":[],"categories_sizes":[],"default_left":[0,0,0,0,0,0,0,0,0,0,0,0,0],"id":55,"left_children":[1,3,5,7,9,-1,-1,-1,11,-1,-1,-1,-1],"loss_changes":[1.8424706E1,9.62764E-1,2.1704369E0,1.462771E-2,4.5169783E-1,0E0,0E0,0E0,2.638048E-3,0E0,0E0,0E0,0E0],"parents":[2147483647,0,0,1,1,2,2,3,3,4,4,8,8],"right_children":[2,4,6,8,10,-1,-1,-1,12,-1,-1,-1,-1],"split_conditions":[2.6457512E0,5.938433E-1,1.0644451E0,-1.4174771E0,-4.8140734E-2,4.1602325E-2,2.4453796E-1,9.387512E-3,-4.3759498E-1,-5.9250068E-2,-2.1719739E-2,-6.8623864E-4,3.1646728E-3],"split_indices":[10,4,3,3,3,0,0,0,1,0,0,0,0],"split_type":[0,0,0,0,0,0,0,0,0,0,0,0,0],"sum_hessian":[1.9E1,1.7E1,2E0,5E0,1.2E1,1E0,1E0,2E0,3E0,3E0,9E0,2E0,1E0],"tree_param":{"num_deleted":"0","num_feature":"12","num_nodes":"13","size_leaf_vector":"1"}},{"base_weights":[4.5889702E-1,1.1592272E-1,1.8910217E-1,1.2169462E0,-4.0115914E-1,8.886821E-3,1.7421055E0,-3.527346E-2,3.0380248E-3,1.5919901E-1,3.9938353E-2],"categories":[],"categories_nodes":[],"categories_segments":[],"categories_sizes":[],"default_left":[0,0,0,0,0,0,0,0,0,0,0],"id":56,"left_children":[1,3,-1,5,7,-1,9,-1,-1,-1,-1],"loss_changes":[1.2792484E1,1.0735937E1,0E0,3.2909956E0,2.4371886E-1,0E0,2.3888779E-1,0E0,0E0,0E0,0E0],"parents":[2147483647,0,0,1,1,3,3,4,4,6,6],"right_children":[2,4,-1,6,8,-1,10,-1,-1,-1,-1],"split_conditions":[1.3211957E0,-1.3146149E-1,1.8910217E-1,-1.4174771E0,8.9327806E-1,8.886821E-3,-4.3759498E-1,-3.527346E-2,3.0380248E-3,1.5919901E-1,3.9938353E-2],"split_indices":[3,4,0,3,3,0,1,0,0,0,0],"split_type":[0,0,0,0,0,0,0,0,0,0,0],"sum_hessian":[1.9E1,1.7E1,2E0,5E0,1.2E1,2E0,3E0,1.1E1,1E0,2E0,1E0],"tree_param":{"num_deleted":"0","num_feature":"12","num_nodes":"11","size_leaf_vector":"1"}},{"base_weights":[3.607068E-1,-1.255339E-1,2.5801735E0,1.3399277E0,-3.7676042E-1,3.834076E-2,2.4965799E-1,8.041229E-3,1.5275009E-1,-3.1079102E-2,-4.807332E-1,4.5779417E-3,-6.7461014E-2,-5.3578656E-2,-3.5705987E-1,-9.140218E-3,2.916565E-3,-3.4574542E-2,-1.0906522E-2],"categories":[],"categories_nodes":[],"categories_segments":[],"categories_sizes":[],"default_left":[0,0,0,0,0,0,0,0,0,0,0,0,0,0,0,0,0,0,0],"id":57,"left_children":[1,3,5,7,9,-1,-1,-1,-1,11,13,-1,15,-1,17,-1,-1,-1,-1],"loss_changes":[2.4066189E1,7.4999247E0,3.0469723E0,1.9254222E0,5.960641E-1,0E0,0E0,0E0,0E0,1.9923635E-2,6.473017E-2,0E0,2.3615336E-2,0E0,1.0689533E-1,0E0,0E0,0E0,0E0],"parents":[2147483647,0,0,1,1,2,2,3,3,4,4,9,9,10,10,12,12,14,14],"right_children":[2,4,6,8,10,-1,-1,-1,-1,12,14,-1,16,-1,18,-1,-1,-1,-1],"split_conditions":[1.7888544E0,-8.944272E-1,1.0644451E0,-1.4174771E0,5.938433E-1,3.834076E-2,2.4965799E-1,8.041229E-3,1.5275009E-1,-1.4174771E0,-4.8140734E-2,4.5779417E-3,0E0,-5.3578656E-2,7.2932494E-1,-9.140218E-3,2.916565E-3,-3.4574542E-2,-1.0906522E-2],"split_indices":[0,0,3,3,4,0,0,0,0,3,3,0,0,0,1,0,0,0,0],"split_type":[0,0,0,0,0,0,0,0,0,0,0,0,0,0,0,0,0,0,0],"sum_hessian":[2.1E1,1.8E1,3E0,2E0,1.6E1,1E0,2E0,1E0,1E0,4E0,1.2E1,1E0,3E0,3E0,9E0,2E0,1E0,6E0,3E0],"tree_param":{"num_deleted":"0","num_feature":"12","num_nodes":"19","size_leaf_vector":"1"}},{"base_weights":[4.20653E-1,-5.401197E-3,2.4457607E0,1.1621628E0,-3.6992738E-1,3.680725E-2,2.3634298E-1,8.076274E-3,1.4687876E-1,-5.036394E-2,-2.6158777E-1,2.799835E-3,-2.8921974E-1,-2.6293602E-2,-1.0252127E-2],"categories":[],"categories_nodes":[],"categories_segments":[],"categories_sizes":[],"default_left":[0,0,0,0,0,0,0,0,0,0,0,0,0,0,0],"id":58,"left_children":[1,3,5,7,9,-1,-1,-1,-1,-1,11,-1,13,-1,-1],"loss_changes":[1.985774E1,8.942068E0,2.679823E0,3.3899808E0,2.8535485E-1,0E0,0E0,0E0,0E0,0E0,1.16660416E-1,0E0,3.4130573E-2,0E0,0E0],"parents":[2147483647,0,0,1,1,2,2,3,3,4,4,10,10,12,12],"right_children":[2,4,6,8,10,-1,-1,-1,-1,-1,12,-1,14,-1,-1],"split_conditions":[1.7888544E0,0E0,1.0644451E0,-1.4174771E0,-4.8140734E-2,3.680725E-2,2.3634298E-1,8.076274E-3,1.4687876E-1,-5.036394E-2,5.938433E-1,2.799835E-3,7.2932494E-1,-2.6293602E-2,-1.0252127E-2],"split_indices":[0,0,3,3,3,0,0,0,0,0,4,0,1,0,0],"split_type":[0,0,0,0,0,0,0,0,0,0,0,0,0,0,0],"sum_hessian":[2.2E1,1.9E1,3E0,4E0,1.5E1,1E0,2E0,2E0,2E0,3E0,1.2E1,1E0,1.1E1,8E0,3E0],"tree_param":{"num_deleted":"0","num_feature":"12","num_nodes":"15","size_leaf_vector":"1"}},{"base_weights":[6.7512023E-1,1.8236266E0,-4.2604753E-1,4.071808E-3,2.0388556E0,-4.7342103E-2,-2.1638514E-2,1.3201116E0,2.23738E-1,1.3355896E-1,4.142405E-1,6.780304E-2,-1.8094176E-2],"categories":[],"categories_nodes":[],"categories_segments":[],"categories_sizes":[],"default_left":[0,0,0,0,0,0,0,0,0,0,0,0,0],"id":59,"left_children":[1,3,5,-1,7,-1,-1,9,-1,-1,11,-1,-1],"loss_changes":[2.3541517E1,3.3301105E0,9.775317E-2,0E0,6.657257E-1,0E0,0E0,1.207365E0,0E0,0E0,1.024168E0,0E0,0E0],"parents":[2147483647,0,0,1,1,2,2,4,4,7,7,10,10],"right_children":[2,4,6,-1,8,-1,-1,10,-1,-1,12,-1,-1],"split_conditions":[1E0,-1.2165242E0,5.8170598E-2,4.071808E-3,1.7888544E0,-4.7342103E-2,-2.1638514E-2,-6.5153295E-1,2.23738E-1,1.3355896E-1,0E0,6.780304E-2,-1.8094176E-2],"split_indices":[11,7,7,0,0,0,0,5,0,0,0,0,0],"split_type":[0,0,0,0,0,0,0,0,0,0,0,0,0],"sum_hessian":[1.7E1,8E0,9E0,1E0,7E0,3E0,6E0,5E0,2E0,3E0,2E0,1E0,1E0],"tree_param":{"num_deleted":"0","num_feature":"12","num_nodes":"13","size_leaf_vector":"1"}},{"base_weights":[3.8778096E-1,1.2161529E0,-2.7925757E-1,6.9552326E-1,1.7592916E-1,-3.2706317E-2,-1.17737455E-2,1.2916222E0,-2.2348118E-1,7.233734E-3,1.2554535E-1,3.9089965E-3,-2.6443988E-2],"categories":[],"categories_nodes":[],"categories_segments":[],"categories_sizes":[],"default_left":[0,0,0,0,0,0,0,0,0,0,0,0,0],"id":60,"left_children":[1,3,5,7,-1,-1,-1,9,11,-1,-1,-1,-1],"loss_changes":[1.2495853E1,3.5880537E0,1.6232085E-1,4.671194E0,0E0,0E0,0E0,1.5259342E0,1.3278939E-1,0E0,0E0,0E0,0E0],"parents":[2147483647,0,0,1,1,2,2,3,3,7,7,8,8],"right_children":[2,4,6,8,-1,-1,-1,10,12,-1,-1,-1,-1],"split_conditions":[1E0,3.593303E-1,1.2302632E-1,-6.5153295E-1,1.7592916E-1,-3.2706317E-2,-1.17737455E-2,-1.4174771E0,-4.3759498E-1,7.233734E-3,1.2554535E-1,3.9089965E-3,-2.6443988E-2],"split_indices":[11,5,3,5,0,0,0,3,1,0,0,0,0],"split_type":[0,0,0,0,0,0,0,0,0,0,0,0,0],"sum_hessian":[2.1E1,9E0,1.2E1,7E0,2E0,5E0,7E0,4E0,3E0,1E0,3E0,1E0,2E0],"tree_param":{"num_deleted":"0","num_feature":"12","num_nodes":"13","size_leaf_vector":"1"}},{"base_weights":[4.2356542E-1,4.5573283E-2,2.0186386E0,9.957573E-1,-2.9703337E-1,1.934845E-2,2.0242248E-1,1.256363E-1,7.1313474E-3,-2.0040557E-1,-3.4470584E-2,-1.9381152E-2,-2.1980127E-2,-2.1746063E-3,-4.6300888E-4],"categories":[],"categories_nodes":[],"categories_segments":[],"categories_sizes":[],"default_left":[0,0,0,0,0,0,0,0,0,0,0,0,0,0,0],"id":61,"left_children":[1,3,5,7,9,-1,-1,-1,-1,11,-1,-1,13,-1,-1],"loss_changes":[1.2569431E1,6.1554823E0,3.0243473E0,2.4651499E0,9.47181E-2,0E0,0E0,0E0,0E0,6.9361866E-2,0E0,0E0,9.5400144E-5,0E0,0E0],"parents":[2147483647,0,0,1,1,2,2,3,3,4,4,9,9,12,12],"right_children":[2,4,6,8,10,-1,-1,-1,-1,12,-1,-1,14,-1,-1],"split_conditions":[1.7888544E0,0E0,-1.3146149E-1,1.6660645E0,-2.0170629E-1,1.934845E-2,2.0242248E-1,1.256363E-1,7.1313474E-3,7.2932494E-1,-3.4470584E-2,-1.9381152E-2,-3.414147E-1,-2.1746063E-3,-4.6300888E-4],"split_indices":[0,0,4,6,6,0,0,0,0,1,0,0,6,0,0],"split_type":[0,0,0,0,0,0,0,0,0,0,0,0,0,0,0],"sum_hessian":[2E1,1.7E1,3E0,4E0,1.3E1,1E0,2E0,2E0,2E0,9E0,4E0,7E0,2E0,1E0,1E0],"tree_param":{"num_deleted":"0","num_feature":"12","num_nodes":"15","size_leaf_vector":"1"}},{"base_weights":[4.403274E-1,-5.268245E-2,1.9298935E0,1.1002871E0,-2.9598433E-1,8.211568E-1,1.9162658E-1,6.6592405E-3,1.2537521E-1,-1.07922055E-1,-1.1120993E-1,-1.5537414E-2,1.1407623E-1,4.707972E-1,-2.5982916E-1,3.467407E-3,5.302826E-2,-2.8227862E-2,-9.880412E-3],"categories":[],"categories_nodes":[],"categories_segments":[],"categories_sizes":[],"default_left":[0,0,0,0,0,0,0,0,0,0,0,0,0,0,0,0,0,0,0],"id":62,"left_children":[1,3,5,7,9,11,-1,-1,-1,-1,13,-1,-1,15,17,-1,-1,-1,-1],"loss_changes":[1.4789086E1,4.8139825E0,6.1330223E-1,1.2941325E0,2.574026E0,2.1192286E0,0E0,0E0,0E0,0E0,1.2467937E0,0E0,0E0,2.1755594E-1,9.5909655E-2,0E0,0E0,0E0,0E0],"parents":[2147483647,0,0,1,1,2,2,3,3,4,4,5,5,10,10,13,13,14,14],"right_children":[2,4,6,8,10,12,-1,-1,-1,-1,14,-1,-1,16,18,-1,-1,-1,-1],"split_conditions":[8.944272E-1,-8.944272E-1,1.7888544E0,-1.4174771E0,-6.5153295E-1,1.7491133E0,1.9162658E-1,6.6592405E-3,1.2537521E-1,-1.07922055E-1,0E0,-1.5537414E-2,1.1407623E-1,-1.4174771E0,1.2302632E-1,3.467407E-3,5.302826E-2,-2.8227862E-2,-9.880412E-3],"split_indices":[0,0,0,3,5,3,0,0,0,0,0,0,0,3,3,0,0,0,0],"split_type":[0,0,0,0,0,0,0,0,0,0,0,0,0,0,0,0,0,0,0],"sum_hessian":[1.9E1,1.5E1,4E0,2E0,1.3E1,2E0,2E0,1E0,1E0,1E0,1.2E1,1E0,1E0,2E0,1E1,1E0,1E0,5E0,5E0],"tree_param":{"num_deleted":"0","num_feature":"12","num_nodes":"19","size_leaf_vector":"1"}},{"base_weights":[4.1146725E-1,-6.098372E-2,1.445275E0,1.20360255E-1,-2.971368E-1,4.6722698E-1,1.8140645E-1,-1.0360519E-1,-1.0605406E-1,-2.3171283E-2,1.09513246E-1,4.071579E-1,-2.5789158E-2,3.3287047E-3,4.1211035E-2],"categories":[],"categories_nodes":[],"categories_segments":[],"categories_sizes":[],"default_left":[0,0,0,0,0,0,0,0,0,0,0,0,0,0,0],"id":63,"left_children":[1,3,5,-1,7,9,-1,-1,11,-1,-1,13,-1,-1,-1],"loss_changes":[9.368183E0,5.6227674E0,3.7660513E0,0E0,2.341582E0,3.1263313E0,0E0,0E0,1.4634104E0,0E0,0E0,1.364538E-1,0E0,0E0,0E0],"parents":[2147483647,0,0,1,1,2,2,4,4,5,5,8,8,11,11],"right_children":[2,4,6,-1,8,10,-1,-1,12,-1,-1,14,-1,-1,-1],"split_conditions":[1.0644451E0,-8.944272E-1,1.7888544E0,1.20360255E-1,-6.5153295E-1,1.7491133E0,1.8140645E-1,-1.0360519E-1,-1.3146149E-1,-2.3171283E-2,1.09513246E-1,-1.4174771E0,-2.5789158E-2,3.3287047E-3,4.1211035E-2],"split_indices":[3,0,0,0,5,3,0,0,4,0,0,3,0,0,0],"split_type":[0,0,0,0,0,0,0,0,0,0,0,0,0,0,0],"sum_hessian":[1.8E1,1.3E1,5E0,1E0,1.2E1,3E0,2E0,1E0,1.1E1,2E0,1E0,3E0,8E0,1E0,2E0],"tree_param":{"num_deleted":"0","num_feature":"12","num_nodes":"15","size_leaf_vector":"1"}},{"base_weights":[-1.5294158E-1,-2.9813367E-1,8.175888E-1,-6.1074907E-1,-1.7405295E-1,9.260864E-3,8.884979E-2,1.5783691E-3,-7.733011E-1,4.3711853E-1,-3.0170384E-1,-9.946106E-2,-1.6178079E-2,3.1954956E-3,4.9258728E-2,-3.7229955E-2,-2.0606521E-1,-2.152281E-2,-3.5481262E-3],"categories":[],"categories_nodes":[],"categories_segments":[],"categories_sizes":[],"default_left":[0,0,0,0,0,0,0,0,0,0,0,0,0,0,0,0,0,0,0],"id":64,"left_children":[1,3,5,7,9,-1,-1,-1,11,13,15,-1,-1,-1,-1,-1,17,-1,-1],"loss_changes":[3.2029307E0,6.3069856E-1,4.8841095E-1,5.276849E-1,1.302129E0,0E0,0E0,0E0,8.221147E-1,1.8823016E-1,1.0759449E-1,0E0,0E0,0E0,0E0,0E0,8.9898765E-2,0E0,0E0],"parents":[2147483647,0,0,1,1,2,2,3,3,4,4,8,8,9,9,10,10,16,16],"right_children":[2,4,6,8,10,-1,-1,-1,12,14,16,-1,-1,-1,-1,-1,18,-1,-1],"split_conditions":[1.7888544E0,-2.7245924E-1,1.0644451E0,-8.944272E-1,0E0,9.260864E-3,8.884979E-2,1.5783691E-3,0E0,-1.4174771E0,-4.8140734E-2,-9.946106E-2,-1.6178079E-2,3.1954956E-3,4.9258728E-2,-3.7229955E-2,7.2932494E-1,-2.152281E-2,-3.5481262E-3],"split_indices":[0,5,3,0,0,0,0,0,0,3,3,0,0,0,0,0,1,0,0],"split_type":[0,0,0,0,0,0,0,0,0,0,0,0,0,0,0,0,0,0,0],"sum_hessian":[2E1,1.8E1,2E0,4E0,1.4E1,1E0,1E0,1E0,3E0,2E0,1.2E1,1E0,2E0,1E0,1E0,3E0,9E0,6E0,3E0],"tree_param":{"num_deleted":"0","num_feature":"12","num_nodes":"19","size_leaf_vector":"1"}},{"base_weights":[1.4315613E-1,-5.780469E-2,8.897369E-2,9.7498196E-1,-2.2672442E-1,1.5151977E-3,1.15482636E-1,-4.1113913E-1,-1.0025547E-1,3.0676269E-3,-3.9395526E-2,-1.2957501E-1,8.890381E-3,-1.1420103E-2,-3.7483596E-3],"categories":[],"categories_nodes":[],"categories_segments":[],"categories_sizes":[],"default_left":[0,0,0,0,0,0,0,0,0,0,0,0,0,0,0],"id":65,"left_children":[1,3,-1,5,7,-1,-1,9,11,-1,-1,13,-1,-1,-1],"loss_changes":[4.5431724E0,3.7102132E0,0E0,1.3165231E0,3.785903E-1,0E0,0E0,2.7470028E-1,8.877226E-2,0E0,0E0,5.3009093E-3,0E0,0E0,0E0],"parents":[2147483647,0,0,1,1,3,3,4,4,7,7,8,8,11,11],"right_children":[2,4,-1,6,8,-1,-1,10,12,-1,-1,14,-1,-1,-1],"split_conditions":[1.3211957E0,-8.944272E-1,8.897369E-2,-1.4174771E0,-4.8140734E-2,1.5151977E-3,1.15482636E-1,-1.4174771E0,1.7888544E0,3.0676269E-3,-3.9395526E-2,3.5042867E-1,8.890381E-3,-1.1420103E-2,-3.7483596E-3],"split_indices":[3,0,0,3,3,0,0,3,0,0,0,7,0,0,0],"split_type":[0,0,0,0,0,0,0,0,0,0,0,0,0,0,0],"sum_hessian":[2.2E1,1.9E1,3E0,2E0,1.7E1,1E0,1E0,6E0,1.1E1,1E0,5E0,1E1,1E0,8E0,2E0],"tree_param":{"num_deleted":"0","num_feature":"12","num_nodes":"15","size_leaf_vector":"1"}},{"base_weights":[1.0622919E-1,-3.1237933E-1,1.5448017E0,-7.142401E-1,-1.3785002E-1,7.1278125E-1,1.6163452E-1,1.4546203E-3,-9.6444196E-1,7.653198E-3,-2.0037168E-1,-1.6687011E-2,1.0222076E-1,-9.390686E-2,-2.1826172E-2,-2.6517708E-2,-1.1556159E-1,-1.0662756E-2,-3.689766E-4],"categories":[],"categories_nodes":[],"categories_segments":[],"categories_sizes":[],"default_left":[0,0,0,0,0,0,0,0,0,0,0,0,0,0,0,0,0,0,0],"id":66,"left_children":[1,3,5,7,9,11,-1,-1,13,-1,15,-1,-1,-1,-1,-1,17,-1,-1],"loss_changes":[1.0719942E1,8.8345265E-1,1.4280796E-1,7.5055027E-1,1.7976575E-1,1.8281851E0,0E0,0E0,1.1420536E-1,0E0,6.1761826E-2,0E0,0E0,0E0,0E0,0E0,1.3149641E-2,0E0,0E0],"parents":[2147483647,0,0,1,1,2,2,3,3,4,4,5,5,8,8,10,10,16,16],"right_children":[2,4,6,8,10,12,-1,-1,14,-1,16,-1,-1,-1,-1,-1,18,-1,-1],"split_conditions":[1.5779463E0,-2.7245924E-1,1.7888544E0,-8.944272E-1,-1.3146149E-1,1.7491133E0,1.6163452E-1,1.4546203E-3,0E0,7.653198E-3,-4.8140734E-2,-1.6687011E-2,1.0222076E-1,-9.390686E-2,-2.1826172E-2,-2.6517708E-2,3.797769E-1,-1.0662756E-2,-3.689766E-4],"split_indices":[3,5,0,0,4,3,0,0,0,0,3,0,0,0,0,0,3,0,0],"split_type":[0,0,0,0,0,0,0,0,0,0,0,0,0,0,0,0,0,0,0],"sum_hessian":[1.6E1,1.3E1,3E0,3E0,1E1,2E0,1E0,1E0,2E0,2E0,8E0,1E0,1E0,1E0,1E0,2E0,6E0,5E0,1E0],"tree_param":{"num_deleted":"0","num_feature":"12","num_nodes":"19","size_leaf_vector":"1"}},{"base_weights":[2.78046E-1,2.592254E-2,1.5321827E0,9.8132014E-2,-9.5446356E-2,1.5794697E-1,8.228759E-3,9.3501407E-1,-2.618872E-1,1.3964843E-3,1.10805206E-1,-7.1549606E-1,-1.2346568E-1,-9.01506E-2,-1.6219176E-2,3.4131266E-2,-1.9273277E-2],"categories":[],"categories_nodes":[],"categories_segments":[],"categories_sizes":[],"default_left":[0,0,0,0,0,0,0,0,0,0,0,0,0,0,0,0,0],"id":67,"left_children":[1,3,5,-1,7,-1,-1,9,11,-1,-1,13,15,-1,-1,-1,-1],"loss_changes":[7.5490165E0,3.1774304E0,2.3248482E0,0E0,3.675082E0,0E0,0E0,1.2146659E0,1.0418669E0,0E0,0E0,6.153002E-1,1.0719371E0,0E0,0E0,0E0,0E0],"parents":[2147483647,0,0,1,1,2,2,4,4,7,7,8,8,11,11,12,12],"right_children":[2,4,6,-1,8,-1,-1,10,12,-1,-1,14,16,-1,-1,-1,-1],"split_conditions":[1.7888544E0,-1.1834885E0,-9.414023E-1,9.8132014E-2,-8.944272E-1,1.5794697E-1,8.228759E-3,-1.915112E0,-2.7245924E-1,1.3964843E-3,1.10805206E-1,0E0,0E0,-9.01506E-2,-1.6219176E-2,3.4131266E-2,-1.9273277E-2],"split_indices":[0,6,6,0,0,0,0,5,5,0,0,0,0,0,0,0,0],"split_type":[0,0,0,0,0,0,0,0,0,0,0,0,0,0,0,0,0],"sum_hessian":[2.3E1,2E1,3E0,1E0,1.9E1,2E0,1E0,2E0,1.7E1,1E0,1E0,3E0,1.4E1,1E0,2E0,2E0,1.2E1],"tree_param":{"num_deleted":"0","num_feature":"12","num_nodes":"17","size_leaf_vector":"1"}},{"base_weights":[2.4820034E-1,7.2474736E-3,1.4511528E0,1.0637298E-1,-1.2535639E-1,7.899475E-3,1.4952332E-1,-2.5591046E-1,9.420685E-2,-6.848488E-1,-1.3268149E-1,-8.654465E-2,-1.5354105E-2,3.2310992E-2,-1.9054662E-2],"categories":[],"categories_nodes":[],"categories_segments":[],"categories_sizes":[],"default_left":[0,0,0,0,0,0,0,0,0,0,0,0,0,0,0],"id":68,"left_children":[1,3,5,-1,7,-1,-1,9,-1,11,13,-1,-1,-1,-1],"loss_changes":[6.9459996E0,3.8491855E0,2.0760708E0,0E0,3.7034442E0,0E0,0E0,9.134283E-1,0E0,5.750532E-1,1.0019431E0,0E0,0E0,0E0,0E0],"parents":[2147483647,0,0,1,1,2,2,4,4,7,7,9,9,10,10],"right_children":[2,4,6,-1,8,-1,-1,10,-1,12,14,-1,-1,-1,-1],"split_conditions":[1.6229094E0,-1.021055E0,1.0644451E0,1.0637298E-1,1.7491133E0,7.899475E-3,1.4952332E-1,-2.7245924E-1,9.420685E-2,-4.3759498E-1,-4.3759498E-1,-8.654465E-2,-1.5354105E-2,3.2310992E-2,-1.9054662E-2],"split_indices":[5,1,3,0,3,0,0,5,0,1,1,0,0,0,0],"split_type":[0,0,0,0,0,0,0,0,0,0,0,0,0,0,0],"sum_hessian":[2.3E1,2E1,3E0,1E0,1.9E1,1E0,2E0,1.8E1,1E0,3E0,1.5E1,1E0,2E0,2E0,1.3E1],"tree_param":{"num_deleted":"0","num_feature":"12","num_nodes":"15","size_leaf_vector":"1"}},{"base_weights":[3.1185016E-1,9.37648E-1,8.246086E-2,-2.914276E-3,9.522194E-2,6.1459047E-1,-1.6691267E-1,-1.876831E-5,6.146843E-2,-9.01463E-2,-2.7325938E-2,6.1564785E-3,-2.278432E-2,1.4576974E-2,-8.056659E-3],"categories":[],"categories_nodes":[],"categories_segments":[],"categories_sizes":[],"default_left":[0,0,0,0,0,0,0,0,0,0,0,0,0,0,0],"id":69,"left_children":[1,3,5,-1,-1,7,9,-1,-1,11,-1,13,-1,-1,-1],"loss_changes":[2.650156E0,1.2737465E0,2.0930686E0,0E0,0E0,4.7287273E-1,1.1669779E-1,0E0,0E0,1.7046812E-1,0E0,1.500493E-1,0E0,0E0,0E0],"parents":[2147483647,0,0,1,1,2,2,5,5,6,6,9,9,11,11],"right_children":[2,4,6,-1,-1,8,10,-1,-1,12,-1,14,-1,-1,-1],"split_conditions":[-6.5153295E-1,-1.915112E0,5.938433E-1,-2.914276E-3,9.522194E-2,3.593303E-1,-4.938743E-2,-1.876831E-5,6.146843E-2,8.944272E-1,-2.7325938E-2,-3.414147E-1,-2.278432E-2,1.4576974E-2,-8.056659E-3],"split_indices":[5,5,4,0,0,5,6,0,0,0,0,6,0,0,0],"split_type":[0,0,0,0,0,0,0,0,0,0,0,0,0,0,0],"sum_hessian":[1.8E1,4E0,1.4E1,1E0,3E0,4E0,1E1,1E0,3E0,8E0,2E0,6E0,2E0,2E0,4E0],"tree_param":{"num_deleted":"0","num_feature":"12","num_nodes":"15","size_leaf_vector":"1"}},{"base_weights":[2.0266718E-1,-6.4716406E-2,1.3552265E0,7.9592896E-1,-2.2204264E-1,6.0878754E-1,1.4378174E-1,-2.7976988E-3,9.8309174E-2,-8.6891785E-2,-9.202584E-2,-1.3575134E-2,8.662964E-2,3.034277E-1,-2.1617487E-1,-1.800537E-5,3.2377623E-2,-2.7102122E-2,-1.1013265E-2],"categories":[],"categories_nodes":[],"categories_segments":[],"categories_sizes":[],"default_left":[0,0,0,0,0,0,0,0,0,0,0,0,0,0,0,0,0,0,0],"id":70,"left_children":[1,3,5,7,9,11,-1,-1,-1,-1,13,-1,-1,15,17,-1,-1,-1,-1],"loss_changes":[6.55939E0,2.6139677E0,2.2568274E-1,1.1221539E0,1.6976163E0,1.290939E0,0E0,0E0,0E0,0E0,8.02021E-1,0E0,0E0,1.23122215E-1,6.886613E-2,0E0,0E0,0E0,0E0],"parents":[2147483647,0,0,1,1,2,2,3,3,4,4,5,5,10,10,13,13,14,14],"right_children":[2,4,6,8,10,12,-1,-1,-1,-1,14,-1,-1,16,18,-1,-1,-1,-1],"split_conditions":[1.5779463E0,-8.944272E-1,1.7888544E0,-1.4174771E0,-6.5153295E-1,1.7491133E0,1.4378174E-1,-2.7976988E-3,9.8309174E-2,-8.6891785E-2,3.0446953E-1,-1.3575134E-2,8.662964E-2,-1.4174771E0,-4.8140734E-2,-1.800537E-5,3.2377623E-2,-2.7102122E-2,-1.1013265E-2],"split_indices":[3,0,0,3,5,3,0,0,0,0,8,0,0,3,3,0,0,0,0],"split_type":[0,0,0,0,0,0,0,0,0,0,0,0,0,0,0,0,0,0,0],"sum_hessian":[2E1,1.7E1,3E0,2E0,1.5E1,2E0,1E0,1E0,1E0,1E0,1.4E1,1E0,1E0,3E0,1.1E1,1E0,2E0,3E0,8E0],"tree_param":{"num_deleted":"0","num_feature":"12","num_nodes":"19","size_leaf_vector":"1"}},{"base_weights":[2.677167E-1,-1.5221781E-2,1.0719128E0,7.640915E-1,-1.6039166E-1,3.2371235E-1,1.3697672E-1,-2.6858519E-3,9.437683E-2,-7.155177E-1,-2.9979536E-2,-2.0913593E-2,8.3164364E-2,-8.3416134E-2,-2.445984E-3,2.872429E-1,-1.4260773E-1,-1.7242432E-5,3.0650737E-2,-2.4423106E-2,-5.8028316E-3],"categories":[],"categories_nodes":[],"categories_segments":[],"categories_sizes":[],"default_left":[0,0,0,0,0,0,0,0,0,0,0,0,0,0,0,0,0,0,0,0,0],"id":71,"left_children":[1,3,5,7,9,11,-1,-1,-1,13,15,-1,-1,-1,-1,17,19,-1,-1,-1,-1],"loss_changes":[5.249691E0,2.1589444E0,2.320157E0,1.03418E0,1.1368717E0,1.9472101E0,0E0,0E0,0E0,6.4042675E-1,5.4115766E-1,0E0,0E0,0E0,0E0,1.1034164E-1,1.03249654E-1,0E0,0E0,0E0,0E0],"parents":[2147483647,0,0,1,1,2,2,3,3,4,4,5,5,9,9,10,10,15,15,16,16],"right_children":[2,4,6,8,10,12,-1,-1,-1,14,16,-1,-1,-1,-1,18,20,-1,-1,-1,-1],"split_conditions":[1.3211957E0,-1.021055E0,7.2932494E-1,-1.4174771E0,-6.5153295E-1,1.7491133E0,1.3697672E-1,-2.6858519E-3,9.437683E-2,-4.3759498E-1,-1.3146149E-1,-2.0913593E-2,8.3164364E-2,-8.3416134E-2,-2.445984E-3,-1.4174771E0,-4.8140734E-2,-1.7242432E-5,3.0650737E-2,-2.4423106E-2,-5.8028316E-3],"split_indices":[3,1,1,3,5,3,0,0,0,1,4,0,0,0,0,3,3,0,0,0,0],"split_type":[0,0,0,0,0,0,0,0,0,0,0,0,0,0,0,0,0,0,0,0,0],"sum_hessian":[2.2E1,1.7E1,5E0,2E0,1.5E1,3E0,2E0,1E0,1E0,2E0,1.3E1,2E0,1E0,1E0,1E0,3E0,1E1,1E0,2E0,2E0,8E0],"tree_param":{"num_deleted":"0","num_feature":"12","num_nodes":"21","size_leaf_vector":"1"}},{"base_weights":[2.1292941E-1,1.0193628E0,-8.421938E-2,3.1337643E-1,1.2967122E-1,7.3352814E-1,-2.4215426E-1,-1.9798279E-2,7.983764E-2,-2.57843E-3,9.06018E-2,-6.935401E-2,-5.7388395E-1,-2.488984E-2,-1.7962854E-1,-8.0079496E-2,-2.1685806E-1,-2.8910255E-3,2.6037598E-3,-2.2823887E-2,1.2684631E-3,-1.6479491E-5,-2.312054E-2],"categories":[],"categories_nodes":[],"categories_segments":[],"categories_sizes":[],"default_left":[0,0,0,0,0,0,0,0,0,0,0,0,0,0,0,0,0,0,0,0,0,0,0],"id":72,"left_children":[1,3,5,7,-1,9,11,-1,-1,-1,-1,13,15,17,19,-1,21,-1,-1,-1,-1,-1,-1],"loss_changes":[5.357725E0,2.040073E0,2.3731914E0,1.7828081E0,0E0,9.531019E-1,8.200433E-1,0E0,0E0,0E0,0E0,4.9464993E-2,5.453726E-1,6.990612E-3,6.649415E-2,0E0,6.246513E-2,0E0,0E0,0E0,0E0,0E0,0E0],"parents":[2147483647,0,0,1,1,2,2,3,3,5,5,6,6,11,11,12,12,13,13,14,14,16,16],"right_children":[2,4,6,8,-1,10,12,-1,-1,-1,-1,14,16,18,20,-1,22,-1,-1,-1,-1,-1,-1],"split_conditions":[-9.414023E-1,1.7888544E0,-8.944272E-1,2.044453E0,1.2967122E-1,-1.915112E0,-4.938743E-2,-1.9798279E-2,7.983764E-2,-2.57843E-3,9.06018E-2,3.5042867E-1,-6.5153295E-1,1.7888544E0,1.45865E-1,-8.0079496E-2,0E0,-2.8910255E-3,2.6037598E-3,-2.2823887E-2,1.2684631E-3,-1.6479491E-5,-2.312054E-2],"split_indices":[6,0,0,4,0,5,6,0,0,0,0,7,5,0,1,0,0,0,0,0,0,0,0],"split_type":[0,0,0,0,0,0,0,0,0,0,0,0,0,0,0,0,0,0,0,0,0,0,0],"sum_hessian":[2.1E1,5E0,1.6E1,3E0,2E0,2E0,1.4E1,2E0,1E0,1E0,1E0,1E1,4E0,8E0,2E0,1E0,3E0,7E0,1E0,1E0,1E0,1E0,2E0],"tree_param":{"num_deleted":"0","num_feature":"12","num_nodes":"23","size_leaf_vector":"1"}},{"base_weights":[3.4113997E-1,1.3600586E-1,9.5698886E-2,6.270378E-1,-1.0090066E-1,8.526581E-2,-2.0759583E-2,-4.0400878E-2,-1.3986683E-2,-2.4752808E-3,-1.586914E-5,-1.6709747E-2,6.766975E-3,-2.2325134E-3,1.2565558E-3],"categories":[],"categories_nodes":[],"categories_segments":[],"categories_sizes":[],"default_left":[0,0,0,0,0,0,0,0,0,0,0,0,0,0,0],"id":73,"left_children":[1,-1,3,5,7,-1,9,11,-1,-1,-1,-1,13,-1,-1],"loss_changes":[6.508066E0,0E0,1.9435663E0,1.4433444E0,5.555749E-2,0E0,6.2189007E-4,7.293115E-2,0E0,0E0,0E0,0E0,2.9181582E-3,0E0,0E0],"parents":[2147483647,0,0,2,2,3,3,4,4,6,6,7,7,12,12],"right_children":[2,-1,4,6,8,-1,10,12,-1,-1,-1,-1,14,-1,-1],"split_conditions":[-1.0682727E0,1.3600586E-1,0E0,1.6660645E0,-2.0170629E-1,8.526581E-2,-8.944272E-1,-9.414023E-1,-1.3986683E-2,-2.4752808E-3,-1.586914E-5,-1.6709747E-2,-6.5153295E-1,-2.2325134E-3,1.2565558E-3],"split_indices":[6,0,0,6,6,0,0,6,0,0,0,0,5,0,0],"split_type":[0,0,0,0,0,0,0,0,0,0,0,0,0,0,0],"sum_hessian":[1.9E1,2E0,1.7E1,4E0,1.3E1,2E0,2E0,8E0,5E0,1E0,1E0,1E0,7E0,1E0,6E0],"tree_param":{"num_deleted":"0","num_feature":"12","num_nodes":"15","size_leaf_vector":"1"}},{"base_weights":[8.897268E-2,5.5898435E-2,-1.0548915E-1,6.7658997E-1,-3.0919352E-1,-2.3762512E-3,8.3567046E-2,-8.028702E-2,-1.3939534E-1,-2.336036E-1,-3.765591E-2,-1.5258789E-5,-2.335273E-2,1.7674789E-3,-1.34561155E-2],"categories":[],"categories_nodes":[],"categories_segments":[],"categories_sizes":[],"default_left":[0,0,0,0,0,0,0,0,0,0,0,0,0,0,0],"id":74,"left_children":[1,-1,3,5,7,-1,-1,-1,9,11,13,-1,-1,-1,-1],"loss_changes":[1.9709024E0,0E0,2.2802656E0,8.10771E-1,1.1570803E0,0E0,0E0,0E0,8.705039E-2,6.799063E-2,5.0516255E-2,0E0,0E0,0E0,0E0],"parents":[2147483647,0,0,2,2,3,3,4,4,8,8,9,9,10,10],"right_children":[2,-1,4,6,8,-1,-1,-1,10,12,14,-1,-1,-1,-1],"split_conditions":[-9.414023E-1,5.5898435E-2,-8.944272E-1,-1.915112E0,-6.5153295E-1,-2.3762512E-3,8.3567046E-2,-8.028702E-2,1.45865E-1,0E0,-2.0170629E-1,-1.5258789E-5,-2.335273E-2,1.7674789E-3,-1.34561155E-2],"split_indices":[6,0,0,5,5,0,0,0,1,0,6,0,0,0,0],"split_type":[0,0,0,0,0,0,0,0,0,0,0,0,0,0,0],"sum_hessian":[1.5E1,3E0,1.2E1,2E0,1E1,1E0,1E0,1E0,9E0,4E0,5E0,1E0,3E0,4E0,1E0],"tree_param":{"num_deleted":"0","num_feature":"12","num_nodes":"15","size_leaf_vector":"1"}},{"base_weights":[1.9965342E-1,1.7142281E-2,1.1079235E0,8.0224305E-2,-8.2280986E-2,2.3785399E-3,1.1659282E-1,-1.7735879E-1,6.896789E-2,-5.892782E-1,-6.329401E-2,-7.70755E-2,-1.1472677E-2,2.4997558E-2,-1.1143501E-2],"categories":[],"categories_nodes":[],"categories_segments":[],"categories_sizes":[],"default_left":[0,0,0,0,0,0,0,0,0,0,0,0,0,0,0],"id":75,"left_children":[1,3,5,-1,7,-1,-1,9,-1,11,13,-1,-1,-1,-1],"loss_changes":[3.9594734E0,2.140463E0,1.4639235E0,0E0,1.9486918E0,0E0,0E0,8.554267E-1,0E0,5.2915037E-1,5.004519E-1,0E0,0E0,0E0,0E0],"parents":[2147483647,0,0,1,1,2,2,4,4,7,7,9,9,10,10],"right_children":[2,4,6,-1,8,-1,-1,10,-1,12,14,-1,-1,-1,-1],"split_conditions":[1.7888544E0,-8.944272E-1,1.0644451E0,8.0224305E-2,1.7491133E0,2.3785399E-3,1.1659282E-1,-2.7245924E-1,6.896789E-2,0E0,0E0,-7.70755E-2,-1.1472677E-2,2.4997558E-2,-1.1143501E-2],"split_indices":[0,0,3,0,3,0,0,5,0,0,0,0,0,0,0],"split_type":[0,0,0,0,0,0,0,0,0,0,0,0,0,0,0],"sum_hessian":[2.3E1,2E1,3E0,1E0,1.9E1,1E0,2E0,1.8E1,1E0,3E0,1.5E1,1E0,2E0,2E0,1.3E1],"tree_param":{"num_deleted":"0","num_feature":"12","num_nodes":"15","size_leaf_vector":"1"}},{"base_weights":[6.352759E-2,-2.0393844E-1,1.10374555E-1,-4.8722172E-1,-9.251581E-2,-6.6235477E-1,1.5270995E-3,2.9580435E-1,-1.5980821E-2,-5.490112E-3,-7.399246E-2,-1.0145569E-3,3.651108E-2],"categories":[],"categories_nodes":[],"categories_segments":[],"categories_sizes":[],"default_left":[0,0,0,0,0,0,0,0,0,0,0,0,0],"id":76,"left_children":[1,3,-1,5,7,9,-1,11,-1,-1,-1,-1,-1],"loss_changes":[6.2658215E0,4.2838687E-1,0E0,3.673303E-1,5.5883217E-1,4.0417898E-1,0E0,1.5440193E-1,0E0,0E0,0E0,0E0,0E0],"parents":[2147483647,0,0,1,1,3,3,4,4,5,5,7,7],"right_children":[2,4,-1,6,8,10,-1,12,-1,-1,-1,-1,-1],"split_conditions":[1.7888544E0,-6.5153295E-1,1.10374555E-1,0E0,0E0,-8.944272E-1,1.5270995E-3,3.593303E-1,-1.5980821E-2,-5.490112E-3,-7.399246E-2,-1.0145569E-3,3.651108E-2],"split_indices":[0,5,0,0,0,0,0,5,0,0,0,0,0],"split_type":[0,0,0,0,0,0,0,0,0,0,0,0,0],"sum_hessian":[1.6E1,1.4E1,2E0,3E0,1.1E1,2E0,1E0,2E0,9E0,1E0,1E0,1E0,1E0],"tree_param":{"num_deleted":"0","num_feature":"12","num_nodes":"13","size_leaf_vector":"1"}},{"base_weights":[1.9399105E-1,1.0244248E0,-6.1665397E-2,4.0127563E-1,1.0448791E-1,1.8003845E-1,-1.2631898E-1,-1.7994994E-2,6.614807E-2,-5.2037556E-2,3.5050657E-2,-7.461739E-2,-1.8953484E-2,-5.2705384E-3,-9.739685E-4,-1.2151875E-1,-1.527981E-2,-1.9942112E-2,-3.6889552E-3,-3.6574793E-3,2.4318695E-3],"categories":[],"categories_nodes":[],"categories_segments":[],"categories_sizes":[],"default_left":[0,0,0,0,0,0,0,0,0,0,0,0,0,0,0,0,0,0,0,0,0],"id":77,"left_children":[1,3,5,7,-1,9,11,-1,-1,13,-1,15,-1,-1,-1,17,19,-1,-1,-1,-1],"loss_changes":[4.521591E0,3.5351992E-1,2.8840154E-1,9.85492E-1,0E0,2.6238984E-1,6.2376186E-2,0E0,0E0,8.5352454E-4,0E0,2.8756361E-2,0E0,0E0,0E0,4.630816E-2,9.7320685E-3,0E0,0E0,0E0,0E0],"parents":[2147483647,0,0,1,1,2,2,3,3,5,5,6,6,9,9,11,11,15,15,16,16],"right_children":[2,4,6,8,-1,10,12,-1,-1,14,-1,16,-1,-1,-1,18,20,-1,-1,-1,-1],"split_conditions":[-9.414023E-1,7.2932494E-1,-4.3759498E-1,2.044453E0,1.0448791E-1,3.593303E-1,-4.938743E-2,-1.7994994E-2,6.614807E-2,-1.021055E0,3.5050657E-2,1.45865E-1,-1.8953484E-2,-5.2705384E-3,-9.739685E-4,-3.414147E-1,2.1554033E-1,-1.9942112E-2,-3.6889552E-3,-3.6574793E-3,2.4318695E-3],"split_indices":[6,1,1,4,0,5,6,0,0,1,0,1,0,0,0,6,7,0,0,0,0],"split_type":[0,0,0,0,0,0,0,0,0,0,0,0,0,0,0,0,0,0,0,0,0],"sum_hessian":[2E1,4E0,1.6E1,2E0,2E0,3E0,1.3E1,1E0,1E0,2E0,1E0,1E1,3E0,1E0,1E0,5E0,5E0,1E0,4E0,3E0,2E0],"tree_param":{"num_deleted":"0","num_feature":"12","num_nodes":"21","size_leaf_vector":"1"}},{"base_weights":[-7.090998E-2,-1.5819761E-1,6.350219E-2,-7.09938E-2,-6.838386E-2,2.7261353E-1,-1.2804687E-1,-9.350586E-4,3.364868E-2,-2.2489727E-2,-8.609895E-2,-2.2877918E-3,-1.7816277E-2],"categories":[],"categories_nodes":[],"categories_segments":[],"categories_sizes":[],"default_left":[0,0,0,0,0,0,0,0,0,0,0,0,0],"id":78,"left_children":[1,3,-1,-1,5,7,9,-1,-1,-1,11,-1,-1],"loss_changes":[1.6351041E0,1.1837087E0,0E0,0E0,4.0111613E-1,1.3114189E-1,7.8534365E-2,0E0,0E0,0E0,1.0360085E-1,0E0,0E0],"parents":[2147483647,0,0,1,1,4,4,5,5,6,6,10,10],"right_children":[2,4,-1,-1,6,8,10,-1,-1,-1,12,-1,-1],"split_conditions":[2.044453E0,-6.5153295E-1,6.350219E-2,-7.09938E-2,-4.3759498E-1,3.593303E-1,3.593303E-1,-9.350586E-4,3.364868E-2,-2.2489727E-2,-4.938743E-2,-2.2877918E-3,-1.7816277E-2],"split_indices":[4,5,0,0,1,5,5,0,0,0,6,0,0],"split_type":[0,0,0,0,0,0,0,0,0,0,0,0,0],"sum_hessian":[1.9E1,1.8E1,1E0,1E0,1.7E1,2E0,1.5E1,1E0,1E0,2E0,1.3E1,1E1,3E0],"tree_param":{"num_deleted":"0","num_feature":"12","num_nodes":"13","size_leaf_vector":"1"}},{"base_weights":[2.131835E-1,5.627553E-2,9.444275E-1,6.505483E-1,-4.5896348E-2,3.715566E-1,1.0652161E-1,-2.2198486E-3,8.0285646E-2,-4.969082E-1,7.7433236E-2,-1.6375426E-2,6.096222E-2,-6.815399E-2,-9.459432E-2,3.5772857E-1,-5.7013128E-2,4.2085266E-3,-1.5559845E-2,-8.9767453E-4,3.6221694E-2,-1.67473E-2,2.1022058E-3],"categories":[],"categories_nodes":[],"categories_segments":[],"categories_sizes":[],"default_left":[0,0,0,0,0,0,0,0,0,0,0,0,0,0,0,0,0,0,0,0,0,0,0],"id":79,"left_children":[1,3,5,7,9,11,-1,-1,-1,13,15,-1,-1,-1,17,19,21,-1,-1,-1,-1,-1,-1],"loss_changes":[2.585826E0,1.244217E0,3.922813E-1,7.462084E-1,1.0396931E0,8.3100796E-1,0E0,0E0,0E0,4.9072528E-1,5.856655E-1,0E0,0E0,0E0,5.434964E-2,1.8041015E-1,1.4506364E-1,0E0,0E0,0E0,0E0,0E0,0E0],"parents":[2147483647,0,0,1,1,2,2,3,3,4,4,5,5,9,9,10,10,14,14,15,15,16,16],"right_children":[2,4,6,8,10,12,-1,-1,-1,14,16,-1,-1,-1,18,20,22,-1,-1,-1,-1,-1,-1],"split_conditions":[1.5779463E0,-8.944272E-1,1.7888544E0,-1.4174771E0,-2.7245924E-1,1.7491133E0,1.0652161E-1,-2.2198486E-3,8.0285646E-2,0E0,5.938433E-1,-1.6375426E-2,6.096222E-2,-6.815399E-2,1.3211957E0,-1.4174771E0,-4.8140734E-2,4.2085266E-3,-1.5559845E-2,-8.9767453E-4,3.6221694E-2,-1.67473E-2,2.1022058E-3],"split_indices":[3,0,0,3,5,3,0,0,0,0,4,0,0,0,3,3,3,0,0,0,0,0,0],"split_type":[0,0,0,0,0,0,0,0,0,0,0,0,0,0,0,0,0,0,0,0,0,0,0],"sum_hessian":[2.2E1,1.9E1,3E0,2E0,1.7E1,2E0,1E0,1E0,1E0,3E0,1.4E1,1E0,1E0,1E0,2E0,4E0,1E1,1E0,1E0,1E0,3E0,3E0,7E0],"tree_param":{"num_deleted":"0","num_feature":"12","num_nodes":"23","size_leaf_vector":"1"}},{"base_weights":[3.0678043E-1,9.02586E-2,1.0068512E-1,5.246765E-1,-6.056461E-2,-1.9952392E-3,7.1952105E-2,-1.7076045E-1,3.187267E-2,-1.4823344E-2,-3.3428955E-3,8.034706E-5,4.5832363E-3,-2.081216E-3,2.091929E-3],"categories":[],"categories_nodes":[],"categories_segments":[],"categories_sizes":[],"default_left":[0,0,0,0,0,0,0,0,0,0,0,0,0,0,0],"id":80,"left_children":[1,3,-1,5,7,-1,-1,9,11,-1,-1,13,-1,-1,-1],"loss_changes":[4.420206E0,1.2766626E0,0E0,1.0522072E0,1.5823565E-1,0E0,0E0,5.3765476E-3,7.26821E-3,0E0,0E0,4.081669E-3,0E0,0E0,0E0],"parents":[2147483647,0,0,1,1,3,3,4,4,7,7,8,8,11,11],"right_children":[2,4,-1,6,8,-1,-1,10,12,-1,-1,14,-1,-1,-1],"split_conditions":[1.3211957E0,0E0,1.0068512E-1,-1.4174771E0,1.9305894E-1,-1.9952392E-3,7.1952105E-2,8.944272E-1,3.797769E-1,-1.4823344E-2,-3.3428955E-3,1.45865E-1,4.5832363E-3,-2.081216E-3,2.091929E-3],"split_indices":[3,0,0,3,7,0,0,0,3,0,0,1,0,0,0],"split_type":[0,0,0,0,0,0,0,0,0,0,0,0,0,0,0],"sum_hessian":[2.1E1,1.8E1,3E0,4E0,1.4E1,2E0,2E0,6E0,8E0,5E0,1E0,4E0,4E0,2E0,2E0],"tree_param":{"num_deleted":"0","num_feature":"12","num_nodes":"15","size_leaf_vector":"1"}},{"base_weights":[6.689469E-2,6.0120773E-1,-1.2621207E-2,-2.051239E-3,7.419617E-2,-8.137284E-2,5.449646E-2,-5.818054E-2,3.0795194E-2,3.0271378E-1,-6.8518244E-2,-7.8201294E-4,3.0662384E-2,-1.4853058E-2,-1.5752906E-3],"categories":[],"categories_nodes":[],"categories_segments":[],"categories_sizes":[],"default_left":[0,0,0,0,0,0,0,0,0,0,0,0,0,0,0],"id":81,"left_children":[1,3,5,-1,-1,7,-1,-1,9,11,13,-1,-1,-1,-1],"loss_changes":[9.847748E-1,6.372974E-1,1.057168E0,0E0,0E0,1.4713466E0,0E0,0E0,5.0683445E-1,1.296266E-1,7.6422E-2,0E0,0E0,0E0,0E0],"parents":[2147483647,0,0,1,1,2,2,5,5,8,8,9,9,10,10],"right_children":[2,4,6,-1,-1,8,-1,-1,10,12,14,-1,-1,-1,-1],"split_conditions":[-1.021055E0,-1.4174771E0,1.7491133E0,-2.051239E-3,7.419617E-2,-2.7245924E-1,5.449646E-2,-5.818054E-2,5.938433E-1,-1.4174771E0,-4.8140734E-2,-7.8201294E-4,3.0662384E-2,-1.4853058E-2,-1.5752906E-3],"split_indices":[1,3,3,0,0,5,0,0,4,3,3,0,0,0,0],"split_type":[0,0,0,0,0,0,0,0,0,0,0,0,0,0,0],"sum_hessian":[2.2E1,2E0,2E1,1E0,1E0,1.9E1,1E0,2E0,1.7E1,4E0,1.3E1,1E0,3E0,3E0,1E1],"tree_param":{"num_deleted":"0","num_feature":"12","num_nodes":"15","size_leaf_vector":"1"}},{"base_weights":[2.2903703E-1,2.0536928E-2,9.2972256E-2,5.771599E-1,-7.8898706E-2,-1.9691468E-3,7.122833E-2,-4.982872E-1,1.0238905E-2,-6.59787E-2,6.1842343E-3,2.1665446E-1,-3.818306E-2,-7.5073243E-4,2.6749266E-2,-1.000964E-2,-8.8013295E-4],"categories":[],"categories_nodes":[],"categories_segments":[],"categories_sizes":[],"default_left":[0,0,0,0,0,0,0,0,0,0,0,0,0,0,0,0,0],"id":82,"left_children":[1,3,-1,5,7,-1,-1,9,11,-1,-1,13,15,-1,-1,-1,-1],"loss_changes":[4.256339E0,1.0971522E0,0E0,5.873322E-1,6.4061785E-1,0E0,0E0,6.274525E-1,1.5819822E-1,0E0,0E0,8.295971E-2,2.9343523E-2,0E0,0E0,0E0,0E0],"parents":[2147483647,0,0,1,1,3,3,4,4,7,7,8,8,11,11,12,12],"right_children":[2,4,-1,6,8,-1,-1,10,12,-1,-1,14,16,-1,-1,-1,-1],"split_conditions":[1.3211957E0,-8.944272E-1,9.2972256E-2,-1.4174771E0,-6.5153295E-1,-1.9691468E-3,7.122833E-2,0E0,0E0,-6.59787E-2,6.1842343E-3,-1.4174771E0,-4.8140734E-2,-7.5073243E-4,2.6749266E-2,-1.000964E-2,-8.8013295E-4],"split_indices":[3,0,0,3,5,0,0,0,0,0,0,3,3,0,0,0,0],"split_type":[0,0,0,0,0,0,0,0,0,0,0,0,0,0,0,0,0],"sum_hessian":[2.1E1,1.8E1,3E0,2E0,1.6E1,1E0,1E0,2E0,1.4E1,1E0,1E0,2E0,1.2E1,1E0,1E0,2E0,1E1],"tree_param":{"num_deleted":"0","num_feature":"12","num_nodes":"17","size_leaf_vector":"1"}},{"base_weights":[1.3229254E-1,6.203921E-3,7.611847E-1,5.5407333E-1,-8.06283E-2,8.4126785E-2,-4.4006347E-3,-1.8904114E-3,6.837921E-2,4.8597716E-2,-1.5260448E-1,-4.245154E-1,-1.5368319E-2,-4.046521E-2,-7.206726E-4,2.567932E-2,-5.6118076E-3],"categories":[],"categories_nodes":[],"categories_segments":[],"categories_sizes":[],"default_left":[0,0,0,0,0,0,0,0,0,0,0,0,0,0,0,0,0],"id":83,"left_children":[1,3,5,7,9,-1,-1,-1,-1,-1,11,13,15,-1,-1,-1,-1],"loss_changes":[1.8983852E0,1.043701E0,1.0059354E0,5.412864E-1,1.0337119E0,0E0,0E0,0E0,0E0,0E0,6.651641E-1,1.9812691E-1,2.6204893E-1,0E0,0E0,0E0,0E0],"parents":[2147483647,0,0,1,1,2,2,3,3,4,4,10,10,11,11,12,12],"right_children":[2,4,6,8,10,-1,-1,-1,-1,-1,12,14,16,-1,-1,-1,-1],"split_conditions":[1.7888544E0,-8.944272E-1,-9.414023E-1,-1.915112E0,-1.1834885E0,8.4126785E-2,-4.4006347E-3,-1.8904114E-3,6.837921E-2,4.8597716E-2,3.593303E-1,1.6660645E0,0E0,-4.046521E-2,-7.206726E-4,2.567932E-2,-5.6118076E-3],"split_indices":[0,0,6,5,6,0,0,0,0,0,5,6,0,0,0,0,0],"split_type":[0,0,0,0,0,0,0,0,0,0,0,0,0,0,0,0,0],"sum_hessian":[2.3E1,2E1,3E0,2E0,1.8E1,2E0,1E0,1E0,1E0,1E0,1.7E1,5E0,1.2E1,4E0,1E0,1E0,1.1E1],"tree_param":{"num_deleted":"0","num_feature":"12","num_nodes":"17","size_leaf_vector":"1"}},{"base_weights":[1.2692913E-1,7.255039E-1,1.2327853E-2,2.0723724E-1,9.121215E-2,5.319112E-1,-6.622604E-2,-2.1785278E-2,4.6653748E-2,6.564407E-2,-1.8147278E-3,-1.9797058E-1,5.956227E-2,-2.1804556E-1,-6.918335E-4,2.983602E-1,-2.6655065E-2,-7.6892134E-3,-2.1039324E-2,7.555542E-3,2.824768E-2,2.2854924E-3,-1.8737793E-2],"categories":[],"categories_nodes":[],"categories_segments":[],"categories_sizes":[],"default_left":[0,0,0,0,0,0,0,0,0,0,0,0,0,0,0,0,0,0,0,0,0,0,0],"id":84,"left_children":[1,3,5,7,-1,9,11,-1,-1,-1,-1,13,15,17,-1,19,21,-1,-1,-1,-1,-1,-1],"loss_changes":[1.7059921E0,6.233113E-1,9.33163E-1,6.99649E-1,0E0,4.9884802E-1,3.4323007E-1,0E0,0E0,0E0,0E0,3.612086E-2,2.3442654E-1,2.404505E-2,0E0,1.3661385E-4,1.0985519E-1,0E0,0E0,0E0,0E0,0E0,0E0],"parents":[2147483647,0,0,1,1,2,2,3,3,5,5,6,6,11,11,12,12,13,13,15,15,16,16],"right_children":[2,4,6,8,-1,10,12,-1,-1,-1,-1,14,16,18,-1,20,22,-1,-1,-1,-1,-1,-1],"split_conditions":[-1.0682727E0,1.7888544E0,-8.944272E-1,2.044453E0,9.121215E-2,1.6660645E0,1.9305894E-1,-2.1785278E-2,4.6653748E-2,6.564407E-2,-1.8147278E-3,1.6660645E0,5.938433E-1,-4.938743E-2,-6.918335E-4,1.7888544E0,8.944272E-1,-7.6892134E-3,-2.1039324E-2,7.555542E-3,2.824768E-2,2.2854924E-3,-1.8737793E-2],"split_indices":[6,0,0,4,0,6,7,0,0,0,0,6,4,6,0,0,0,0,0,0,0,0,0],"split_type":[0,0,0,0,0,0,0,0,0,0,0,0,0,0,0,0,0,0,0,0,0,0,0],"sum_hessian":[2.4E1,3E0,2.1E1,2E0,1E0,2E0,1.9E1,1E0,1E0,1E0,1E0,9E0,1E1,8E0,1E0,2E0,8E0,3E0,5E0,1E0,1E0,7E0,1E0],"tree_param":{"num_deleted":"0","num_feature":"12","num_nodes":"23","size_leaf_vector":"1"}},{"base_weights":[2.9342907E-2,5.106354E-1,-4.8195004E-2,-1.7420959E-3,6.301834E-2,-3.7602156E-1,6.429352E-2,-6.6421507E-4,-4.6587563E-1,3.507436E-2,-2.699121E-2,-6.087936E-2,-1.1383947E-1,-1.2321065E-2,1.0104927E-2,7.253265E-3,-2.0914001E-2,-7.7888847E-4,3.780861E-3],"categories":[],"categories_nodes":[],"categories_segments":[],"categories_sizes":[],"default_left":[0,0,0,0,0,0,0,0,0,0,0,0,0,0,0,0,0,0,0],"id":85,"left_children":[1,3,5,-1,-1,7,9,-1,11,-1,13,-1,15,-1,17,-1,-1,-1,-1],"loss_changes":[8.0829674E-1,4.5973772E-1,7.2483355E-1,0E0,0E0,1.6133714E-1,5.2412724E-1,0E0,3.2893574E-1,0E0,6.2812686E-2,0E0,1.14248395E-1,0E0,8.569447E-3,0E0,0E0,0E0,0E0],"parents":[2147483647,0,0,1,1,2,2,5,5,6,6,8,8,10,10,12,12,14,14],"right_children":[2,4,6,-1,-1,8,10,-1,12,-1,14,-1,16,-1,18,-1,-1,-1,-1],"split_conditions":[-8.944272E-1,-1.4174771E0,3.593303E-1,-1.7420959E-3,6.301834E-2,-1.4174771E0,5.938433E-1,-6.6421507E-4,0E0,3.507436E-2,-4.8140734E-2,-6.087936E-2,1.3211957E0,-1.2321065E-2,3.797769E-1,7.253265E-3,-2.0914001E-2,-7.7888847E-4,3.780861E-3],"split_indices":[0,3,5,0,0,3,4,0,0,0,3,0,3,0,3,0,0,0,0],"split_type":[0,0,0,0,0,0,0,0,0,0,0,0,0,0,0,0,0,0,0],"sum_hessian":[2E1,2E0,1.8E1,1E0,1E0,4E0,1.4E1,1E0,3E0,2E0,1.2E1,1E0,2E0,2E0,1E1,1E0,1E0,7E0,3E0],"tree_param":{"num_deleted":"0","num_feature":"12","num_nodes":"19","size_leaf_vector":"1"}},{"base_weights":[1.3059519E-1,8.985737E-3,7.0599365E-1,1.757323E-1,-5.8311936E-2,2.1288808E-1,8.741241E-2,-1.5400187E-3,2.2242889E-2,-3.184887E-2,-1.7151793E-2,-2.0077514E-2,4.5624085E-2,-1.10229645E-2,9.5694605E-3,-7.243645E-4,3.5540103E-3],"categories":[],"categories_nodes":[],"categories_segments":[],"categories_sizes":[],"default_left":[0,0,0,0,0,0,0,0,0,0,0,0,0,0,0,0,0],"id":86,"left_children":[1,3,5,7,9,11,-1,-1,-1,13,-1,-1,-1,-1,15,-1,-1],"loss_changes":[1.6030557E0,2.346804E-1,5.3004646E-1,1.25037E-1,5.512919E-2,6.404934E-1,0E0,0E0,0E0,6.274751E-2,0E0,0E0,0E0,0E0,7.5429287E-3,0E0,0E0],"parents":[2147483647,0,0,1,1,2,2,3,3,4,4,5,5,9,9,14,14],"right_children":[2,4,6,8,10,12,-1,-1,-1,14,-1,-1,-1,-1,16,-1,-1],"split_conditions":[1.5779463E0,5.938433E-1,7.2932494E-1,-1.4174771E0,8.9327806E-1,1.7491133E0,8.741241E-2,-1.5400187E-3,2.2242889E-2,-4.8140734E-2,-1.7151793E-2,-2.0077514E-2,4.5624085E-2,-1.10229645E-2,3.797769E-1,-7.243645E-4,3.5540103E-3],"split_indices":[3,4,1,3,3,3,0,0,0,3,0,0,0,0,3,0,0],"split_type":[0,0,0,0,0,0,0,0,0,0,0,0,0,0,0,0,0],"sum_hessian":[2.2E1,1.9E1,3E0,5E0,1.4E1,2E0,1E0,2E0,3E0,1.3E1,1E0,1E0,1E0,3E0,1E1,7E0,3E0],"tree_param":{"num_deleted":"0","num_feature":"12","num_nodes":"17","size_leaf_vector":"1"}},{"base_weights":[1.24321595E-1,1.2985565E-2,6.7775536E-1,4.8330942E-1,-6.195955E-2,2.0437367E-1,8.3916016E-2,-1.6107177E-3,5.960785E-2,-4.357891E-1,3.5370313E-2,-1.927429E-2,4.3799132E-2,-5.9333954E-2,-8.660253E-2,2.0620422E-1,-3.875801E-2,6.073456E-3,-1.6465759E-2,-5.760193E-4,2.0908432E-2,-1.107605E-2,-3.97954E-4],"categories":[],"categories_nodes":[],"categories_segments":[],"categories_sizes":[],"default_left":[0,0,0,0,0,0,0,0,0,0,0,0,0,0,0,0,0,0,0,0,0,0,0],"id":87,"left_children":[1,3,5,7,9,11,-1,-1,-1,13,15,-1,-1,-1,17,19,21,-1,-1,-1,-1,-1,-1],"loss_changes":[1.4700098E0,7.701636E-1,4.8848963E-1,4.1038913E-1,7.067248E-1,5.9027624E-1,0E0,0E0,0E0,3.630134E-1,2.1061017E-1,0E0,0E0,0E0,7.375254E-2,6.072937E-2,3.9726976E-2,0E0,0E0,0E0,0E0,0E0,0E0],"parents":[2147483647,0,0,1,1,2,2,3,3,4,4,5,5,9,9,10,10,14,14,15,15,16,16],"right_children":[2,4,6,8,10,12,-1,-1,-1,14,16,-1,-1,-1,18,20,22,-1,-1,-1,-1,-1,-1],"split_conditions":[1.5779463E0,-8.944272E-1,1.7888544E0,-1.4174771E0,-2.7245924E-1,1.7491133E0,8.3916016E-2,-1.6107177E-3,5.960785E-2,0E0,5.938433E-1,-1.927429E-2,4.3799132E-2,-5.9333954E-2,1.3211957E0,-1.4174771E0,-4.8140734E-2,6.073456E-3,-1.6465759E-2,-5.760193E-4,2.0908432E-2,-1.107605E-2,-3.97954E-4],"split_indices":[3,0,0,3,5,3,0,0,0,0,4,0,0,0,3,3,3,0,0,0,0,0,0],"split_type":[0,0,0,0,0,0,0,0,0,0,0,0,0,0,0,0,0,0,0,0,0,0,0],"sum_hessian":[2.3E1,2E1,3E0,2E0,1.8E1,2E0,1E0,1E0,1E0,3E0,1.5E1,1E0,1E0,1E0,2E0,4E0,1.1E1,1E0,1E0,1E0,3E0,2E0,9E0],"tree_param":{"num_deleted":"0","num_feature":"12","num_nodes":"23","size_leaf_vector":"1"}},{"base_weights":[1.4549795E-1,-1.768833E-2,8.173767E-2,5.722351E-2,-1.0820559E-1,-4.1835785E-1,-4.4506146E-3,-5.69606E-2,-8.3138786E-2,-5.4798484E-2,2.3988953E-2,5.8305357E-3,-1.5807189E-2,-7.3405793E-3,3.3646678E-3],"categories":[],"categories_nodes":[],"categories_segments":[],"categories_sizes":[],"default_left":[0,0,0,0,0,0,0,0,0,0,0,0,0,0,0],"id":88,"left_children":[1,3,-1,-1,5,7,9,-1,11,13,-1,-1,-1,-1,-1],"loss_changes":[2.734836E0,1.2053069E0,0E0,0E0,5.1301545E-1,3.3455253E-1,2.156113E-1,0E0,6.797083E-2,4.6815656E-2,0E0,0E0,0E0,0E0,0E0],"parents":[2147483647,0,0,1,1,4,4,5,5,6,6,8,8,9,9],"right_children":[2,4,-1,-1,6,8,10,-1,12,14,-1,-1,-1,-1,-1],"split_conditions":[1.5779463E0,-8.944272E-1,8.173767E-2,5.722351E-2,-2.7245924E-1,0E0,1.0644451E0,-5.69606E-2,1.3211957E0,2.1554033E-1,2.3988953E-2,5.8305357E-3,-1.5807189E-2,-7.3405793E-3,3.3646678E-3],"split_indices":[3,0,0,0,5,0,3,0,3,7,0,0,0,0,0],"split_type":[0,0,0,0,0,0,0,0,0,0,0,0,0,0,0],"sum_hessian":[1.8E1,1.6E1,2E0,1E0,1.5E1,3E0,1.2E1,1E0,2E0,1.1E1,1E0,1E0,1E0,8E0,3E0],"tree_param":{"num_deleted":"0","num_feature":"12","num_nodes":"15","size_leaf_vector":"1"}},{"base_weights":[2.3349757E-1,9.82373E-2,7.737813E-2,3.6473137E-1,-6.540402E-2,-3.4122467E-2,5.310974E-1,-3.6861513E-2,-1.5174866E-2,-3.8352965E-3,-2.593994E-4,5.1728413E-2,2.3855717E-1,-9.25659E-3,7.1691126E-3,5.5973814E-3,2.302948E-2,4.1337297E-3,-1.3021595E-3],"categories":[],"categories_nodes":[],"categories_segments":[],"categories_sizes":[],"default_left":[0,0,0,0,0,0,0,0,0,0,0,0,0,0,0,0,0,0,0],"id":89,"left_children":[1,3,-1,5,7,9,11,13,-1,-1,-1,-1,15,-1,17,-1,-1,-1,-1],"loss_changes":[1.88987E0,8.088249E-1,0E0,4.826125E-1,3.5575673E-2,1.124718E-3,1.4701009E-2,3.9017484E-2,0E0,0E0,0E0,0E0,4.7987998E-3,0E0,9.188345E-3,0E0,0E0,0E0,0E0],"parents":[2147483647,0,0,1,1,3,3,4,4,5,5,6,6,7,7,12,12,14,14],"right_children":[2,4,-1,6,8,10,12,14,-1,-1,-1,-1,16,-1,18,-1,-1,-1,-1],"split_conditions":[1.5779463E0,5.938433E-1,7.737813E-2,-1.4174771E0,8.944272E-1,-8.944272E-1,0E0,-4.8140734E-2,-1.5174866E-2,-3.8352965E-3,-2.593994E-4,5.1728413E-2,1.7888544E0,-9.25659E-3,1.2302632E-1,5.5973814E-3,2.302948E-2,4.1337297E-3,-1.3021595E-3],"split_indices":[3,4,0,3,0,0,0,3,0,0,0,0,0,0,3,0,0,0,0],"split_type":[0,0,0,0,0,0,0,0,0,0,0,0,0,0,0,0,0,0,0],"sum_hessian":[1.9E1,1.7E1,2E0,6E0,1.1E1,2E0,4E0,1E1,1E0,1E0,1E0,2E0,2E0,3E0,7E0,1E0,1E0,2E0,5E0],"tree_param":{"num_deleted":"0","num_feature":"12","num_nodes":"19","size_leaf_vector":"1"}},{"base_weights":[1.1678671E-1,5.2865446E-2,4.591321E-2,-2.2042465E-1,1.4481907E-1,-5.675125E-2,7.9164505E-2,7.99606E-3,3.0311322E-1,1.6949971E-1,-7.673645E-3,-5.333476E-3,3.519651E-3,1.85324E-1,3.5682373E-2,-2.4902343E-4,2.0588988E-2,-6.1295573E-3,3.0839423E-2],"categories":[],"categories_nodes":[],"categories_segments":[],"categories_sizes":[],"default_left":[0,0,0,0,0,0,0,0,0,0,0,0,0,0,0,0,0,0,0],"id":90,"left_children":[1,-1,3,5,7,-1,9,11,13,15,-1,-1,-1,17,-1,-1,-1,-1,-1],"loss_changes":[6.636931E-1,0E0,4.7974205E-1,7.886031E-1,2.7913395E-1,0E0,7.95239E-2,2.4436248E-2,1.8344104E-2,4.6299696E-2,0E0,0E0,0E0,2.9170078E-1,0E0,0E0,0E0,0E0,0E0],"parents":[2147483647,0,0,2,2,3,3,4,4,6,6,7,7,8,8,9,9,13,13],"right_children":[2,-1,4,6,8,-1,10,12,14,16,-1,-1,-1,18,-1,-1,-1,-1,-1],